<?xml version="1.0" encoding="UTF-8"?>
<PMML version="3.0"><Header copyright="Copyright 1984-2018 TIBCO Software Inc. All rights reserved."><Application name="STATISTICA Automated Neural Networks (SANN)" version="2.0"/></Header><DataDictionary numberOfFields="22"><DataField name="OtherPat" optype="categorical"><Value value="0"/><Value value="1"/></DataField><DataField name="828" optype="continuous"/><DataField name="788" optype="continuous"/><DataField name="44" optype="continuous"/><DataField name="323" optype="continuous"/><DataField name="602" optype="continuous"/><DataField name="456" optype="continuous"/><DataField name="695" optype="continuous"/><DataField name="177" optype="continuous"/><DataField name="699" optype="continuous"/><DataField name="47" optype="continuous"/><DataField name="336" optype="continuous"/><DataField name="615" optype="continuous"/><DataField name="796" optype="continuous"/><DataField name="823" optype="continuous"/><DataField name="172" optype="continuous"/><DataField name="265" optype="continuous"/><DataField name="735" optype="continuous"/><DataField name="419" optype="continuous"/><DataField name="358" optype="continuous"/><DataField name="549" optype="continuous"/><DataField name="424" optype="continuous"/></DataDictionary><NeuralNetwork modelName="BreastOve_RBF 21-9-2" functionName="classification"><MiningSchema><MiningField name="OtherPat" usageType="predicted"/><MiningField name="828" lowValue="0.963185" highValue="0.994386"/><MiningField name="788" lowValue="0.968921" highValue="0.997023"/><MiningField name="44" lowValue="0.968717" highValue="0.996985"/><MiningField name="323" lowValue="0.958320" highValue="0.996097"/><MiningField name="602" lowValue="0.958106" highValue="0.998053"/><MiningField name="456" lowValue="0.893096" highValue="0.985359"/><MiningField name="695" lowValue="0.901697" highValue="0.996029"/><MiningField name="177" lowValue="0.714180" highValue="0.964295"/><MiningField name="699" lowValue="0.375063" highValue="0.509834"/><MiningField name="47" lowValue="0.812827" highValue="0.998625"/><MiningField name="336" lowValue="4.925011" highValue="6.212944"/><MiningField name="615" lowValue="5.139541" highValue="6.743869"/><MiningField name="796" lowValue="0.773518" highValue="0.989279"/><MiningField name="823" lowValue="5.292333" highValue="7.811488"/><MiningField name="172" lowValue="3.434581" highValue="5.004221"/><MiningField name="265" lowValue="3.427335" highValue="5.858881"/><MiningField name="735" lowValue="0.617501" highValue="0.901666"/><MiningField name="419" lowValue="0.631791" highValue="0.997103"/><MiningField name="358" lowValue="2.707512" highValue="4.134976"/><MiningField name="549" lowValue="0.625234" highValue="0.942936"/><MiningField name="424" lowValue="0.500046" highValue="0.900685"/></MiningSchema><NeuralInputs numberOfInputs="21"><NeuralInput id="0"><DerivedField><NormContinuous field="828" shift="-3.08708925169906e+001" scale="3.20508389505827e+001"><LinearNorm orig="9.63185162316301e-001" norm="0.000000"/><LinearNorm orig="9.94385593654209e-001" norm="1.000000"/></NormContinuous></DerivedField></NeuralInput><NeuralInput id="1"><DerivedField><NormContinuous field="788" shift="-3.44787165966203e+001" scale="3.55846563262917e+001"><LinearNorm orig="9.68920882092254e-001" norm="0.000000"/><LinearNorm orig="9.97022881752741e-001" norm="1.000000"/></NormContinuous></DerivedField></NeuralInput><NeuralInput id="2"><DerivedField><NormContinuous field="44" shift="-3.42697077757124e+001" scale="3.53763793863732e+001"><LinearNorm orig="9.68717216689306e-001" norm="0.000000"/><LinearNorm orig="9.96984665686226e-001" norm="1.000000"/></NormContinuous></DerivedField></NeuralInput><NeuralInput id="3"><DerivedField><NormContinuous field="323" shift="-2.53675282654392e+001" scale="2.64708412502849e+001"><LinearNorm orig="9.58319685633950e-001" norm="0.000000"/><LinearNorm orig="9.96097102322180e-001" norm="1.000000"/></NormContinuous></DerivedField></NeuralInput><NeuralInput id="4"><DerivedField><NormContinuous field="602" shift="-2.39845228884647e+001" scale="2.50332658751503e+001"><LinearNorm orig="9.58106026120761e-001" norm="0.000000"/><LinearNorm orig="9.98052871449986e-001" norm="1.000000"/></NormContinuous></DerivedField></NeuralInput><NeuralInput id="5"><DerivedField><NormContinuous field="456" shift="-9.67987183333937e+000" scale="1.08385594832366e+001"><LinearNorm orig="8.93095789003204e-001" norm="0.000000"/><LinearNorm orig="9.85358972274619e-001" norm="1.000000"/></NormContinuous></DerivedField></NeuralInput><NeuralInput id="6"><DerivedField><NormContinuous field="695" shift="-9.55872572324478e+000" scale="1.06008180074161e+001"><LinearNorm orig="9.01696993246911e-001" norm="0.000000"/><LinearNorm orig="9.96029336213315e-001" norm="1.000000"/></NormContinuous></DerivedField></NeuralInput><NeuralInput id="7"><DerivedField><NormContinuous field="177" shift="-2.85541230954823e+000" scale="3.99816798581748e+000"><LinearNorm orig="7.14180174439168e-001" norm="0.000000"/><LinearNorm orig="9.64294727791417e-001" norm="1.000000"/></NormContinuous></DerivedField></NeuralInput><NeuralInput id="8"><DerivedField><NormContinuous field="699" shift="-2.78296228912754e+000" scale="7.41998841612252e+000"><LinearNorm orig="3.75062888653650e-001" norm="0.000000"/><LinearNorm orig="5.09833988542048e-001" norm="1.000000"/></NormContinuous></DerivedField></NeuralInput><NeuralInput id="9"><DerivedField><NormContinuous field="47" shift="-4.37477386237041e+000" scale="5.38217340929835e+000"><LinearNorm orig="8.12826627773172e-001" norm="0.000000"/><LinearNorm orig="9.98625174931163e-001" norm="1.000000"/></NormContinuous></DerivedField></NeuralInput><NeuralInput id="10"><DerivedField><NormContinuous field="336" shift="-3.82396596014476e+000" scale="7.76437991004430e-001"><LinearNorm orig="4.92501140393444e+000" norm="0.000000"/><LinearNorm orig="6.21294426088592e+000" norm="1.000000"/></NormContinuous></DerivedField></NeuralInput><NeuralInput id="11"><DerivedField><NormContinuous field="615" shift="-3.20354670408359e+000" scale="6.23313789813874e-001"><LinearNorm orig="5.13954088042908e+000" norm="0.000000"/><LinearNorm orig="6.74386925618764e+000" norm="1.000000"/></NormContinuous></DerivedField></NeuralInput><NeuralInput id="12"><DerivedField><NormContinuous field="796" shift="-3.58505806008939e+000" scale="4.63474680269826e+000"><LinearNorm orig="7.73517564757202e-001" norm="0.000000"/><LinearNorm orig="9.89279081528262e-001" norm="1.000000"/></NormContinuous></DerivedField></NeuralInput><NeuralInput id="13"><DerivedField><NormContinuous field="823" shift="-2.10083737144002e+000" scale="3.96958623069916e-001"><LinearNorm orig="5.29233338022236e+000" norm="0.000000"/><LinearNorm orig="7.81148762422494e+000" norm="1.000000"/></NormContinuous></DerivedField></NeuralInput><NeuralInput id="14"><DerivedField><NormContinuous field="172" shift="-2.18813278131658e+000" scale="6.37088683633834e-001"><LinearNorm orig="3.43458114627916e+000" norm="0.000000"/><LinearNorm orig="5.00422133247143e+000" norm="1.000000"/></NormContinuous></DerivedField></NeuralInput><NeuralInput id="15"><DerivedField><NormContinuous field="265" shift="-1.40952908441542e+000" scale="4.11260952560909e-001"><LinearNorm orig="3.42733506703792e+000" norm="0.000000"/><LinearNorm orig="5.85888125145691e+000" norm="1.000000"/></NormContinuous></DerivedField></NeuralInput><NeuralInput id="16"><DerivedField><NormContinuous field="735" shift="-2.17303476842301e+000" scale="3.51908157807837e+000"><LinearNorm orig="6.17500538197134e-001" norm="0.000000"/><LinearNorm orig="9.01665590303161e-001" norm="1.000000"/></NormContinuous></DerivedField></NeuralInput><NeuralInput id="17"><DerivedField><NormContinuous field="419" shift="-1.72945961692860e+000" scale="2.73739039072058e+000"><LinearNorm orig="6.31791366986330e-001" norm="0.000000"/><LinearNorm orig="9.97102797679547e-001" norm="1.000000"/></NormContinuous></DerivedField></NeuralInput><NeuralInput id="18"><DerivedField><NormContinuous field="358" shift="-1.89672895661121e+000" scale="7.00543163714165e-001"><LinearNorm orig="2.70751190626864e+000" norm="0.000000"/><LinearNorm orig="4.13497569693382e+000" norm="1.000000"/></NormContinuous></DerivedField></NeuralInput><NeuralInput id="19"><DerivedField><NormContinuous field="549" shift="-1.96798767890957e+000" scale="3.14760322627514e+000"><LinearNorm orig="6.25233721480990e-001" norm="0.000000"/><LinearNorm orig="9.42935772251663e-001" norm="1.000000"/></NormContinuous></DerivedField></NeuralInput><NeuralInput id="20"><DerivedField><NormContinuous field="424" shift="-1.24812175055333e+000" scale="2.49601246228632e+000"><LinearNorm orig="5.00046281583890e-001" norm="0.000000"/><LinearNorm orig="9.00685306873055e-001" norm="1.000000"/></NormContinuous></DerivedField></NeuralInput></NeuralInputs><NeuralLayer numberOfNeurons="9" activationFunction="radialBasis"><Neuron id="21" width="1.24048441978814e+000"><Con from="0" weight="6.11978364343948e-001"/><Con from="1" weight="2.09918931615476e-001"/><Con from="2" weight="2.71666752552974e-001"/><Con from="3" weight="1.39800843206277e-001"/><Con from="4" weight="2.35790051933115e-001"/><Con from="5" weight="7.83146738172412e-001"/><Con from="6" weight="5.81147836421341e-001"/><Con from="7" weight="0.00000000000000e+000"/><Con from="8" weight="7.27661402120922e-001"/><Con from="9" weight="6.40013368666072e-001"/><Con from="10" weight="0.00000000000000e+000"/><Con from="11" weight="6.04025066151528e-002"/><Con from="12" weight="7.18815652776803e-001"/><Con from="13" weight="7.69385246815357e-004"/><Con from="14" weight="0.00000000000000e+000"/><Con from="15" weight="4.66070018105857e-001"/><Con from="16" weight="5.77028949040913e-001"/><Con from="17" weight="8.91988351788196e-001"/><Con from="18" weight="3.35081951505810e-001"/><Con from="19" weight="5.13897215211797e-001"/><Con from="20" weight="7.27588431984121e-001"/></Neuron><Neuron id="22" width="9.32082611050027e-001"><Con from="0" weight="8.51413797818271e-001"/><Con from="1" weight="1.55182682141806e-001"/><Con from="2" weight="1.43832144419079e-001"/><Con from="3" weight="7.63479547847243e-001"/><Con from="4" weight="5.14611672920559e-001"/><Con from="5" weight="9.36472875210631e-001"/><Con from="6" weight="7.71110392599672e-001"/><Con from="7" weight="9.38987841105807e-001"/><Con from="8" weight="8.72413915492667e-001"/><Con from="9" weight="9.51509077648981e-001"/><Con from="10" weight="5.07257566813522e-001"/><Con from="11" weight="4.37714343467627e-001"/><Con from="12" weight="6.98134335044495e-001"/><Con from="13" weight="3.86678909135818e-001"/><Con from="14" weight="6.32156647368365e-001"/><Con from="15" weight="5.98922999659636e-001"/><Con from="16" weight="5.84919301587547e-001"/><Con from="17" weight="9.96953526076406e-001"/><Con from="18" weight="5.06084481040105e-001"/><Con from="19" weight="8.34682088325416e-001"/><Con from="20" weight="7.69469057492211e-001"/></Neuron><Neuron id="23" width="9.61536517509152e-001"><Con from="0" weight="5.46359475783177e-001"/><Con from="1" weight="8.50515304003004e-001"/><Con from="2" weight="8.74254175839077e-001"/><Con from="3" weight="6.76611913169076e-001"/><Con from="4" weight="6.91107407765042e-001"/><Con from="5" weight="4.62676038655850e-001"/><Con from="6" weight="8.81811484357128e-001"/><Con from="7" weight="6.96159334784599e-001"/><Con from="8" weight="7.95349274273761e-001"/><Con from="9" weight="6.34257628601476e-001"/><Con from="10" weight="6.95285887343712e-001"/><Con from="11" weight="6.43760919186996e-001"/><Con from="12" weight="5.21427617974587e-001"/><Con from="13" weight="5.17315719146726e-001"/><Con from="14" weight="6.44048590966546e-001"/><Con from="15" weight="6.30240545544662e-001"/><Con from="16" weight="1.84725437169012e-001"/><Con from="17" weight="5.25530747566089e-001"/><Con from="18" weight="4.66018690412726e-001"/><Con from="19" weight="2.78162579577181e-001"/><Con from="20" weight="3.17737608461100e-001"/></Neuron><Neuron id="24" width="7.86824690496680e-001"><Con from="0" weight="8.50225827464037e-001"/><Con from="1" weight="5.10751019238882e-001"/><Con from="2" weight="4.72409644528042e-001"/><Con from="3" weight="8.74704852045841e-001"/><Con from="4" weight="7.68209363759169e-001"/><Con from="5" weight="8.48245189460917e-001"/><Con from="6" weight="8.61890993821032e-001"/><Con from="7" weight="8.82545329913651e-001"/><Con from="8" weight="7.37038806590359e-001"/><Con from="9" weight="8.48219511993225e-001"/><Con from="10" weight="6.84298765922886e-001"/><Con from="11" weight="6.74974914803589e-001"/><Con from="12" weight="4.74636791637115e-001"/><Con from="13" weight="5.86358421110329e-001"/><Con from="14" weight="7.11047090378848e-001"/><Con from="15" weight="6.60192554458213e-001"/><Con from="16" weight="1.95439540434611e-001"/><Con from="17" weight="8.48559838425854e-001"/><Con from="18" weight="5.28693166989308e-001"/><Con from="19" weight="6.36068476465758e-001"/><Con from="20" weight="1.52786324670865e-001"/></Neuron><Neuron id="25" width="7.86824690496680e-001"><Con from="0" weight="8.91580120191943e-001"/><Con from="1" weight="6.24790499689951e-001"/><Con from="2" weight="6.23845906986375e-001"/><Con from="3" weight="7.28335292107694e-001"/><Con from="4" weight="6.71796434338937e-001"/><Con from="5" weight="9.19189617753153e-001"/><Con from="6" weight="8.50952095793208e-001"/><Con from="7" weight="9.45546209733385e-001"/><Con from="8" weight="8.79724349084126e-001"/><Con from="9" weight="9.37445408923193e-001"/><Con from="10" weight="6.37656767470831e-001"/><Con from="11" weight="5.98022152008903e-001"/><Con from="12" weight="8.75783534874818e-001"/><Con from="13" weight="6.92317195589923e-001"/><Con from="14" weight="9.83308643410978e-001"/><Con from="15" weight="6.99516474428029e-001"/><Con from="16" weight="4.95106400442237e-001"/><Con from="17" weight="9.63028800421684e-001"/><Con from="18" weight="5.18608847102147e-001"/><Con from="19" weight="8.19935307346367e-001"/><Con from="20" weight="4.99996907653199e-001"/></Neuron><Neuron id="26" width="1.13643899948988e+000"><Con from="0" weight="6.86473271550071e-001"/><Con from="1" weight="2.53079531984625e-001"/><Con from="2" weight="2.13657672511879e-001"/><Con from="3" weight="5.21026339838109e-002"/><Con from="4" weight="5.86584532847038e-001"/><Con from="5" weight="8.75756202153951e-001"/><Con from="6" weight="7.91258473656526e-001"/><Con from="7" weight="8.47890359813636e-001"/><Con from="8" weight="5.50966866851618e-001"/><Con from="9" weight="8.66669326646469e-001"/><Con from="10" weight="6.31788957865017e-001"/><Con from="11" weight="6.87501351333694e-001"/><Con from="12" weight="5.05510521402645e-001"/><Con from="13" weight="3.62984560166986e-001"/><Con from="14" weight="5.05365463449757e-001"/><Con from="15" weight="1.00000000000000e+000"/><Con from="16" weight="8.07388538742741e-001"/><Con from="17" weight="9.56643920865006e-001"/><Con from="18" weight="1.00000000000000e+000"/><Con from="19" weight="6.89804365876163e-001"/><Con from="20" weight="6.85153207691954e-001"/></Neuron><Neuron id="27" width="7.90263811770501e-001"><Con from="0" weight="7.31682409104693e-001"/><Con from="1" weight="5.09135962266221e-001"/><Con from="2" weight="5.26872283689663e-001"/><Con from="3" weight="5.65549024409965e-001"/><Con from="4" weight="4.76688183521205e-001"/><Con from="5" weight="5.11522360338802e-001"/><Con from="6" weight="4.43529616165268e-002"/><Con from="7" weight="8.13053692209658e-001"/><Con from="8" weight="7.08850428049035e-001"/><Con from="9" weight="6.66126619687827e-001"/><Con from="10" weight="3.18884619953358e-001"/><Con from="11" weight="4.08435059047537e-001"/><Con from="12" weight="4.30242004844362e-001"/><Con from="13" weight="5.00588918966402e-001"/><Con from="14" weight="6.06656713730077e-001"/><Con from="15" weight="4.48938422517489e-001"/><Con from="16" weight="1.42386152816494e-001"/><Con from="17" weight="7.07215298117888e-001"/><Con from="18" weight="2.09714005153949e-001"/><Con from="19" weight="2.17097765111762e-001"/><Con from="20" weight="4.48799969724100e-001"/></Neuron><Neuron id="28" width="7.72487112794030e-001"><Con from="0" weight="5.01679234507947e-001"/><Con from="1" weight="6.79370979507453e-001"/><Con from="2" weight="6.24756329309754e-001"/><Con from="3" weight="4.19250509942088e-001"/><Con from="4" weight="4.81041891465139e-002"/><Con from="5" weight="5.54871019384322e-001"/><Con from="6" weight="2.90969808878526e-001"/><Con from="7" weight="7.69031229444181e-001"/><Con from="8" weight="6.66303370427050e-001"/><Con from="9" weight="7.11674587632845e-001"/><Con from="10" weight="2.30795318895732e-001"/><Con from="11" weight="1.80509559736254e-001"/><Con from="12" weight="6.76622065639877e-001"/><Con from="13" weight="2.54966952326971e-001"/><Con from="14" weight="4.64165787080988e-001"/><Con from="15" weight="3.57451047964119e-001"/><Con from="16" weight="2.91390954793149e-001"/><Con from="17" weight="6.56146633919803e-001"/><Con from="18" weight="8.62611076942534e-002"/><Con from="19" weight="2.91055380991052e-001"/><Con from="20" weight="5.15937390405272e-001"/></Neuron><Neuron id="29" width="7.72487112794030e-001"><Con from="0" weight="6.58753344489547e-001"/><Con from="1" weight="4.03191424072162e-001"/><Con from="2" weight="3.73148895902702e-001"/><Con from="3" weight="2.49426475676305e-001"/><Con from="4" weight="4.19392608248728e-001"/><Con from="5" weight="6.20345597466226e-001"/><Con from="6" weight="5.84324097999689e-001"/><Con from="7" weight="8.05077395389537e-001"/><Con from="8" weight="8.58623268809295e-001"/><Con from="9" weight="8.19731888603604e-001"/><Con from="10" weight="5.37337121149584e-002"/><Con from="11" weight="2.44117185536307e-001"/><Con from="12" weight="7.17357074939449e-001"/><Con from="13" weight="2.61983095452218e-001"/><Con from="14" weight="5.66157671486820e-001"/><Con from="15" weight="4.13188735709308e-001"/><Con from="16" weight="3.68390254506989e-001"/><Con from="17" weight="7.81437897023962e-001"/><Con from="18" weight="6.29409629400213e-002"/><Con from="19" weight="4.31909516888234e-001"/><Con from="20" weight="3.34674706712184e-001"/></Neuron></NeuralLayer><NeuralLayer numberOfNeurons="2" normalizationMethod="softmax"><Neuron id="30" bias="6.64228609468708e-001"><Con from="21" weight="-8.18972911320631e-010"/><Con from="22" weight="4.23387407351592e-005"/><Con from="23" weight="1.06010218242042e-005"/><Con from="24" weight="1.56855267531698e-001"/><Con from="25" weight="1.62240541920285e-001"/><Con from="26" weight="1.03163259595479e-008"/><Con from="27" weight="-4.94868382243947e-002"/><Con from="28" weight="-3.69880350211046e-001"/><Con from="29" weight="-3.70126361446676e-001"/></Neuron><Neuron id="31" bias="-7.28459078675712e-001"><Con from="21" weight="8.33173018263465e-010"/><Con from="22" weight="-4.23369047378653e-005"/><Con from="23" weight="-1.05973022553006e-005"/><Con from="24" weight="-1.56855207986458e-001"/><Con from="25" weight="-1.62240535433233e-001"/><Con from="26" weight="-1.02649374305410e-008"/><Con from="27" weight="4.94870057024092e-002"/><Con from="28" weight="3.69880500062507e-001"/><Con from="29" weight="3.70126562499403e-001"/></Neuron></NeuralLayer><NeuralOutputs numberOfOutputs="2"><NeuralOutput outputNeuron="30"><DerivedField optype="categorical"><NormDiscrete field="OtherPat" value="0"/></DerivedField></NeuralOutput><NeuralOutput outputNeuron="31"><DerivedField optype="categorical"><NormDiscrete field="OtherPat" value="1"/></DerivedField></NeuralOutput></NeuralOutputs></NeuralNetwork></PMML>
