<?xml version="1.0" encoding="UTF-8"?>
<PMML version="3.0"><Header copyright="Copyright 1984-2018 TIBCO Software Inc. All rights reserved."><Application name="STATISTICA Automated Neural Networks (SANN)" version="2.0"/></Header><DataDictionary numberOfFields="22"><DataField name="LuminalB" optype="categorical"><Value value="0"/><Value value="1"/></DataField><DataField name="828" optype="continuous"/><DataField name="137" optype="continuous"/><DataField name="84" optype="continuous"/><DataField name="270" optype="continuous"/><DataField name="323" optype="continuous"/><DataField name="509" optype="continuous"/><DataField name="138" optype="continuous"/><DataField name="47" optype="continuous"/><DataField name="642" optype="continuous"/><DataField name="699" optype="continuous"/><DataField name="796" optype="continuous"/><DataField name="419" optype="continuous"/><DataField name="327" optype="continuous"/><DataField name="693" optype="continuous"/><DataField name="233" optype="continuous"/><DataField name="549" optype="continuous"/><DataField name="321" optype="continuous"/><DataField name="469" optype="continuous"/><DataField name="18" optype="continuous"/><DataField name="174" optype="continuous"/><DataField name="451" optype="continuous"/></DataDictionary><NeuralNetwork modelName="Breas_RBF 21-12-2" functionName="classification"><MiningSchema><MiningField name="LuminalB" usageType="predicted"/><MiningField name="828" lowValue="0.958665" highValue="1.000000"/><MiningField name="137" lowValue="0.937116" highValue="1.000000"/><MiningField name="84" lowValue="0.897784" highValue="1.000000"/><MiningField name="270" lowValue="0.892683" highValue="0.993719"/><MiningField name="323" lowValue="0.885360" highValue="0.995227"/><MiningField name="509" lowValue="0.886118" highValue="0.996879"/><MiningField name="138" lowValue="0.832969" highValue="1.000000"/><MiningField name="47" lowValue="0.812827" highValue="0.999731"/><MiningField name="642" lowValue="0.752447" highValue="1.000000"/><MiningField name="699" lowValue="0.375063" highValue="0.619018"/><MiningField name="796" lowValue="0.737359" highValue="1.000000"/><MiningField name="419" lowValue="0.657871" highValue="0.999703"/><MiningField name="327" lowValue="0.328725" highValue="0.573202"/><MiningField name="693" lowValue="0.463123" highValue="0.793791"/><MiningField name="233" lowValue="0.547888" highValue="0.999122"/><MiningField name="549" lowValue="0.587707" highValue="0.959142"/><MiningField name="321" lowValue="0.419801" highValue="0.825926"/><MiningField name="469" lowValue="0.510890" highValue="0.978261"/><MiningField name="18" lowValue="2.097494" highValue="6.324055"/><MiningField name="174" lowValue="0.360063" highValue="0.943776"/><MiningField name="451" lowValue="2.588656" highValue="6.196453"/></MiningSchema><NeuralInputs numberOfInputs="21"><NeuralInput id="0"><DerivedField><NormContinuous field="828" shift="-2.31925904385560e+001" scale="2.41925904385560e+001"><LinearNorm orig="9.58665030000000e-001" norm="0.000000"/><LinearNorm orig="1.00000000000000e+000" norm="1.000000"/></NormContinuous></DerivedField></NeuralInput><NeuralInput id="1"><DerivedField><NormContinuous field="137" shift="-1.49022001966148e+001" scale="1.59022001966148e+001"><LinearNorm orig="9.37115620000000e-001" norm="0.000000"/><LinearNorm orig="1.00000000000000e+000" norm="1.000000"/></NormContinuous></DerivedField></NeuralInput><NeuralInput id="2"><DerivedField><NormContinuous field="84" shift="-8.78316973916895e+000" scale="9.78316973916895e+000"><LinearNorm orig="8.97783640000000e-001" norm="0.000000"/><LinearNorm orig="1.00000000000000e+000" norm="1.000000"/></NormContinuous></DerivedField></NeuralInput><NeuralInput id="3"><DerivedField><NormContinuous field="270" shift="-8.83527590402729e+000" scale="9.89744073956844e+000"><LinearNorm orig="8.92682880000000e-001" norm="0.000000"/><LinearNorm orig="9.93719100000000e-001" norm="1.000000"/></NormContinuous></DerivedField></NeuralInput><NeuralInput id="4"><DerivedField><NormContinuous field="323" shift="-8.05846054005248e+000" scale="9.10190584806553e+000"><LinearNorm orig="8.85359690000000e-001" norm="0.000000"/><LinearNorm orig="9.95226790000000e-001" norm="1.000000"/></NormContinuous></DerivedField></NeuralInput><NeuralInput id="5"><DerivedField><NormContinuous field="509" shift="-8.00026399169528e+000" scale="9.02844375089946e+000"><LinearNorm orig="8.86117720000000e-001" norm="0.000000"/><LinearNorm orig="9.96878780000000e-001" norm="1.000000"/></NormContinuous></DerivedField></NeuralInput><NeuralInput id="6"><DerivedField><NormContinuous field="138" shift="-4.98691798550986e+000" scale="5.98691798550986e+000"><LinearNorm orig="8.32969150000000e-001" norm="0.000000"/><LinearNorm orig="1.00000000000000e+000" norm="1.000000"/></NormContinuous></DerivedField></NeuralInput><NeuralInput id="7"><DerivedField><NormContinuous field="47" shift="-4.34890208533403e+000" scale="5.35034400304284e+000"><LinearNorm orig="8.12826630000000e-001" norm="0.000000"/><LinearNorm orig="9.99730500000000e-001" norm="1.000000"/></NormContinuous></DerivedField></NeuralInput><NeuralInput id="8"><DerivedField><NormContinuous field="642" shift="-3.03954325046049e+000" scale="4.03954325046049e+000"><LinearNorm orig="7.52447260000000e-001" norm="0.000000"/><LinearNorm orig="1.00000000000000e+000" norm="1.000000"/></NormContinuous></DerivedField></NeuralInput><NeuralInput id="9"><DerivedField><NormContinuous field="699" shift="-1.53742369764643e+000" scale="4.09910907913719e+000"><LinearNorm orig="3.75062890000000e-001" norm="0.000000"/><LinearNorm orig="6.19018340000000e-001" norm="1.000000"/></NormContinuous></DerivedField></NeuralInput><NeuralInput id="10"><DerivedField><NormContinuous field="796" shift="-2.80747299578334e+000" scale="3.80747299578334e+000"><LinearNorm orig="7.37358610000000e-001" norm="0.000000"/><LinearNorm orig="1.00000000000000e+000" norm="1.000000"/></NormContinuous></DerivedField></NeuralInput><NeuralInput id="11"><DerivedField><NormContinuous field="419" shift="-1.92454716032856e+000" scale="2.92541536510061e+000"><LinearNorm orig="6.57871420000000e-001" norm="0.000000"/><LinearNorm orig="9.99703220000000e-001" norm="1.000000"/></NormContinuous></DerivedField></NeuralInput><NeuralInput id="12"><DerivedField><NormContinuous field="327" shift="-1.34460546087876e+000" scale="4.09036817690286e+000"><LinearNorm orig="3.28724800000000e-001" norm="0.000000"/><LinearNorm orig="5.73201570000000e-001" norm="1.000000"/></NormContinuous></DerivedField></NeuralInput><NeuralInput id="13"><DerivedField><NormContinuous field="693" shift="-1.40056674945661e+000" scale="3.02417989080049e+000"><LinearNorm orig="4.63122830000000e-001" norm="0.000000"/><LinearNorm orig="7.93790990000000e-001" norm="1.000000"/></NormContinuous></DerivedField></NeuralInput><NeuralInput id="14"><DerivedField><NormContinuous field="233" shift="-1.21419835390166e+000" scale="2.21614368482820e+000"><LinearNorm orig="5.47887920000000e-001" norm="0.000000"/><LinearNorm orig="9.99122200000000e-001" norm="1.000000"/></NormContinuous></DerivedField></NeuralInput><NeuralInput id="15"><DerivedField><NormContinuous field="549" shift="-1.58225804098058e+000" scale="2.69225805121117e+000"><LinearNorm orig="5.87706680000000e-001" norm="0.000000"/><LinearNorm orig="9.59142100000000e-001" norm="1.000000"/></NormContinuous></DerivedField></NeuralInput><NeuralInput id="16"><DerivedField><NormContinuous field="321" shift="-1.03367308733006e+000" scale="2.46229475726723e+000"><LinearNorm orig="4.19800710000000e-001" norm="0.000000"/><LinearNorm orig="8.25925930000000e-001" norm="1.000000"/></NormContinuous></DerivedField></NeuralInput><NeuralInput id="17"><DerivedField><NormContinuous field="469" shift="-1.09311633519376e+000" scale="2.13963003058045e+000"><LinearNorm orig="5.10890350000000e-001" norm="0.000000"/><LinearNorm orig="9.78260870000000e-001" norm="1.000000"/></NormContinuous></DerivedField></NeuralInput><NeuralInput id="18"><DerivedField><NormContinuous field="18" shift="-4.96264847649668e-001" scale="2.36598963715467e-001"><LinearNorm orig="2.09749375000000e+000" norm="0.000000"/><LinearNorm orig="6.32405495000000e+000" norm="1.000000"/></NormContinuous></DerivedField></NeuralInput><NeuralInput id="19"><DerivedField><NormContinuous field="174" shift="-6.16849921836521e-001" scale="1.71317215238666e+000"><LinearNorm orig="3.60063010000000e-001" norm="0.000000"/><LinearNorm orig="9.43775510000000e-001" norm="1.000000"/></NormContinuous></DerivedField></NeuralInput><NeuralInput id="20"><DerivedField><NormContinuous field="451" shift="-7.17517064457517e-001" scale="2.77177451454670e-001"><LinearNorm orig="2.58865597000000e+000" norm="0.000000"/><LinearNorm orig="6.19645305000000e+000" norm="1.000000"/></NormContinuous></DerivedField></NeuralInput></NeuralInputs><NeuralLayer numberOfNeurons="12" activationFunction="radialBasis"><Neuron id="21" width="3.46620125215031e-001"><Con from="0" weight="7.73061647317029e-001"/><Con from="1" weight="5.88735072207122e-001"/><Con from="2" weight="7.75957879932330e-001"/><Con from="3" weight="6.63801258598154e-001"/><Con from="4" weight="8.05396610996372e-001"/><Con from="5" weight="7.62626414012287e-001"/><Con from="6" weight="3.63654438686027e-001"/><Con from="7" weight="9.75223787501028e-001"/><Con from="8" weight="6.96146041445552e-001"/><Con from="9" weight="5.22092783743917e-001"/><Con from="10" weight="9.61648999801592e-001"/><Con from="11" weight="9.81853999540125e-001"/><Con from="12" weight="6.72529336836379e-001"/><Con from="13" weight="8.11326829894962e-001"/><Con from="14" weight="9.68486370317434e-001"/><Con from="15" weight="7.20606801580744e-001"/><Con from="16" weight="6.48672101673469e-001"/><Con from="17" weight="5.18812461684575e-001"/><Con from="18" weight="5.71579943051576e-001"/><Con from="19" weight="8.29650127417179e-001"/><Con from="20" weight="5.25631405522397e-001"/></Neuron><Neuron id="22" width="9.57262628316542e-001"><Con from="0" weight="5.49533240256373e-001"/><Con from="1" weight="8.43822265561020e-001"/><Con from="2" weight="5.19589329927227e-001"/><Con from="3" weight="4.86077369086056e-001"/><Con from="4" weight="9.74218942704411e-001"/><Con from="5" weight="9.28470077841434e-001"/><Con from="6" weight="6.06932551681322e-001"/><Con from="7" weight="1.04083131076955e-001"/><Con from="8" weight="5.48006133965635e-001"/><Con from="9" weight="4.56869809631226e-001"/><Con from="10" weight="0.00000000000000e+000"/><Con from="11" weight="4.57871941697642e-001"/><Con from="12" weight="4.99457555824220e-001"/><Con from="13" weight="7.35842120390424e-001"/><Con from="14" weight="3.51073172011666e-001"/><Con from="15" weight="6.69695690303311e-001"/><Con from="16" weight="5.62813533225048e-001"/><Con from="17" weight="5.00042813996912e-001"/><Con from="18" weight="6.54332273716988e-001"/><Con from="19" weight="7.26307437308606e-001"/><Con from="20" weight="7.39398708089203e-001"/></Neuron><Neuron id="23" width="2.96730843549212e-001"><Con from="0" weight="7.68460700467426e-001"/><Con from="1" weight="6.30696207865931e-001"/><Con from="2" weight="7.88016908447926e-001"/><Con from="3" weight="8.48539266413569e-001"/><Con from="4" weight="7.23313257562999e-001"/><Con from="5" weight="8.82350168913149e-001"/><Con from="6" weight="3.77744590295745e-001"/><Con from="7" weight="9.72247391132136e-001"/><Con from="8" weight="7.55842815555183e-001"/><Con from="9" weight="4.44304933544218e-001"/><Con from="10" weight="9.51846736723408e-001"/><Con from="11" weight="9.07201816799958e-001"/><Con from="12" weight="3.33098682545585e-001"/><Con from="13" weight="7.98664709659375e-001"/><Con from="14" weight="9.89523247214286e-001"/><Con from="15" weight="5.69436188934271e-001"/><Con from="16" weight="1.66736776406055e-001"/><Con from="17" weight="4.23919613072729e-001"/><Con from="18" weight="7.50040562526339e-001"/><Con from="19" weight="8.77690661070304e-001"/><Con from="20" weight="5.94251101838577e-001"/></Neuron><Neuron id="24" width="4.75024324613663e-001"><Con from="0" weight="5.82128643131952e-001"/><Con from="1" weight="8.44981853999355e-001"/><Con from="2" weight="5.83332648511451e-001"/><Con from="3" weight="6.66246718256090e-001"/><Con from="4" weight="8.82181107902181e-001"/><Con from="5" weight="9.31817373362076e-001"/><Con from="6" weight="5.99357184615896e-001"/><Con from="7" weight="6.76319168779115e-001"/><Con from="8" weight="6.38389015609361e-001"/><Con from="9" weight="4.10042079404252e-001"/><Con from="10" weight="7.73062958583946e-001"/><Con from="11" weight="5.73493747509740e-001"/><Con from="12" weight="6.08040796677737e-001"/><Con from="13" weight="8.86058034737907e-001"/><Con from="14" weight="5.55846067368818e-001"/><Con from="15" weight="5.39871668673925e-001"/><Con from="16" weight="6.20524723877035e-001"/><Con from="17" weight="4.14845934227944e-001"/><Con from="18" weight="7.22033910215236e-001"/><Con from="19" weight="7.38895946206394e-001"/><Con from="20" weight="6.50743109421221e-001"/></Neuron><Neuron id="25" width="5.72520598490715e-001"><Con from="0" weight="7.25949722474699e-001"/><Con from="1" weight="6.43221575850795e-001"/><Con from="2" weight="5.08229602384588e-001"/><Con from="3" weight="4.58959866075750e-001"/><Con from="4" weight="7.08492533251537e-001"/><Con from="5" weight="7.84276712411382e-001"/><Con from="6" weight="3.96556324774735e-001"/><Con from="7" weight="7.63022937941305e-001"/><Con from="8" weight="4.43336518917141e-001"/><Con from="9" weight="4.01343769938323e-001"/><Con from="10" weight="7.86029041347976e-001"/><Con from="11" weight="8.64610577482844e-001"/><Con from="12" weight="5.84301772311537e-001"/><Con from="13" weight="9.05587583636719e-001"/><Con from="14" weight="7.90019166983503e-001"/><Con from="15" weight="3.11233376719970e-001"/><Con from="16" weight="7.84489547337149e-001"/><Con from="17" weight="2.51386523052417e-001"/><Con from="18" weight="4.32111277603173e-001"/><Con from="19" weight="7.57594826220100e-001"/><Con from="20" weight="4.29903227816793e-001"/></Neuron><Neuron id="26" width="4.97801298919648e-001"><Con from="0" weight="6.85237221655175e-001"/><Con from="1" weight="8.63506963096400e-001"/><Con from="2" weight="6.84370290626667e-001"/><Con from="3" weight="6.59165990176593e-001"/><Con from="4" weight="9.92475181378227e-001"/><Con from="5" weight="9.47204098624551e-001"/><Con from="6" weight="6.37354536602071e-001"/><Con from="7" weight="7.92235976708239e-001"/><Con from="8" weight="6.17012803009169e-001"/><Con from="9" weight="4.07790930680171e-001"/><Con from="10" weight="4.70791903743732e-001"/><Con from="11" weight="4.82460906211768e-001"/><Con from="12" weight="5.78568712274790e-001"/><Con from="13" weight="7.92691289055468e-001"/><Con from="14" weight="5.78041876605652e-001"/><Con from="15" weight="6.32160417011388e-001"/><Con from="16" weight="5.33390243531293e-001"/><Con from="17" weight="4.94201281672622e-001"/><Con from="18" weight="9.05608632852637e-001"/><Con from="19" weight="7.56520735807439e-001"/><Con from="20" weight="8.31514218643361e-001"/></Neuron><Neuron id="27" width="3.46620125215031e-001"><Con from="0" weight="7.31459343021175e-001"/><Con from="1" weight="6.03817354961597e-001"/><Con from="2" weight="7.03980360873738e-001"/><Con from="3" weight="7.56959236994417e-001"/><Con from="4" weight="8.52971817768919e-001"/><Con from="5" weight="7.41728726684267e-001"/><Con from="6" weight="3.50072217198200e-001"/><Con from="7" weight="9.62738866776808e-001"/><Con from="8" weight="6.11377801756507e-001"/><Con from="9" weight="3.79854723475126e-001"/><Con from="10" weight="9.95384695458701e-001"/><Con from="11" weight="9.48756230403375e-001"/><Con from="12" weight="6.64206296573699e-001"/><Con from="13" weight="8.96897179335318e-001"/><Con from="14" weight="9.44858422547153e-001"/><Con from="15" weight="8.29174853599046e-001"/><Con from="16" weight="5.00499033278455e-001"/><Con from="17" weight="4.82548535581577e-001"/><Con from="18" weight="6.79281471187499e-001"/><Con from="19" weight="9.33359367839475e-001"/><Con from="20" weight="6.04842218565131e-001"/></Neuron><Neuron id="28" width="6.08121056201040e-001"><Con from="0" weight="8.04323070755824e-001"/><Con from="1" weight="4.87181236421510e-001"/><Con from="2" weight="8.18980542840695e-001"/><Con from="3" weight="7.85502862240888e-001"/><Con from="4" weight="7.92345479219891e-001"/><Con from="5" weight="8.05401284530861e-001"/><Con from="6" weight="2.63907715251403e-001"/><Con from="7" weight="9.68880954685422e-001"/><Con from="8" weight="8.45008421235814e-001"/><Con from="9" weight="4.85388910147324e-001"/><Con from="10" weight="9.00987921210743e-001"/><Con from="11" weight="9.92392691376285e-001"/><Con from="12" weight="5.22716984521679e-001"/><Con from="13" weight="4.01761300513482e-001"/><Con from="14" weight="9.50919065812111e-001"/><Con from="15" weight="9.32743920867860e-001"/><Con from="16" weight="2.85591645847554e-001"/><Con from="17" weight="6.40367839203893e-001"/><Con from="18" weight="7.43225847528246e-001"/><Con from="19" weight="9.50152378097094e-001"/><Con from="20" weight="8.33441849229503e-001"/></Neuron><Neuron id="29" width="3.55577826038827e-001"><Con from="0" weight="6.18405190568662e-001"/><Con from="1" weight="6.83890816765624e-001"/><Con from="2" weight="6.58881415851633e-001"/><Con from="3" weight="6.79710008945303e-001"/><Con from="4" weight="8.59255227452074e-001"/><Con from="5" weight="8.13355343475401e-001"/><Con from="6" weight="4.27307769792228e-001"/><Con from="7" weight="8.70841197670224e-001"/><Con from="8" weight="7.09030649388086e-001"/><Con from="9" weight="4.27078181692600e-001"/><Con from="10" weight="8.61505568486368e-001"/><Con from="11" weight="9.17477484540643e-001"/><Con from="12" weight="6.68734824989711e-001"/><Con from="13" weight="8.40711425012920e-001"/><Con from="14" weight="8.88238499965030e-001"/><Con from="15" weight="7.12156988151535e-001"/><Con from="16" weight="6.46278110972769e-001"/><Con from="17" weight="5.82828202343614e-001"/><Con from="18" weight="6.23166471598708e-001"/><Con from="19" weight="7.44810056320534e-001"/><Con from="20" weight="6.45473655630322e-001"/></Neuron><Neuron id="30" width="4.75024324613663e-001"><Con from="0" weight="6.53377031603021e-001"/><Con from="1" weight="7.75147977923931e-001"/><Con from="2" weight="6.29989563314522e-001"/><Con from="3" weight="5.81200484341160e-001"/><Con from="4" weight="8.69616928088568e-001"/><Con from="5" weight="9.54216310316999e-001"/><Con from="6" weight="5.32602390516483e-001"/><Con from="7" weight="8.38132458145461e-001"/><Con from="8" weight="4.80467879289076e-001"/><Con from="9" weight="4.80531875799454e-001"/><Con from="10" weight="6.23995707607243e-001"/><Con from="11" weight="5.86142395177980e-001"/><Con from="12" weight="4.89417256289831e-001"/><Con from="13" weight="8.52575978285905e-001"/><Con from="14" weight="6.43408785343171e-001"/><Con from="15" weight="3.44234887453652e-001"/><Con from="16" weight="5.87235631414370e-001"/><Con from="17" weight="1.89017612835315e-001"/><Con from="18" weight="7.38067557143145e-001"/><Con from="19" weight="8.04016703428486e-001"/><Con from="20" weight="5.80322413809371e-001"/></Neuron><Neuron id="31" width="5.72520598490715e-001"><Con from="0" weight="5.84659430017730e-001"/><Con from="1" weight="6.88641440052363e-001"/><Con from="2" weight="5.13738896591503e-001"/><Con from="3" weight="4.86248693785258e-001"/><Con from="4" weight="6.84927425953719e-001"/><Con from="5" weight="7.83731936115451e-001"/><Con from="6" weight="4.46899120731290e-001"/><Con from="7" weight="7.99080885805092e-001"/><Con from="8" weight="2.70795184896762e-001"/><Con from="9" weight="4.77350024358956e-001"/><Con from="10" weight="6.73339491540156e-001"/><Con from="11" weight="5.14546364615581e-001"/><Con from="12" weight="6.63102551624843e-001"/><Con from="13" weight="8.80398191346877e-001"/><Con from="14" weight="8.08538681945885e-001"/><Con from="15" weight="1.95081287616566e-001"/><Con from="16" weight="7.51927250417987e-001"/><Con from="17" weight="0.00000000000000e+000"/><Con from="18" weight="5.73690947619545e-001"/><Con from="19" weight="6.01780962374456e-001"/><Con from="20" weight="4.06648993130179e-001"/></Neuron><Neuron id="32" width="2.96730843549212e-001"><Con from="0" weight="7.98012191614028e-001"/><Con from="1" weight="6.54911601259329e-001"/><Con from="2" weight="8.00353289825621e-001"/><Con from="3" weight="8.82427806582630e-001"/><Con from="4" weight="7.67623428669726e-001"/><Con from="5" weight="8.46251110272867e-001"/><Con from="6" weight="4.00184516812313e-001"/><Con from="7" weight="9.89507761396271e-001"/><Con from="8" weight="7.34694150426289e-001"/><Con from="9" weight="5.27800383225708e-001"/><Con from="10" weight="9.76541016631080e-001"/><Con from="11" weight="9.50672260450900e-001"/><Con from="12" weight="5.31353019757255e-001"/><Con from="13" weight="7.83122935089970e-001"/><Con from="14" weight="9.85456268969637e-001"/><Con from="15" weight="6.65114355545306e-001"/><Con from="16" weight="2.95046685354827e-001"/><Con from="17" weight="4.83317839559072e-001"/><Con from="18" weight="7.81745519265165e-001"/><Con from="19" weight="8.97503942437415e-001"/><Con from="20" weight="6.28836037530137e-001"/></Neuron></NeuralLayer><NeuralLayer numberOfNeurons="2" normalizationMethod="softmax"><Neuron id="33" bias="1.87691811199031e-001"><Con from="21" weight="3.21993688131983e+000"/><Con from="22" weight="5.66470254448885e-010"/><Con from="23" weight="2.05537290210285e+001"/><Con from="24" weight="2.21622152953443e-003"/><Con from="25" weight="5.04963907609376e-005"/><Con from="26" weight="9.68584835465559e-004"/><Con from="27" weight="4.07570768353978e+000"/><Con from="28" weight="2.87776376132939e-005"/><Con from="29" weight="2.77328337793529e+000"/><Con from="30" weight="3.22620267188503e-003"/><Con from="31" weight="-9.93862867185227e-005"/><Con from="32" weight="3.17837304917612e+001"/></Neuron><Neuron id="34" bias="8.43246181537463e-002"><Con from="21" weight="2.32714987847626e+000"/><Con from="22" weight="1.10284196778917e-009"/><Con from="23" weight="2.38837917710794e+001"/><Con from="24" weight="3.06643171409679e-003"/><Con from="25" weight="8.50465489292750e-005"/><Con from="26" weight="8.08134282909888e-004"/><Con from="27" weight="3.79138250083058e+000"/><Con from="28" weight="1.49752324545415e-005"/><Con from="29" weight="2.27624463845917e+000"/><Con from="30" weight="1.26514480249125e-003"/><Con from="31" weight="-1.19800758477764e-005"/><Con from="32" weight="2.63755353129704e+001"/></Neuron></NeuralLayer><NeuralOutputs numberOfOutputs="2"><NeuralOutput outputNeuron="33"><DerivedField optype="categorical"><NormDiscrete field="LuminalB" value="0"/></DerivedField></NeuralOutput><NeuralOutput outputNeuron="34"><DerivedField optype="categorical"><NormDiscrete field="LuminalB" value="1"/></DerivedField></NeuralOutput></NeuralOutputs></NeuralNetwork></PMML>
