<?xml version="1.0" encoding="UTF-8"?>
<PMML version="3.0"><Header copyright="Copyright 1984-2018 TIBCO Software Inc. All rights reserved."><Application name="STATISTICA Automated Neural Networks (SANN)" version="2.0"/></Header><DataDictionary numberOfFields="12"><DataField name="ILCA" optype="categorical"><Value value="0"/><Value value="1"/></DataField><DataField name="788" optype="continuous"/><DataField name="509" optype="continuous"/><DataField name="323" optype="continuous"/><DataField name="602" optype="continuous"/><DataField name="699" optype="continuous"/><DataField name="172" optype="continuous"/><DataField name="327" optype="continuous"/><DataField name="419" optype="continuous"/><DataField name="735" optype="continuous"/><DataField name="451" optype="continuous"/><DataField name="513" optype="continuous"/></DataDictionary><NeuralNetwork modelName="BreastOve_RBF 11-11-2" functionName="classification"><MiningSchema><MiningField name="ILCA" usageType="predicted"/><MiningField name="788" lowValue="0.947681" highValue="0.997023"/><MiningField name="509" lowValue="0.949301" highValue="0.996879"/><MiningField name="323" lowValue="0.953299" highValue="0.996097"/><MiningField name="602" lowValue="0.936063" highValue="0.998053"/><MiningField name="699" lowValue="0.375063" highValue="0.509834"/><MiningField name="172" lowValue="3.255922" highValue="5.413416"/><MiningField name="327" lowValue="0.263691" highValue="0.514084"/><MiningField name="419" lowValue="0.631791" highValue="0.999352"/><MiningField name="735" lowValue="0.647394" highValue="0.905452"/><MiningField name="451" lowValue="3.906296" highValue="6.196453"/><MiningField name="513" lowValue="0.244998" highValue="0.523256"/></MiningSchema><NeuralInputs numberOfInputs="11"><NeuralInput id="0"><DerivedField><NormContinuous field="788" shift="-1.92065905211174e+001" scale="2.02669275966038e+001"><LinearNorm orig="9.47681410000000e-001" norm="0.000000"/><LinearNorm orig="9.97022880000000e-001" norm="1.000000"/></NormContinuous></DerivedField></NeuralInput><NeuralInput id="1"><DerivedField><NormContinuous field="509" shift="-1.99527796811091e+001" scale="2.10183826774897e+001"><LinearNorm orig="9.49301380000000e-001" norm="0.000000"/><LinearNorm orig="9.96878780000000e-001" norm="1.000000"/></NormContinuous></DerivedField></NeuralInput><NeuralInput id="2"><DerivedField><NormContinuous field="323" shift="-2.22744550137659e+001" scale="2.33656488044849e+001"><LinearNorm orig="9.53299230000000e-001" norm="0.000000"/><LinearNorm orig="9.96097100000000e-001" norm="1.000000"/></NormContinuous></DerivedField></NeuralInput><NeuralInput id="3"><DerivedField><NormContinuous field="602" shift="-1.51003665946383e+001" scale="1.61317772620986e+001"><LinearNorm orig="9.36063420000000e-001" norm="0.000000"/><LinearNorm orig="9.98052870000000e-001" norm="1.000000"/></NormContinuous></DerivedField></NeuralInput><NeuralInput id="4"><DerivedField><NormContinuous field="699" shift="-2.78296229681289e+000" scale="7.41998840997810e+000"><LinearNorm orig="3.75062890000000e-001" norm="0.000000"/><LinearNorm orig="5.09833990000000e-001" norm="1.000000"/></NormContinuous></DerivedField></NeuralInput><NeuralInput id="5"><DerivedField><NormContinuous field="172" shift="-1.50912189916613e+000" scale="4.63500655911366e-001"><LinearNorm orig="3.25592182000000e+000" norm="0.000000"/><LinearNorm orig="5.41341607000000e+000" norm="1.000000"/></NormContinuous></DerivedField></NeuralInput><NeuralInput id="6"><DerivedField><NormContinuous field="327" shift="-1.05310687314869e+000" scale="3.99371564880367e+000"><LinearNorm orig="2.63691000000000e-001" norm="0.000000"/><LinearNorm orig="5.14084390000000e-001" norm="1.000000"/></NormContinuous></DerivedField></NeuralInput><NeuralInput id="7"><DerivedField><NormContinuous field="419" shift="-1.71887763973274e+000" scale="2.72064121378034e+000"><LinearNorm orig="6.31791370000000e-001" norm="0.000000"/><LinearNorm orig="9.99351780000000e-001" norm="1.000000"/></NormContinuous></DerivedField></NeuralInput><NeuralInput id="8"><DerivedField><NormContinuous field="735" shift="-2.50872368403819e+000" scale="3.87510895837614e+000"><LinearNorm orig="6.47394360000000e-001" norm="0.000000"/><LinearNorm orig="9.05451620000000e-001" norm="1.000000"/></NormContinuous></DerivedField></NeuralInput><NeuralInput id="9"><DerivedField><NormContinuous field="451" shift="-1.70568887611810e+000" scale="4.36651234873490e-001"><LinearNorm orig="3.90629578000000e+000" norm="0.000000"/><LinearNorm orig="6.19645305000000e+000" norm="1.000000"/></NormContinuous></DerivedField></NeuralInput><NeuralInput id="10"><DerivedField><NormContinuous field="513" shift="-8.80467285984784e-001" scale="3.59377776193321e+000"><LinearNorm orig="2.44997700000000e-001" norm="0.000000"/><LinearNorm orig="5.23256420000000e-001" norm="1.000000"/></NormContinuous></DerivedField></NeuralInput></NeuralInputs><NeuralLayer numberOfNeurons="11" activationFunction="radialBasis"><Neuron id="11" width="3.29066081151569e-001"><Con from="0" weight="7.75693346793275e-001"/><Con from="1" weight="7.27529667447151e-001"/><Con from="2" weight="6.86861986355861e-001"/><Con from="3" weight="8.39864364016782e-001"/><Con from="4" weight="5.96218402906854e-001"/><Con from="5" weight="6.23957737083193e-001"/><Con from="6" weight="7.18610143822088e-001"/><Con from="7" weight="9.76171889676584e-001"/><Con from="8" weight="6.94229683753133e-001"/><Con from="9" weight="8.95004442205841e-001"/><Con from="10" weight="4.04970129956754e-001"/></Neuron><Neuron id="12" width="4.49165294456045e-001"><Con from="0" weight="7.71232190690711e-001"/><Con from="1" weight="8.93414730523318e-001"/><Con from="2" weight="6.44956162537994e-001"/><Con from="3" weight="7.49110856766757e-001"/><Con from="4" weight="8.69833146720625e-001"/><Con from="5" weight="6.58029874239525e-001"/><Con from="6" weight="7.37579174913523e-001"/><Con from="7" weight="6.16067873033442e-001"/><Con from="8" weight="1.41958765275583e-001"/><Con from="9" weight="3.38861313223262e-001"/><Con from="10" weight="7.00158614975300e-001"/></Neuron><Neuron id="13" width="2.58387956369219e-001"><Con from="0" weight="9.06363551795273e-001"/><Con from="1" weight="7.46265663949693e-001"/><Con from="2" weight="8.22938618206933e-001"/><Con from="3" weight="8.46397895125703e-001"/><Con from="4" weight="8.69391657410231e-001"/><Con from="5" weight="3.72353585646868e-001"/><Con from="6" weight="7.95101739706468e-001"/><Con from="7" weight="6.58348052229020e-001"/><Con from="8" weight="2.31089293903222e-001"/><Con from="9" weight="4.84225426142895e-001"/><Con from="10" weight="7.70237389146331e-001"/></Neuron><Neuron id="14" width="7.38050503295932e-001"><Con from="0" weight="8.20266400656486e-001"/><Con from="1" weight="6.92358766977602e-001"/><Con from="2" weight="1.76213442397948e-001"/><Con from="3" weight="4.21131821624488e-001"/><Con from="4" weight="8.01330255522141e-001"/><Con from="5" weight="3.03175028160561e-001"/><Con from="6" weight="9.37621556223988e-001"/><Con from="7" weight="6.86133063133758e-001"/><Con from="8" weight="6.23915521694681e-001"/><Con from="9" weight="1.25683835678237e-001"/><Con from="10" weight="5.83707924768719e-001"/></Neuron><Neuron id="15" width="2.58387956369219e-001"><Con from="0" weight="8.12054241594343e-001"/><Con from="1" weight="7.44639892049591e-001"/><Con from="2" weight="7.74919873348836e-001"/><Con from="3" weight="8.07777775089148e-001"/><Con from="4" weight="8.65576521969473e-001"/><Con from="5" weight="4.74705533977669e-001"/><Con from="6" weight="7.98279659059690e-001"/><Con from="7" weight="7.50800201795400e-001"/><Con from="8" weight="2.57919579553779e-001"/><Con from="9" weight="6.60438800344922e-001"/><Con from="10" weight="7.13218618988831e-001"/></Neuron><Neuron id="16" width="4.89029783834205e-001"><Con from="0" weight="8.40603654491851e-001"/><Con from="1" weight="8.77090173065366e-001"/><Con from="2" weight="9.60347559352837e-001"/><Con from="3" weight="9.64375067047699e-001"/><Con from="4" weight="7.38161371391938e-001"/><Con from="5" weight="7.32857434034876e-001"/><Con from="6" weight="8.24624044588398e-001"/><Con from="7" weight="5.19643913771889e-001"/><Con from="8" weight="1.26602638499688e-001"/><Con from="9" weight="7.34576084375201e-001"/><Con from="10" weight="7.59490520189268e-001"/></Neuron><Neuron id="17" width="5.19964004793622e-001"><Con from="0" weight="7.38107924226824e-001"/><Con from="1" weight="4.79508968543890e-001"/><Con from="2" weight="4.95931222745430e-001"/><Con from="3" weight="6.75874039856783e-001"/><Con from="4" weight="8.46376411560045e-001"/><Con from="5" weight="5.01420692082957e-001"/><Con from="6" weight="9.17016020271142e-001"/><Con from="7" weight="6.11510390904178e-001"/><Con from="8" weight="1.78357198708535e-001"/><Con from="9" weight="3.03794664721869e-001"/><Con from="10" weight="8.02753854398525e-001"/></Neuron><Neuron id="18" width="4.07384439642934e-001"><Con from="0" weight="7.26049912983946e-001"/><Con from="1" weight="6.83424693236706e-001"/><Con from="2" weight="7.36692269965772e-001"/><Con from="3" weight="7.41970932150553e-001"/><Con from="4" weight="7.81342958542299e-001"/><Con from="5" weight="6.45816868341596e-001"/><Con from="6" weight="8.24486021775575e-001"/><Con from="7" weight="9.72669635448497e-001"/><Con from="8" weight="4.93429171494730e-001"/><Con from="9" weight="7.08270659508026e-001"/><Con from="10" weight="6.42604946935715e-001"/></Neuron><Neuron id="19" width="8.01573444732889e-001"><Con from="0" weight="4.60049122979111e-001"/><Con from="1" weight="4.00430036109583e-001"/><Con from="2" weight="6.28727317504353e-001"/><Con from="3" weight="4.79521596013518e-001"/><Con from="4" weight="1.38920287806510e-001"/><Con from="5" weight="6.01343581796336e-001"/><Con from="6" weight="5.13236711240660e-001"/><Con from="7" weight="9.99799978457963e-001"/><Con from="8" weight="1.00000000000000e+000"/><Con from="9" weight="8.87282758532998e-001"/><Con from="10" weight="9.46568359115573e-002"/></Neuron><Neuron id="20" width="3.29066081151569e-001"><Con from="0" weight="7.08723513912332e-001"/><Con from="1" weight="4.79177508649066e-001"/><Con from="2" weight="7.04136677829993e-001"/><Con from="3" weight="7.61310029367902e-001"/><Con from="4" weight="7.01876589268768e-001"/><Con from="5" weight="5.47453245819774e-001"/><Con from="6" weight="6.95450067591641e-001"/><Con from="7" weight="9.42243670911130e-001"/><Con from="8" weight="7.94451587992525e-001"/><Con from="9" weight="8.13905295683034e-001"/><Con from="10" weight="3.86916607680794e-001"/></Neuron><Neuron id="21" width="3.49270614022275e-001"><Con from="0" weight="8.08427272231654e-001"/><Con from="1" weight="4.84545813768726e-001"/><Con from="2" weight="6.29139721205753e-001"/><Con from="3" weight="6.32932378009485e-001"/><Con from="4" weight="9.39855132146283e-001"/><Con from="5" weight="5.91878662017291e-001"/><Con from="6" weight="7.17301722701226e-001"/><Con from="7" weight="9.93363022965395e-001"/><Con from="8" weight="7.24697146672022e-001"/><Con from="9" weight="7.08088344517929e-001"/><Con from="10" weight="4.97161526510292e-001"/></Neuron></NeuralLayer><NeuralLayer numberOfNeurons="2" normalizationMethod="softmax"><Neuron id="22" bias="2.94186937494922e-001"><Con from="11" weight="1.81751149086392e+000"/><Con from="12" weight="2.26111930789576e-002"/><Con from="13" weight="5.18880432610386e+000"/><Con from="14" weight="2.04914323318454e-005"/><Con from="15" weight="1.89054476383543e+001"/><Con from="16" weight="-1.72738645219664e-003"/><Con from="17" weight="6.38979060751265e-003"/><Con from="18" weight="1.12109275172928e-001"/><Con from="19" weight="4.45215532121554e-005"/><Con from="20" weight="3.07817594098390e+000"/><Con from="21" weight="1.05567575634622e+000"/></Neuron><Neuron id="23" bias="1.19679997848165e-001"><Con from="11" weight="-1.09430840123360e+000"/><Con from="12" weight="3.48572858125169e-002"/><Con from="13" weight="1.22853039859922e+000"/><Con from="14" weight="1.48940191348523e-004"/><Con from="15" weight="1.38516191636123e+001"/><Con from="16" weight="2.55269558202971e-002"/><Con from="17" weight="1.28531934005212e-002"/><Con from="18" weight="-5.99127173773450e-002"/><Con from="19" weight="2.87815352683639e-005"/><Con from="20" weight="-5.58587870994658e-001"/><Con from="21" weight="-3.20309555565225e-001"/></Neuron></NeuralLayer><NeuralOutputs numberOfOutputs="2"><NeuralOutput outputNeuron="22"><DerivedField optype="categorical"><NormDiscrete field="ILCA" value="0"/></DerivedField></NeuralOutput><NeuralOutput outputNeuron="23"><DerivedField optype="categorical"><NormDiscrete field="ILCA" value="1"/></DerivedField></NeuralOutput></NeuralOutputs></NeuralNetwork></PMML>
