<?xml version="1.0" encoding="UTF-8"?>
<PMML version="3.0"><Header copyright="Copyright 1984-2018 TIBCO Software Inc. All rights reserved."><Application name="STATISTICA Automated Neural Networks (SANN)" version="2.0"/></Header><DataDictionary numberOfFields="23"><DataField name="Her2+" optype="categorical"><Value value="0"/><Value value="1"/></DataField><DataField name="828" optype="continuous"/><DataField name="788" optype="continuous"/><DataField name="323" optype="continuous"/><DataField name="791" optype="continuous"/><DataField name="270" optype="continuous"/><DataField name="456" optype="continuous"/><DataField name="695" optype="continuous"/><DataField name="47" optype="continuous"/><DataField name="708" optype="continuous"/><DataField name="336" optype="continuous"/><DataField name="429" optype="continuous"/><DataField name="327" optype="continuous"/><DataField name="693" optype="continuous"/><DataField name="549" optype="continuous"/><DataField name="140" optype="continuous"/><DataField name="237" optype="continuous"/><DataField name="469" optype="continuous"/><DataField name="513" optype="continuous"/><DataField name="190" optype="continuous"/><DataField name="131" optype="continuous"/><DataField name="655" optype="continuous"/><DataField name="424" optype="continuous"/></DataDictionary><NeuralNetwork modelName="BreastOve_RBF 22-10-2" functionName="classification"><MiningSchema><MiningField name="Her2+" usageType="predicted"/><MiningField name="828" lowValue="0.958665" highValue="0.994198"/><MiningField name="788" lowValue="0.947681" highValue="0.997023"/><MiningField name="323" lowValue="0.953299" highValue="0.995248"/><MiningField name="791" lowValue="0.935052" highValue="0.999976"/><MiningField name="270" lowValue="0.878545" highValue="0.983939"/><MiningField name="456" lowValue="0.893096" highValue="0.990545"/><MiningField name="695" lowValue="0.901697" highValue="0.996292"/><MiningField name="47" lowValue="0.812827" highValue="0.998625"/><MiningField name="708" lowValue="3.949078" highValue="5.933515"/><MiningField name="336" lowValue="4.397319" highValue="6.212944"/><MiningField name="429" lowValue="4.951676" highValue="7.343805"/><MiningField name="327" lowValue="0.328725" highValue="0.514084"/><MiningField name="693" lowValue="0.463123" highValue="0.773003"/><MiningField name="549" lowValue="0.625234" highValue="0.942936"/><MiningField name="140" lowValue="0.546052" highValue="0.977335"/><MiningField name="237" lowValue="5.069845" highValue="10.188933"/><MiningField name="469" lowValue="0.510890" highValue="0.914864"/><MiningField name="513" lowValue="0.256775" highValue="0.523256"/><MiningField name="190" lowValue="0.358889" highValue="0.696488"/><MiningField name="131" lowValue="0.297278" highValue="0.807359"/><MiningField name="655" lowValue="0.401365" highValue="0.859055"/><MiningField name="424" lowValue="0.500046" highValue="0.972194"/></MiningSchema><NeuralInputs numberOfInputs="22"><NeuralInput id="0"><DerivedField><NormContinuous field="828" shift="-2.69792806088248e+001" scale="2.81425521579991e+001"><LinearNorm orig="9.58665030000000e-001" norm="0.000000"/><LinearNorm orig="9.94198410000000e-001" norm="1.000000"/></NormContinuous></DerivedField></NeuralInput><NeuralInput id="1"><DerivedField><NormContinuous field="788" shift="-1.92065905211174e+001" scale="2.02669275966038e+001"><LinearNorm orig="9.47681410000000e-001" norm="0.000000"/><LinearNorm orig="9.97022880000000e-001" norm="1.000000"/></NormContinuous></DerivedField></NeuralInput><NeuralInput id="2"><DerivedField><NormContinuous field="323" shift="-2.27255639796779e+001" scale="2.38388569554157e+001"><LinearNorm orig="9.53299230000000e-001" norm="0.000000"/><LinearNorm orig="9.95247550000000e-001" norm="1.000000"/></NormContinuous></DerivedField></NeuralInput><NeuralInput id="3"><DerivedField><NormContinuous field="791" shift="-1.44020847830889e+001" scale="1.54024490510089e+001"><LinearNorm orig="9.35051610000000e-001" norm="0.000000"/><LinearNorm orig="9.99976350000000e-001" norm="1.000000"/></NormContinuous></DerivedField></NeuralInput><NeuralInput id="4"><DerivedField><NormContinuous field="270" shift="-8.33586198533798e+000" scale="9.48825657460274e+000"><LinearNorm orig="8.78545170000000e-001" norm="0.000000"/><LinearNorm orig="9.83938610000000e-001" norm="1.000000"/></NormContinuous></DerivedField></NeuralInput><NeuralInput id="5"><DerivedField><NormContinuous field="456" shift="-9.16468391747907e+000" scale="1.02617031902917e+001"><LinearNorm orig="8.93095790000000e-001" norm="0.000000"/><LinearNorm orig="9.90545500000000e-001" norm="1.000000"/></NormContinuous></DerivedField></NeuralInput><NeuralInput id="6"><DerivedField><NormContinuous field="695" shift="-9.53222981662263e+000" scale="1.05714335551044e+001"><LinearNorm orig="9.01696990000000e-001" norm="0.000000"/><LinearNorm orig="9.96291540000000e-001" norm="1.000000"/></NormContinuous></DerivedField></NeuralInput><NeuralInput id="7"><DerivedField><NormContinuous field="47" shift="-4.37477404289614e+000" scale="5.38217361664952e+000"><LinearNorm orig="8.12826630000000e-001" norm="0.000000"/><LinearNorm orig="9.98625170000000e-001" norm="1.000000"/></NormContinuous></DerivedField></NeuralInput><NeuralInput id="8"><DerivedField><NormContinuous field="708" shift="-1.99002410814621e+000" scale="5.03921235377422e-001"><LinearNorm orig="3.94907769000000e+000" norm="0.000000"/><LinearNorm orig="5.93351480000000e+000" norm="1.000000"/></NormContinuous></DerivedField></NeuralInput><NeuralInput id="9"><DerivedField><NormContinuous field="336" shift="-2.42193184871601e+000" scale="5.50774593415717e-001"><LinearNorm orig="4.39731948000000e+000" norm="0.000000"/><LinearNorm orig="6.21294426000000e+000" norm="1.000000"/></NormContinuous></DerivedField></NeuralInput><NeuralInput id="10"><DerivedField><NormContinuous field="429" shift="-2.06998662597388e+000" scale="4.18037600074230e-001"><LinearNorm orig="4.95167570000000e+000" norm="0.000000"/><LinearNorm orig="7.34380502000000e+000" norm="1.000000"/></NormContinuous></DerivedField></NeuralInput><NeuralInput id="11"><DerivedField><NormContinuous field="327" shift="-1.77344371553692e+000" scale="5.39491914068217e+000"><LinearNorm orig="3.28724800000000e-001" norm="0.000000"/><LinearNorm orig="5.14084390000000e-001" norm="1.000000"/></NormContinuous></DerivedField></NeuralInput><NeuralInput id="12"><DerivedField><NormContinuous field="693" shift="-1.49452207694960e+000" scale="3.22705334338539e+000"><LinearNorm orig="4.63122830000000e-001" norm="0.000000"/><LinearNorm orig="7.73003050000000e-001" norm="1.000000"/></NormContinuous></DerivedField></NeuralInput><NeuralInput id="13"><DerivedField><NormContinuous field="549" shift="-1.96798767902190e+000" scale="3.14760323391052e+000"><LinearNorm orig="6.25233720000000e-001" norm="0.000000"/><LinearNorm orig="9.42935770000000e-001" norm="1.000000"/></NormContinuous></DerivedField></NeuralInput><NeuralInput id="14"><DerivedField><NormContinuous field="140" shift="-1.26611322100769e+000" scale="2.31866675363213e+000"><LinearNorm orig="5.46052260000000e-001" norm="0.000000"/><LinearNorm orig="9.77334590000000e-001" norm="1.000000"/></NormContinuous></DerivedField></NeuralInput><NeuralInput id="15"><DerivedField><NormContinuous field="237" shift="-9.90380625378102e-001" scale="1.95347316843850e-001"><LinearNorm orig="5.06984504000000e+000" norm="0.000000"/><LinearNorm orig="1.01889325000000e+001" norm="1.000000"/></NormContinuous></DerivedField></NeuralInput><NeuralInput id="16"><DerivedField><NormContinuous field="469" shift="-1.26466374866832e+000" scale="2.47541130629757e+000"><LinearNorm orig="5.10890350000000e-001" norm="0.000000"/><LinearNorm orig="9.14863620000000e-001" norm="1.000000"/></NormContinuous></DerivedField></NeuralInput><NeuralInput id="17"><DerivedField><NormContinuous field="513" shift="-9.63573632394781e-001" scale="3.75260304000624e+000"><LinearNorm orig="2.56774730000000e-001" norm="0.000000"/><LinearNorm orig="5.23256420000000e-001" norm="1.000000"/></NormContinuous></DerivedField></NeuralInput><NeuralInput id="18"><DerivedField><NormContinuous field="190" shift="-1.06306201619044e+000" scale="2.96209180079364e+000"><LinearNorm orig="3.58888950000000e-001" norm="0.000000"/><LinearNorm orig="6.96488210000000e-001" norm="1.000000"/></NormContinuous></DerivedField></NeuralInput><NeuralInput id="19"><DerivedField><NormContinuous field="131" shift="-5.82806475338443e-001" scale="1.96047478935287e+000"><LinearNorm orig="2.97278230000000e-001" norm="0.000000"/><LinearNorm orig="8.07358750000000e-001" norm="1.000000"/></NormContinuous></DerivedField></NeuralInput><NeuralInput id="20"><DerivedField><NormContinuous field="655" shift="-8.76934847051797e-001" scale="2.18488224478822e+000"><LinearNorm orig="4.01364810000000e-001" norm="0.000000"/><LinearNorm orig="8.59055380000000e-001" norm="1.000000"/></NormContinuous></DerivedField></NeuralInput><NeuralInput id="21"><DerivedField><NormContinuous field="424" shift="-1.05908752677470e+000" scale="2.11797901341191e+000"><LinearNorm orig="5.00046280000000e-001" norm="0.000000"/><LinearNorm orig="9.72194490000000e-001" norm="1.000000"/></NormContinuous></DerivedField></NeuralInput></NeuralInputs><NeuralLayer numberOfNeurons="10" activationFunction="radialBasis"><Neuron id="22" width="7.45235066488203e-001"><Con from="0" weight="6.78872654388634e-001"/><Con from="1" weight="6.78772440302247e-001"/><Con from="2" weight="5.98012745206482e-001"/><Con from="3" weight="9.71269195687192e-001"/><Con from="4" weight="7.75173293518080e-001"/><Con from="5" weight="8.27239916876101e-001"/><Con from="6" weight="7.90200386808754e-001"/><Con from="7" weight="7.69210080983414e-001"/><Con from="8" weight="6.79293877950105e-001"/><Con from="9" weight="7.20843901458538e-001"/><Con from="10" weight="6.75095261990267e-001"/><Con from="11" weight="7.32603799997616e-001"/><Con from="12" weight="5.57025195089896e-001"/><Con from="13" weight="8.60951573966866e-001"/><Con from="14" weight="7.95666031576114e-001"/><Con from="15" weight="5.64798515866732e-001"/><Con from="16" weight="6.21639446590117e-001"/><Con from="17" weight="4.73573587738805e-001"/><Con from="18" weight="7.92983521350136e-001"/><Con from="19" weight="3.79819248929561e-001"/><Con from="20" weight="6.78474454913939e-001"/><Con from="21" weight="4.51482872295545e-001"/></Neuron><Neuron id="23" width="6.70677783053342e-001"><Con from="0" weight="7.97116964386724e-001"/><Con from="1" weight="8.40603654491851e-001"/><Con from="2" weight="9.79796807118856e-001"/><Con from="3" weight="9.57301330740792e-001"/><Con from="4" weight="7.66056691953503e-001"/><Con from="5" weight="7.51237330516426e-001"/><Con from="6" weight="9.67250650275307e-001"/><Con from="7" weight="7.96949050299319e-001"/><Con from="8" weight="6.70833922270281e-001"/><Con from="9" weight="9.13300825294971e-001"/><Con from="10" weight="9.59098197918497e-001"/><Con from="11" weight="7.63093023673607e-001"/><Con from="12" weight="8.45868026039222e-001"/><Con from="13" weight="6.20958316132993e-001"/><Con from="14" weight="5.79295400300773e-001"/><Con from="15" weight="8.41834466332795e-001"/><Con from="16" weight="5.71758398767324e-001"/><Con from="17" weight="7.48861319515048e-001"/><Con from="18" weight="7.01272686438945e-001"/><Con from="19" weight="6.38241350600882e-001"/><Con from="20" weight="6.24699171757024e-001"/><Con from="21" weight="1.32700831376656e-001"/></Neuron><Neuron id="24" width="1.06655228261216e+000"><Con from="0" weight="6.61222489951701e-001"/><Con from="1" weight="7.35873698128572e-001"/><Con from="2" weight="5.53343733431994e-001"/><Con from="3" weight="9.33997579351107e-001"/><Con from="4" weight="7.09810401861825e-001"/><Con from="5" weight="4.13990046763608e-001"/><Con from="6" weight="6.56315506548738e-001"/><Con from="7" weight="5.74534816043227e-001"/><Con from="8" weight="4.63573038099454e-001"/><Con from="9" weight="6.16733612767722e-001"/><Con from="10" weight="7.65336959291147e-001"/><Con from="11" weight="8.26538135955091e-001"/><Con from="12" weight="9.42584363726088e-001"/><Con from="13" weight="1.44665985000726e-001"/><Con from="14" weight="6.18962385961883e-001"/><Con from="15" weight="5.66393610708109e-001"/><Con from="16" weight="4.39401002942595e-001"/><Con from="17" weight="5.21629459795155e-001"/><Con from="18" weight="4.47569671805560e-001"/><Con from="19" weight="6.30824737239524e-001"/><Con from="20" weight="5.25667177280930e-001"/><Con from="21" weight="3.14736171508519e-001"/></Neuron><Neuron id="25" width="1.36937718465141e+000"><Con from="0" weight="1.27207994285936e-001"/><Con from="1" weight="6.85492142816173e-001"/><Con from="2" weight="5.08917401221311e-001"/><Con from="3" weight="8.29527388172830e-001"/><Con from="4" weight="0.00000000000000e+000"/><Con from="5" weight="0.00000000000000e+000"/><Con from="6" weight="7.93304688272212e-002"/><Con from="7" weight="4.70021508242207e-001"/><Con from="8" weight="5.16903349988249e-001"/><Con from="9" weight="3.69662866134708e-001"/><Con from="10" weight="4.11194019393567e-001"/><Con from="11" weight="4.34889934747914e-001"/><Con from="12" weight="1.00000000000000e+000"/><Con from="13" weight="0.00000000000000e+000"/><Con from="14" weight="4.38719086868224e-001"/><Con from="15" weight="0.00000000000000e+000"/><Con from="16" weight="2.10629010181787e-001"/><Con from="17" weight="5.28446400951600e-001"/><Con from="18" weight="2.70505658098895e-001"/><Con from="19" weight="5.48443390859153e-001"/><Con from="20" weight="0.00000000000000e+000"/><Con from="21" weight="6.38766627962012e-001"/></Neuron><Neuron id="26" width="7.77617647517612e-001"><Con from="0" weight="9.03285023828300e-001"/><Con from="1" weight="8.17337424280225e-001"/><Con from="2" weight="9.18917372614683e-001"/><Con from="3" weight="9.89881053046959e-001"/><Con from="4" weight="9.04019453203160e-001"/><Con from="5" weight="9.46446428624570e-001"/><Con from="6" weight="8.92236920625978e-001"/><Con from="7" weight="8.63343813142988e-001"/><Con from="8" weight="7.04513548428854e-001"/><Con from="9" weight="7.71169696196810e-001"/><Con from="10" weight="9.35657642455551e-001"/><Con from="11" weight="6.80108970892739e-001"/><Con from="12" weight="5.68164176467927e-001"/><Con from="13" weight="8.98951863861124e-001"/><Con from="14" weight="6.49302511419839e-001"/><Con from="15" weight="7.67650779695802e-001"/><Con from="16" weight="8.55345082609055e-001"/><Con from="17" weight="3.26432221290701e-001"/><Con from="18" weight="8.89163116056593e-001"/><Con from="19" weight="3.87088787472221e-001"/><Con from="20" weight="7.01506500341486e-001"/><Con from="21" weight="8.48545057493705e-001"/></Neuron><Neuron id="27" width="5.56186584994790e-001"><Con from="0" weight="6.60166862820255e-001"/><Con from="1" weight="9.27024671133633e-001"/><Con from="2" weight="9.99505105329604e-001"/><Con from="3" weight="7.84620161744199e-001"/><Con from="4" weight="5.85530181005574e-001"/><Con from="5" weight="7.20448116264278e-001"/><Con from="6" weight="9.34656383480867e-001"/><Con from="7" weight="4.24114312200730e-001"/><Con from="8" weight="7.64932021453681e-001"/><Con from="9" weight="9.62536686682586e-001"/><Con from="10" weight="9.00109033402927e-001"/><Con from="11" weight="5.94460097802331e-001"/><Con from="12" weight="7.13980001692267e-001"/><Con from="13" weight="6.51116761758384e-001"/><Con from="14" weight="5.35005456866271e-001"/><Con from="15" weight="6.65717022150663e-001"/><Con from="16" weight="5.49201337009253e-001"/><Con from="17" weight="6.56160841669835e-001"/><Con from="18" weight="8.39726011247773e-001"/><Con from="19" weight="5.06114544425260e-001"/><Con from="20" weight="7.79118280719657e-001"/><Con from="21" weight="3.68749592421414e-001"/></Neuron><Neuron id="28" width="1.20223604140309e+000"><Con from="0" weight="6.80117680896103e-001"/><Con from="1" weight="6.34955748176939e-001"/><Con from="2" weight="1.74296610686671e-001"/><Con from="3" weight="9.81600542412647e-001"/><Con from="4" weight="6.00288215281712e-001"/><Con from="5" weight="3.37462984753881e-001"/><Con from="6" weight="0.00000000000000e+000"/><Con from="7" weight="8.03834680294043e-001"/><Con from="8" weight="4.10823303944362e-001"/><Con from="9" weight="4.28593660194481e-001"/><Con from="10" weight="3.89805480917729e-001"/><Con from="11" weight="8.74587443789664e-001"/><Con from="12" weight="9.39458639857684e-001"/><Con from="13" weight="1.09955412626390e-001"/><Con from="14" weight="6.47840661591677e-001"/><Con from="15" weight="3.84370485047349e-001"/><Con from="16" weight="0.00000000000000e+000"/><Con from="17" weight="6.44255746051445e-001"/><Con from="18" weight="0.00000000000000e+000"/><Con from="19" weight="7.02183098464533e-001"/><Con from="20" weight="1.66068748150087e-001"/><Con from="21" weight="1.46859944677117e-001"/></Neuron><Neuron id="29" width="5.56186584994790e-001"><Con from="0" weight="6.93772447203163e-001"/><Con from="1" weight="9.08148054770155e-001"/><Con from="2" weight="9.58459599812340e-001"/><Con from="3" weight="7.87844048355066e-001"/><Con from="4" weight="7.42927074019029e-001"/><Con from="5" weight="8.85090063377305e-001"/><Con from="6" weight="9.16865717950982e-001"/><Con from="7" weight="3.58276765791594e-001"/><Con from="8" weight="6.73933461161689e-001"/><Con from="9" weight="8.00136650481274e-001"/><Con from="10" weight="9.22257802517132e-001"/><Con from="11" weight="7.57703661299640e-001"/><Con from="12" weight="7.38633656578661e-001"/><Con from="13" weight="7.74590374849643e-001"/><Con from="14" weight="3.50113671478264e-001"/><Con from="15" weight="6.70175312847654e-001"/><Con from="16" weight="7.33776742208711e-001"/><Con from="17" weight="6.08245241915120e-001"/><Con from="18" weight="7.56740373186837e-001"/><Con from="19" weight="3.56640379052311e-001"/><Con from="20" weight="5.94294437833841e-001"/><Con from="21" weight="1.73747074038468e-001"/></Neuron><Neuron id="30" width="6.43074962572536e-001"><Con from="0" weight="8.19368998952534e-001"/><Con from="1" weight="6.93835834238421e-001"/><Con from="2" weight="5.85889256113234e-001"/><Con from="3" weight="9.91337970702695e-001"/><Con from="4" weight="7.18980612076047e-001"/><Con from="5" weight="6.09613512446574e-001"/><Con from="6" weight="7.98850250886549e-001"/><Con from="7" weight="8.90394402453324e-001"/><Con from="8" weight="4.78016700665308e-001"/><Con from="9" weight="5.13804223359410e-001"/><Con from="10" weight="5.33359509175700e-001"/><Con from="11" weight="7.75551510445184e-001"/><Con from="12" weight="7.79714077910490e-001"/><Con from="13" weight="6.81877847498938e-001"/><Con from="14" weight="9.82713574191644e-001"/><Con from="15" weight="4.62827654052232e-001"/><Con from="16" weight="5.46876901038526e-001"/><Con from="17" weight="8.46720725915540e-001"/><Con from="18" weight="8.07356331290537e-001"/><Con from="19" weight="3.13925201456429e-001"/><Con from="20" weight="5.20604979910336e-001"/><Con from="21" weight="7.13785592875593e-001"/></Neuron><Neuron id="31" width="6.43074962572536e-001"><Con from="0" weight="8.26515518647536e-001"/><Con from="1" weight="6.10063502364241e-001"/><Con from="2" weight="3.22634851646026e-001"/><Con from="3" weight="9.91684063732871e-001"/><Con from="4" weight="8.96519365911200e-001"/><Con from="5" weight="6.24800422700078e-001"/><Con from="6" weight="8.63696904314256e-001"/><Con from="7" weight="8.94350138596353e-001"/><Con from="8" weight="5.28427227406567e-001"/><Con from="9" weight="4.84015854861818e-001"/><Con from="10" weight="4.74204116188835e-001"/><Con from="11" weight="5.72294209325776e-001"/><Con from="12" weight="6.55938897939339e-001"/><Con from="13" weight="6.64515731012753e-001"/><Con from="14" weight="6.60855639506492e-001"/><Con from="15" weight="5.68975959633243e-001"/><Con from="16" weight="4.61683962406720e-001"/><Con from="17" weight="8.07000811200199e-001"/><Con from="18" weight="6.62671683581297e-001"/><Con from="19" weight="3.28424618136760e-001"/><Con from="20" weight="7.46200560784986e-001"/><Con from="21" weight="5.09809621008624e-001"/></Neuron></NeuralLayer><NeuralLayer numberOfNeurons="2" normalizationMethod="softmax"><Neuron id="32" bias="7.23745454068825e-001"><Con from="22" weight="-4.10497478830353e-005"/><Con from="23" weight="-3.58083777814763e-003"/><Con from="24" weight="1.03503412099788e-010"/><Con from="25" weight="3.42792134987901e-013"/><Con from="26" weight="1.11235457804154e-007"/><Con from="27" weight="-1.76530143902986e+000"/><Con from="28" weight="6.62092758983370e-012"/><Con from="29" weight="3.85787685634195e+000"/><Con from="30" weight="-5.82203867522128e-002"/><Con from="31" weight="-3.72036856454806e-002"/></Neuron><Neuron id="33" bias="-4.00997875531517e-001"><Con from="22" weight="4.12301748714967e-005"/><Con from="23" weight="3.58433641790236e-003"/><Con from="24" weight="1.16206842163353e-010"/><Con from="25" weight="1.65607063018906e-013"/><Con from="26" weight="-6.10097536142097e-008"/><Con from="27" weight="1.76551463866897e+000"/><Con from="28" weight="2.84111990423178e-012"/><Con from="29" weight="-3.85773944548099e+000"/><Con from="30" weight="5.82284980839446e-002"/><Con from="31" weight="3.72127624503705e-002"/></Neuron></NeuralLayer><NeuralOutputs numberOfOutputs="2"><NeuralOutput outputNeuron="32"><DerivedField optype="categorical"><NormDiscrete field="Her2+" value="0"/></DerivedField></NeuralOutput><NeuralOutput outputNeuron="33"><DerivedField optype="categorical"><NormDiscrete field="Her2+" value="1"/></DerivedField></NeuralOutput></NeuralOutputs></NeuralNetwork></PMML>
