<?xml version="1.0" encoding="UTF-8"?>
<PMML version="3.0"><Header copyright="Copyright 1984-2017 TIBCO Software Inc. All rights reserved."><Application name="STATISTICA Automated Neural Networks (SANN)" version="2.0"/></Header><DataDictionary numberOfFields="22"><DataField name="ERBinary" optype="categorical"><Value value="0"/><Value value="1"/></DataField><DataField name="wavelet-HLLglcmIdmn" optype="continuous"/><DataField name="wavelet-LLLglrlmRunLengthNonUniformityNormalized" optype="continuous"/><DataField name="wavelet-HHLglcmIdmn" optype="continuous"/><DataField name="wavelet-LLLglcmIdmn" optype="continuous"/><DataField name="wavelet-HLHglcmIdmn" optype="continuous"/><DataField name="wavelet-LHHglcmIdmn" optype="continuous"/><DataField name="wavelet-LLHglcmImc2" optype="continuous"/><DataField name="wavelet-LHHglrlmShortRunEmphasis" optype="continuous"/><DataField name="originalglcmIdn" optype="continuous"/><DataField name="wavelet-LLHglcmIdmn" optype="continuous"/><DataField name="wavelet-HLHglrlmShortRunEmphasis" optype="continuous"/><DataField name="originalglcmImc2" optype="continuous"/><DataField name="wavelet-LHHgldmDependenceEntropy" optype="continuous"/><DataField name="originalglszmSmallAreaEmphasis" optype="continuous"/><DataField name="originalglrlmRunEntropy" optype="continuous"/><DataField name="wavelet-HHLglrlmRunPercentage" optype="continuous"/><DataField name="wavelet-HHLglcmInverseVariance" optype="continuous"/><DataField name="wavelet-LHHglrlmRunEntropy" optype="continuous"/><DataField name="wavelet-LHLglszmSmallAreaEmphasis" optype="continuous"/><DataField name="wavelet-LHLfirstorderEntropy" optype="continuous"/><DataField name="wavelet-HLHglcmImc2" optype="continuous"/></DataDictionary><NeuralNetwork modelName="Over1cc in Ove_MLP 21-16-2" functionName="classification"><MiningSchema><MiningField name="ERBinary" usageType="predicted"/><MiningField name="wavelet-HLLglcmIdmn" lowValue="0.948498" highValue="0.998206"/><MiningField name="wavelet-LLLglrlmRunLengthNonUniformityNormalized" lowValue="0.925222" highValue="0.988274"/><MiningField name="wavelet-HHLglcmIdmn" lowValue="0.909532" highValue="0.997911"/><MiningField name="wavelet-LLLglcmIdmn" lowValue="0.901584" highValue="0.995519"/><MiningField name="wavelet-HLHglcmIdmn" lowValue="0.906973" highValue="0.997103"/><MiningField name="wavelet-LHHglcmIdmn" lowValue="0.922867" highValue="0.994626"/><MiningField name="wavelet-LLHglcmImc2" lowValue="0.814424" highValue="0.999980"/><MiningField name="wavelet-LHHglrlmShortRunEmphasis" lowValue="0.858966" highValue="0.985908"/><MiningField name="originalglcmIdn" lowValue="0.808605" highValue="0.952733"/><MiningField name="wavelet-LLHglcmIdmn" lowValue="0.830486" highValue="0.988362"/><MiningField name="wavelet-HLHglrlmShortRunEmphasis" lowValue="0.804547" highValue="0.993833"/><MiningField name="originalglcmImc2" lowValue="0.718192" highValue="0.999563"/><MiningField name="wavelet-LHHgldmDependenceEntropy" lowValue="4.590453" highValue="6.722640"/><MiningField name="originalglszmSmallAreaEmphasis" lowValue="0.574666" highValue="0.881938"/><MiningField name="originalglrlmRunEntropy" lowValue="3.667230" highValue="6.460317"/><MiningField name="wavelet-HHLglrlmRunPercentage" lowValue="0.597804" highValue="0.957965"/><MiningField name="wavelet-HHLglcmInverseVariance" lowValue="0.202845" highValue="0.514889"/><MiningField name="wavelet-LHHglrlmRunEntropy" lowValue="3.021475" highValue="5.175778"/><MiningField name="wavelet-LHLglszmSmallAreaEmphasis" lowValue="0.366051" highValue="0.860739"/><MiningField name="wavelet-LHLfirstorderEntropy" lowValue="1.854942" highValue="4.853813"/><MiningField name="wavelet-HLHglcmImc2" lowValue="0.540999" highValue="0.999712"/></MiningSchema><NeuralInputs numberOfInputs="21"><NeuralInput id="0"><DerivedField><NormContinuous field="wavelet-HLLglcmIdmn" shift="-1.90815920972037e+001" scale="2.01176861665002e+001"><LinearNorm orig="9.48498348134000e-001" norm="0.000000"/><LinearNorm orig="9.98205853844333e-001" norm="1.000000"/></NormContinuous></DerivedField></NeuralInput><NeuralInput id="1"><DerivedField><NormContinuous field="wavelet-LLLglrlmRunLengthNonUniformityNormalized" shift="-1.46739707559820e+001" scale="1.58599448877724e+001"><LinearNorm orig="9.25222052145667e-001" norm="0.000000"/><LinearNorm orig="9.88273973642000e-001" norm="1.000000"/></NormContinuous></DerivedField></NeuralInput><NeuralInput id="2"><DerivedField><NormContinuous field="wavelet-HHLglcmIdmn" shift="-1.02913037667898e+001" scale="1.13149402538088e+001"><LinearNorm orig="9.09532311788000e-001" norm="0.000000"/><LinearNorm orig="9.97911037399333e-001" norm="1.000000"/></NormContinuous></DerivedField></NeuralInput><NeuralInput id="3"><DerivedField><NormContinuous field="wavelet-LLLglcmIdmn" shift="-9.59804184746170e+000" scale="1.06457500610332e+001"><LinearNorm orig="9.01584368638667e-001" norm="0.000000"/><LinearNorm orig="9.95518567193667e-001" norm="1.000000"/></NormContinuous></DerivedField></NeuralInput><NeuralInput id="4"><DerivedField><NormContinuous field="wavelet-HLHglcmIdmn" shift="-1.00629932170023e+001" scale="1.10951390382883e+001"><LinearNorm orig="9.06973151240000e-001" norm="0.000000"/><LinearNorm orig="9.97102711270667e-001" norm="1.000000"/></NormContinuous></DerivedField></NeuralInput><NeuralInput id="5"><DerivedField><NormContinuous field="wavelet-LHHglcmIdmn" shift="-1.28606784229046e+001" scale="1.39355748871599e+001"><LinearNorm orig="9.22866729721667e-001" norm="0.000000"/><LinearNorm orig="9.94625520306000e-001" norm="1.000000"/></NormContinuous></DerivedField></NeuralInput><NeuralInput id="6"><DerivedField><NormContinuous field="wavelet-LLHglcmImc2" shift="-4.38911883062098e+000" scale="5.38922770280023e+000"><LinearNorm orig="8.14424454238667e-001" norm="0.000000"/><LinearNorm orig="9.99979798185333e-001" norm="1.000000"/></NormContinuous></DerivedField></NeuralInput><NeuralInput id="7"><DerivedField><NormContinuous field="wavelet-LHHglrlmShortRunEmphasis" shift="-6.76659057292389e+000" scale="7.87760203224938e+000"><LinearNorm orig="8.58965779843000e-001" norm="0.000000"/><LinearNorm orig="9.85907962998000e-001" norm="1.000000"/></NormContinuous></DerivedField></NeuralInput><NeuralInput id="8"><DerivedField><NormContinuous field="originalglcmIdn" shift="-5.61031431858680e+000" scale="6.93826323590893e+000"><LinearNorm orig="8.08604996355667e-001" norm="0.000000"/><LinearNorm orig="9.52733284084000e-001" norm="1.000000"/></NormContinuous></DerivedField></NeuralInput><NeuralInput id="9"><DerivedField><NormContinuous field="wavelet-LLHglcmIdmn" shift="-5.26036723407186e+000" scale="6.33408624708656e+000"><LinearNorm orig="8.30485571062667e-001" norm="0.000000"/><LinearNorm orig="9.88361539433000e-001" norm="1.000000"/></NormContinuous></DerivedField></NeuralInput><NeuralInput id="10"><DerivedField><NormContinuous field="wavelet-HLHglrlmShortRunEmphasis" shift="-4.25043089878608e+000" scale="5.28300920121517e+000"><LinearNorm orig="8.04547320835333e-001" norm="0.000000"/><LinearNorm orig="9.93833381471000e-001" norm="1.000000"/></NormContinuous></DerivedField></NeuralInput><NeuralInput id="11"><DerivedField><NormContinuous field="originalglcmImc2" shift="-2.55247011191861e+000" scale="3.55402238547012e+000"><LinearNorm orig="7.18191906262000e-001" norm="0.000000"/><LinearNorm orig="9.99563234728667e-001" norm="1.000000"/></NormContinuous></DerivedField></NeuralInput><NeuralInput id="12"><DerivedField><NormContinuous field="wavelet-LHHgldmDependenceEntropy" shift="-2.15293206200744e+000" scale="4.69002068411706e-001"><LinearNorm orig="4.59045323467000e+000" norm="0.000000"/><LinearNorm orig="6.72263999322000e+000" norm="1.000000"/></NormContinuous></DerivedField></NeuralInput><NeuralInput id="13"><DerivedField><NormContinuous field="originalglszmSmallAreaEmphasis" shift="-1.87021622494947e+000" scale="3.25444060712863e+000"><LinearNorm orig="5.74665956678667e-001" norm="0.000000"/><LinearNorm orig="8.81938425504667e-001" norm="1.000000"/></NormContinuous></DerivedField></NeuralInput><NeuralInput id="14"><DerivedField><NormContinuous field="originalglrlmRunEntropy" shift="-1.31296697102646e+000" scale="3.58026860886159e-001"><LinearNorm orig="3.66723035187000e+000" norm="0.000000"/><LinearNorm orig="6.46031687483333e+000" norm="1.000000"/></NormContinuous></DerivedField></NeuralInput><NeuralInput id="15"><DerivedField><NormContinuous field="wavelet-HHLglrlmRunPercentage" shift="-1.65982769540604e+000" scale="2.77654074634004e+000"><LinearNorm orig="5.97804191274333e-001" norm="0.000000"/><LinearNorm orig="9.57964581975667e-001" norm="1.000000"/></NormContinuous></DerivedField></NeuralInput><NeuralInput id="16"><DerivedField><NormContinuous field="wavelet-HHLglcmInverseVariance" shift="-6.50053262905961e-001" scale="3.20467854094976e+000"><LinearNorm orig="2.02845076222000e-001" norm="0.000000"/><LinearNorm orig="5.14888854473667e-001" norm="1.000000"/></NormContinuous></DerivedField></NeuralInput><NeuralInput id="17"><DerivedField><NormContinuous field="wavelet-LHHglrlmRunEntropy" shift="-1.40253068274289e+000" scale="4.64187371658846e-001"><LinearNorm orig="3.02147531013333e+000" norm="0.000000"/><LinearNorm orig="5.17577777731667e+000" norm="1.000000"/></NormContinuous></DerivedField></NeuralInput><NeuralInput id="18"><DerivedField><NormContinuous field="wavelet-LHLglszmSmallAreaEmphasis" shift="-7.39964310465712e-001" scale="2.02147612509042e+000"><LinearNorm orig="3.66051471635667e-001" norm="0.000000"/><LinearNorm orig="8.60739480852333e-001" norm="1.000000"/></NormContinuous></DerivedField></NeuralInput><NeuralInput id="19"><DerivedField><NormContinuous field="wavelet-LHLfirstorderEntropy" shift="-6.18546834323802e-001" scale="3.33458854174579e-001"><LinearNorm orig="1.85494200133000e+000" norm="0.000000"/><LinearNorm orig="4.85381273899667e+000" norm="1.000000"/></NormContinuous></DerivedField></NeuralInput><NeuralInput id="20"><DerivedField><NormContinuous field="wavelet-HLHglcmImc2" shift="-1.17938441250073e+000" scale="2.18001172803871e+000"><LinearNorm orig="5.40999113597333e-001" norm="0.000000"/><LinearNorm orig="9.99712242127000e-001" norm="1.000000"/></NormContinuous></DerivedField></NeuralInput></NeuralInputs><NeuralLayer numberOfNeurons="16" activationFunction="tanh"><Neuron id="21" bias="-8.30618365050968e-001"><Con from="0" weight="-1.92988462628552e-001"/><Con from="1" weight="-7.68009738316645e-001"/><Con from="2" weight="-2.05704311506596e-002"/><Con from="3" weight="7.10000579806157e-002"/><Con from="4" weight="-1.10399010218585e+000"/><Con from="5" weight="-2.01486311602667e-001"/><Con from="6" weight="-9.11993950925929e-001"/><Con from="7" weight="-1.00732619266012e-001"/><Con from="8" weight="1.66060057084930e-001"/><Con from="9" weight="-6.31420865390337e-001"/><Con from="10" weight="-4.33098606989635e-001"/><Con from="11" weight="-7.01894827563097e-001"/><Con from="12" weight="-8.10579703574077e-002"/><Con from="13" weight="1.78729879608713e-001"/><Con from="14" weight="-6.57926535004165e-001"/><Con from="15" weight="3.83930440525807e-001"/><Con from="16" weight="-5.09792900625926e-001"/><Con from="17" weight="4.22319738402851e-001"/><Con from="18" weight="-8.76473188737718e-001"/><Con from="19" weight="-2.12136599065230e-001"/><Con from="20" weight="1.01869488853318e-001"/></Neuron><Neuron id="22" bias="-4.19979861461975e+000"><Con from="0" weight="5.17821017634663e-001"/><Con from="1" weight="-4.08569455676212e+000"/><Con from="2" weight="4.26700668792472e+000"/><Con from="3" weight="4.51023782698944e+000"/><Con from="4" weight="-7.59677333593140e+000"/><Con from="5" weight="2.05837785122760e+000"/><Con from="6" weight="-5.22383231874287e+000"/><Con from="7" weight="5.61046094397359e+000"/><Con from="8" weight="2.44340027286013e+000"/><Con from="9" weight="-3.41393885351138e+000"/><Con from="10" weight="-9.47460356404029e-001"/><Con from="11" weight="-2.92528683558167e+000"/><Con from="12" weight="1.90659786486889e+000"/><Con from="13" weight="5.10544390136459e+000"/><Con from="14" weight="-5.55761389974516e+000"/><Con from="15" weight="9.13705567002919e+000"/><Con from="16" weight="-2.08564688494998e+000"/><Con from="17" weight="9.84938468105846e+000"/><Con from="18" weight="-5.40314465302665e+000"/><Con from="19" weight="2.56522976910224e+000"/><Con from="20" weight="6.83979764211516e+000"/></Neuron><Neuron id="23" bias="-3.10317901137299e-001"><Con from="0" weight="4.04909863728735e+000"/><Con from="1" weight="-2.75324660757153e+000"/><Con from="2" weight="3.34220642544425e+000"/><Con from="3" weight="4.49080497448970e+000"/><Con from="4" weight="-1.77840642108189e+000"/><Con from="5" weight="1.94967814838157e+000"/><Con from="6" weight="-9.66527904528328e-001"/><Con from="7" weight="2.98703076094021e-001"/><Con from="8" weight="3.90589465753110e+000"/><Con from="9" weight="3.56588474082799e-001"/><Con from="10" weight="-1.15181871730490e+000"/><Con from="11" weight="-1.31780204249387e+000"/><Con from="12" weight="2.36241163731806e+000"/><Con from="13" weight="2.41939974083061e+000"/><Con from="14" weight="-1.20044226446657e+000"/><Con from="15" weight="2.45118617643820e+000"/><Con from="16" weight="1.37974541753741e+000"/><Con from="17" weight="3.56837837494630e+000"/><Con from="18" weight="-3.45647884061645e+000"/><Con from="19" weight="7.90092401209600e-001"/><Con from="20" weight="1.36311466556893e+000"/></Neuron><Neuron id="24" bias="1.39988246033161e+000"><Con from="0" weight="5.42604326233412e-001"/><Con from="1" weight="1.18233544263376e+000"/><Con from="2" weight="-3.82270727243649e-001"/><Con from="3" weight="-6.77015145489327e-001"/><Con from="4" weight="1.75906453973021e+000"/><Con from="5" weight="3.87144016451924e-001"/><Con from="6" weight="1.54757277079907e+000"/><Con from="7" weight="-3.56183711823497e-001"/><Con from="8" weight="-5.83528409762800e-001"/><Con from="9" weight="8.75899371365466e-001"/><Con from="10" weight="-4.02447460894653e-002"/><Con from="11" weight="1.20094222226841e+000"/><Con from="12" weight="4.33412994242988e-003"/><Con from="13" weight="-3.45368300030834e-001"/><Con from="14" weight="1.18708043800887e+000"/><Con from="15" weight="-1.27074721980763e+000"/><Con from="16" weight="1.03689829971948e+000"/><Con from="17" weight="-1.23759491695234e+000"/><Con from="18" weight="9.49790808212032e-001"/><Con from="19" weight="-2.47469737231159e-002"/><Con from="20" weight="-9.97655692982033e-001"/></Neuron><Neuron id="25" bias="2.88591863707176e-001"><Con from="0" weight="5.79313190494259e-001"/><Con from="1" weight="2.89214335084873e-001"/><Con from="2" weight="1.84981972730834e+000"/><Con from="3" weight="1.82969837102388e+000"/><Con from="4" weight="-4.32262059995524e-001"/><Con from="5" weight="9.43102735194438e-001"/><Con from="6" weight="5.99745328916174e-002"/><Con from="7" weight="1.50425976880988e+000"/><Con from="8" weight="1.52590018656501e+000"/><Con from="9" weight="3.59318546004463e-001"/><Con from="10" weight="1.32311467438313e+000"/><Con from="11" weight="3.10694339226751e-001"/><Con from="12" weight="1.28649555355632e+000"/><Con from="13" weight="1.52615439155106e+000"/><Con from="14" weight="2.42981769571645e-001"/><Con from="15" weight="1.93447547874014e+000"/><Con from="16" weight="1.67702319244770e-001"/><Con from="17" weight="2.27871202229300e+000"/><Con from="18" weight="2.22826369912517e-001"/><Con from="19" weight="1.26201593308502e+000"/><Con from="20" weight="2.00137724654090e+000"/></Neuron><Neuron id="26" bias="-2.80212635222484e+000"><Con from="0" weight="-3.14315899965417e+000"/><Con from="1" weight="-2.88671687077863e+000"/><Con from="2" weight="2.02089284293942e+000"/><Con from="3" weight="4.72435365716584e+000"/><Con from="4" weight="-3.71172879722127e+000"/><Con from="5" weight="-1.87497715363778e+000"/><Con from="6" weight="-3.06992522185464e+000"/><Con from="7" weight="4.20263133820295e-001"/><Con from="8" weight="5.85529191552425e+000"/><Con from="9" weight="-1.02592030590348e+000"/><Con from="10" weight="4.81743301896559e+000"/><Con from="11" weight="-2.37453543622430e+000"/><Con from="12" weight="1.36492769163381e+000"/><Con from="13" weight="-1.13171131860092e+000"/><Con from="14" weight="-4.96968675528876e-001"/><Con from="15" weight="4.05957928696349e+000"/><Con from="16" weight="-2.93254682004440e+000"/><Con from="17" weight="3.39822005089756e+000"/><Con from="18" weight="-3.05189414669300e-001"/><Con from="19" weight="1.86609688489853e+000"/><Con from="20" weight="4.20358007339403e+000"/></Neuron><Neuron id="27" bias="-5.13857544492729e-001"><Con from="0" weight="-2.14459897781561e+000"/><Con from="1" weight="-3.32526823671642e-001"/><Con from="2" weight="1.64859951821196e+000"/><Con from="3" weight="3.90942177589936e+000"/><Con from="4" weight="-3.88671339423538e+000"/><Con from="5" weight="1.09664635334831e+000"/><Con from="6" weight="-9.74794161573648e-001"/><Con from="7" weight="3.96464284335804e+000"/><Con from="8" weight="1.41540709180742e+000"/><Con from="9" weight="-1.65236137944612e+000"/><Con from="10" weight="2.59916024938896e+000"/><Con from="11" weight="5.86392616316335e-001"/><Con from="12" weight="7.80237628195917e-001"/><Con from="13" weight="3.13226583992622e+000"/><Con from="14" weight="-1.28988192066170e+000"/><Con from="15" weight="5.05126531813298e+000"/><Con from="16" weight="-1.32539848245075e+000"/><Con from="17" weight="4.34140189709990e+000"/><Con from="18" weight="-6.67133497789308e-001"/><Con from="19" weight="1.64112746893390e+000"/><Con from="20" weight="4.67333316356886e+000"/></Neuron><Neuron id="28" bias="3.78101843226292e-001"><Con from="0" weight="1.92483676316555e+000"/><Con from="1" weight="-1.72122711759433e+000"/><Con from="2" weight="1.26853506981958e+000"/><Con from="3" weight="1.34475329562200e+000"/><Con from="4" weight="-3.94639747626161e+000"/><Con from="5" weight="8.59433532977503e-001"/><Con from="6" weight="-2.19113328105851e-001"/><Con from="7" weight="-6.19609826933941e-001"/><Con from="8" weight="1.62470089134938e+000"/><Con from="9" weight="-1.50826419055436e+000"/><Con from="10" weight="-3.73451759751791e+000"/><Con from="11" weight="8.17526243374691e-001"/><Con from="12" weight="-9.44476024049566e-002"/><Con from="13" weight="3.14198573546048e+000"/><Con from="14" weight="-2.48276971871891e+000"/><Con from="15" weight="2.02033231852823e+000"/><Con from="16" weight="1.27956121110617e+000"/><Con from="17" weight="6.57571090346644e-001"/><Con from="18" weight="-6.30568017513234e+000"/><Con from="19" weight="-8.32616493522714e-001"/><Con from="20" weight="1.01973277187658e+000"/></Neuron><Neuron id="29" bias="-6.91701519151233e-001"><Con from="0" weight="2.20511516277531e+000"/><Con from="1" weight="-1.71950382165649e+000"/><Con from="2" weight="2.29068888204101e+000"/><Con from="3" weight="-1.17412872355563e+000"/><Con from="4" weight="-1.69523679080058e+000"/><Con from="5" weight="9.10748915465152e-001"/><Con from="6" weight="4.99925434964927e-002"/><Con from="7" weight="1.21207738245498e+000"/><Con from="8" weight="1.57540350943265e+000"/><Con from="9" weight="1.72420412796022e+000"/><Con from="10" weight="-3.91211438504761e+000"/><Con from="11" weight="2.72710271795324e+000"/><Con from="12" weight="-2.70097255017771e+000"/><Con from="13" weight="3.34942654364958e+000"/><Con from="14" weight="-5.98183676989441e+000"/><Con from="15" weight="6.21568623710708e+000"/><Con from="16" weight="2.21775622176283e+000"/><Con from="17" weight="1.04070863627795e+000"/><Con from="18" weight="-3.68573789068913e+000"/><Con from="19" weight="-1.80100682264043e+000"/><Con from="20" weight="1.96514984827500e+000"/></Neuron><Neuron id="30" bias="-1.94087254097133e+000"><Con from="0" weight="-1.92738226011588e+000"/><Con from="1" weight="-2.31488320916026e+000"/><Con from="2" weight="3.22750710560415e+000"/><Con from="3" weight="3.04452225471674e+000"/><Con from="4" weight="-5.83904958020645e+000"/><Con from="5" weight="2.96501129725539e+000"/><Con from="6" weight="-2.08654948561034e+000"/><Con from="7" weight="1.34508688423276e+000"/><Con from="8" weight="3.88743611956930e+000"/><Con from="9" weight="-4.59781276964775e-001"/><Con from="10" weight="-4.20426673107810e+000"/><Con from="11" weight="9.60296555827636e-001"/><Con from="12" weight="1.02495572419640e+000"/><Con from="13" weight="4.07885315237355e+000"/><Con from="14" weight="-3.13990599491615e+000"/><Con from="15" weight="3.65344255000538e+000"/><Con from="16" weight="-1.16344487226897e+000"/><Con from="17" weight="3.68460981210853e+000"/><Con from="18" weight="-4.34978712238672e+000"/><Con from="19" weight="-1.56685663162719e-001"/><Con from="20" weight="6.83725952011709e-001"/></Neuron><Neuron id="31" bias="-2.38592818198395e+000"><Con from="0" weight="-6.81582459192239e-001"/><Con from="1" weight="-2.20058435294920e+000"/><Con from="2" weight="9.81948858646357e-001"/><Con from="3" weight="1.54898364805288e+000"/><Con from="4" weight="-3.27106037475270e+000"/><Con from="5" weight="-2.42993944632136e-001"/><Con from="6" weight="-2.68237770788762e+000"/><Con from="7" weight="6.24615917675801e-001"/><Con from="8" weight="1.44276822683971e+000"/><Con from="9" weight="-1.54087989642787e+000"/><Con from="10" weight="-1.85299746767368e-001"/><Con from="11" weight="-2.00898031136597e+000"/><Con from="12" weight="3.93238184660569e-001"/><Con from="13" weight="1.02982493416028e+000"/><Con from="14" weight="-1.82087271780955e+000"/><Con from="15" weight="2.33698461426571e+000"/><Con from="16" weight="-1.73009901390950e+000"/><Con from="17" weight="2.50821872068481e+000"/><Con from="18" weight="-1.98490782065599e+000"/><Con from="19" weight="2.13433683553151e-001"/><Con from="20" weight="1.67871491998798e+000"/></Neuron><Neuron id="32" bias="7.89510202511404e-001"><Con from="0" weight="-5.13007265386426e-001"/><Con from="1" weight="1.07890908012703e+000"/><Con from="2" weight="-1.49137647708229e+000"/><Con from="3" weight="-1.68972116735591e+000"/><Con from="4" weight="1.47365088169883e+000"/><Con from="5" weight="-4.36760377820372e-001"/><Con from="6" weight="1.02089686793111e+000"/><Con from="7" weight="-9.11621993444721e-001"/><Con from="8" weight="-1.80586223073468e+000"/><Con from="9" weight="4.91497777162450e-002"/><Con from="10" weight="-2.26709235455401e-001"/><Con from="11" weight="7.82110982442896e-001"/><Con from="12" weight="-8.77340209060916e-001"/><Con from="13" weight="-9.15433980854930e-001"/><Con from="14" weight="9.84693207023541e-001"/><Con from="15" weight="-2.02778581021197e+000"/><Con from="16" weight="3.15514218188951e-001"/><Con from="17" weight="-2.26749671859299e+000"/><Con from="18" weight="1.05739039321331e+000"/><Con from="19" weight="-5.73438433902687e-001"/><Con from="20" weight="-1.57853201028094e+000"/></Neuron><Neuron id="33" bias="-3.26036921193922e+000"><Con from="0" weight="-6.22834447986011e-001"/><Con from="1" weight="-3.53847824708917e+000"/><Con from="2" weight="2.65455695157876e+000"/><Con from="3" weight="3.69677708509631e+000"/><Con from="4" weight="-5.57804098856999e+000"/><Con from="5" weight="-3.35900681153275e-001"/><Con from="6" weight="-3.80497752575797e+000"/><Con from="7" weight="2.18989104425930e+000"/><Con from="8" weight="3.95837475451736e+000"/><Con from="9" weight="-2.23068178943699e+000"/><Con from="10" weight="9.14051869867348e-001"/><Con from="11" weight="-2.80286990780370e+000"/><Con from="12" weight="7.82418757766923e-001"/><Con from="13" weight="2.20967124883925e+000"/><Con from="14" weight="-3.56031777779555e+000"/><Con from="15" weight="5.58345647888103e+000"/><Con from="16" weight="-2.63954946490603e+000"/><Con from="17" weight="5.06565556562631e+000"/><Con from="18" weight="-3.13037986454490e+000"/><Con from="19" weight="1.28579784051758e+000"/><Con from="20" weight="4.39715856143519e+000"/></Neuron><Neuron id="34" bias="1.78144747409185e+000"><Con from="0" weight="7.99302574289761e-002"/><Con from="1" weight="2.12389116609615e+000"/><Con from="2" weight="-2.88161476681912e+000"/><Con from="3" weight="-4.17417638532522e+000"/><Con from="4" weight="3.95683353976647e+000"/><Con from="5" weight="-7.56391493994929e-001"/><Con from="6" weight="2.36204419085682e+000"/><Con from="7" weight="-2.49407794221638e+000"/><Con from="8" weight="-3.28820381548849e+000"/><Con from="9" weight="1.24517374495785e+000"/><Con from="10" weight="-1.36354557435334e+000"/><Con from="11" weight="1.45365857603287e+000"/><Con from="12" weight="-1.50701211698306e+000"/><Con from="13" weight="-2.84234052863685e+000"/><Con from="14" weight="2.10110880351754e+000"/><Con from="15" weight="-4.88839372591071e+000"/><Con from="16" weight="1.33327526476850e+000"/><Con from="17" weight="-4.97966272078904e+000"/><Con from="18" weight="2.10964087544899e+000"/><Con from="19" weight="-1.43339537319520e+000"/><Con from="20" weight="-4.31133426227400e+000"/></Neuron><Neuron id="35" bias="2.65113544862299e-001"><Con from="0" weight="1.71969958471715e+000"/><Con from="1" weight="-9.16974620112174e-001"/><Con from="2" weight="1.11937475821865e+000"/><Con from="3" weight="1.11737910312330e+000"/><Con from="4" weight="-9.02627843559304e-001"/><Con from="5" weight="8.07357644199205e-001"/><Con from="6" weight="1.98200478497615e-001"/><Con from="7" weight="3.63052089522963e-001"/><Con from="8" weight="9.56180644879669e-001"/><Con from="9" weight="2.83798373788172e-002"/><Con from="10" weight="-1.15201650326720e+000"/><Con from="11" weight="3.56208913595283e-001"/><Con from="12" weight="4.09190167670501e-001"/><Con from="13" weight="1.05639879926709e+000"/><Con from="14" weight="-8.57661254743355e-001"/><Con from="15" weight="1.23945375058940e+000"/><Con from="16" weight="1.27185109858034e+000"/><Con from="17" weight="1.04829079381602e+000"/><Con from="18" weight="-1.76558534200887e+000"/><Con from="19" weight="1.15279382664201e-001"/><Con from="20" weight="3.86428857544265e-001"/></Neuron><Neuron id="36" bias="2.72030630703808e+000"><Con from="0" weight="-3.81962604331952e+000"/><Con from="1" weight="3.02268949057195e+000"/><Con from="2" weight="-5.75083750215225e+000"/><Con from="3" weight="-4.30450386481538e+000"/><Con from="4" weight="4.41837515912711e+000"/><Con from="5" weight="-2.16292714069707e+000"/><Con from="6" weight="3.56793303992736e+000"/><Con from="7" weight="-1.90247598727644e+000"/><Con from="8" weight="-4.19661783162514e+000"/><Con from="9" weight="8.47941538730714e-001"/><Con from="10" weight="7.54721090279726e-001"/><Con from="11" weight="2.84457968284347e+000"/><Con from="12" weight="-3.63957882624862e+000"/><Con from="13" weight="-4.63633839184419e+000"/><Con from="14" weight="2.15108023426898e+000"/><Con from="15" weight="-5.05354796177472e+000"/><Con from="16" weight="5.19406952273052e-001"/><Con from="17" weight="-7.26119041848368e+000"/><Con from="18" weight="4.13897788931686e+000"/><Con from="19" weight="-2.11958975510706e+000"/><Con from="20" weight="-3.08292228238775e+000"/></Neuron></NeuralLayer><NeuralLayer numberOfNeurons="2" normalizationMethod="softmax"><Neuron id="37" bias="1.65016692133706e+000"><Con from="21" weight="1.07933477510805e-001"/><Con from="22" weight="-7.90363107419918e-001"/><Con from="23" weight="-3.36131742019742e+000"/><Con from="24" weight="-9.32929614410854e-001"/><Con from="25" weight="7.74062979821322e-001"/><Con from="26" weight="1.03390908124241e+000"/><Con from="27" weight="3.78195304343008e+000"/><Con from="28" weight="-4.68087195619164e+000"/><Con from="29" weight="-3.26988438024221e+000"/><Con from="30" weight="-3.51491698753270e+000"/><Con from="31" weight="5.31639231615115e-001"/><Con from="32" weight="8.83593165247432e-001"/><Con from="33" weight="1.79513204101096e+000"/><Con from="34" weight="4.24640844194657e-001"/><Con from="35" weight="-2.23594676010402e+000"/><Con from="36" weight="1.96341978649092e+000"/></Neuron><Neuron id="38" bias="-1.68002289145197e+000"><Con from="21" weight="-1.24343198320452e-001"/><Con from="22" weight="7.97300615266134e-001"/><Con from="23" weight="3.35222913850110e+000"/><Con from="24" weight="9.42319871279113e-001"/><Con from="25" weight="-7.56057117083862e-001"/><Con from="26" weight="-1.08703129069396e+000"/><Con from="27" weight="-3.77510523933030e+000"/><Con from="28" weight="4.68254928139179e+000"/><Con from="29" weight="3.29377905266656e+000"/><Con from="30" weight="3.55747268135968e+000"/><Con from="31" weight="-4.81608111132628e-001"/><Con from="32" weight="-9.02014710763902e-001"/><Con from="33" weight="-1.79205693929380e+000"/><Con from="34" weight="-4.05851226347261e-001"/><Con from="35" weight="2.21580427303704e+000"/><Con from="36" weight="-1.88742394055666e+000"/></Neuron></NeuralLayer><NeuralOutputs numberOfOutputs="2"><NeuralOutput outputNeuron="37"><DerivedField optype="categorical"><NormDiscrete field="ERBinary" value="0"/></DerivedField></NeuralOutput><NeuralOutput outputNeuron="38"><DerivedField optype="categorical"><NormDiscrete field="ERBinary" value="1"/></DerivedField></NeuralOutput></NeuralOutputs></NeuralNetwork></PMML>
