<?xml version="1.0" encoding="UTF-8"?>
<PMML version="3.0"><Header copyright="Copyright 1984-2018 TIBCO Software Inc. All rights reserved."><Application name="STATISTICA Automated Neural Networks (SANN)" version="2.0"/></Header><DataDictionary numberOfFields="22"><DataField name="TripleNeg" optype="categorical"><Value value="0"/><Value value="1"/></DataField><DataField name="828" optype="continuous"/><DataField name="791" optype="continuous"/><DataField name="84" optype="continuous"/><DataField name="270" optype="continuous"/><DataField name="44" optype="continuous"/><DataField name="323" optype="continuous"/><DataField name="509" optype="continuous"/><DataField name="602" optype="continuous"/><DataField name="695" optype="continuous"/><DataField name="138" optype="continuous"/><DataField name="510" optype="continuous"/><DataField name="642" optype="continuous"/><DataField name="841" optype="continuous"/><DataField name="699" optype="continuous"/><DataField name="796" optype="continuous"/><DataField name="327" optype="continuous"/><DataField name="693" optype="continuous"/><DataField name="233" optype="continuous"/><DataField name="469" optype="continuous"/><DataField name="18" optype="continuous"/><DataField name="174" optype="continuous"/></DataDictionary><NeuralNetwork modelName="Breas_RBF 21-12-2" functionName="classification"><MiningSchema><MiningField name="TripleNeg" usageType="predicted"/><MiningField name="828" lowValue="0.958665" highValue="1.000000"/><MiningField name="791" lowValue="0.935052" highValue="0.999978"/><MiningField name="84" lowValue="0.902727" highValue="0.990504"/><MiningField name="270" lowValue="0.878545" highValue="0.993719"/><MiningField name="44" lowValue="0.878309" highValue="0.996040"/><MiningField name="323" lowValue="0.885360" highValue="0.995248"/><MiningField name="509" lowValue="0.891153" highValue="0.995880"/><MiningField name="602" lowValue="0.870357" highValue="0.998053"/><MiningField name="695" lowValue="0.876196" highValue="0.996292"/><MiningField name="138" lowValue="0.825732" highValue="1.000000"/><MiningField name="510" lowValue="0.803054" highValue="0.962856"/><MiningField name="642" lowValue="0.689262" highValue="1.000000"/><MiningField name="841" lowValue="0.692603" highValue="1.000000"/><MiningField name="699" lowValue="0.379874" highValue="0.619018"/><MiningField name="796" lowValue="0.737359" highValue="1.000000"/><MiningField name="327" lowValue="0.319495" highValue="0.573202"/><MiningField name="693" lowValue="0.442052" highValue="0.787004"/><MiningField name="233" lowValue="0.573056" highValue="0.999631"/><MiningField name="469" lowValue="0.510890" highValue="0.989130"/><MiningField name="18" lowValue="2.097494" highValue="5.982718"/><MiningField name="174" lowValue="0.358609" highValue="0.933039"/></MiningSchema><NeuralInputs numberOfInputs="21"><NeuralInput id="0"><DerivedField><NormContinuous field="828" shift="-2.31925904385560e+001" scale="2.41925904385560e+001"><LinearNorm orig="9.58665030000000e-001" norm="0.000000"/><LinearNorm orig="1.00000000000000e+000" norm="1.000000"/></NormContinuous></DerivedField></NeuralInput><NeuralInput id="1"><DerivedField><NormContinuous field="791" shift="-1.44017587042275e+001" scale="1.54021003228126e+001"><LinearNorm orig="9.35051610000000e-001" norm="0.000000"/><LinearNorm orig="9.99977820000000e-001" norm="1.000000"/></NormContinuous></DerivedField></NeuralInput><NeuralInput id="2"><DerivedField><NormContinuous field="84" shift="-1.02842511073440e+001" scale="1.13924281365633e+001"><LinearNorm orig="9.02726880000000e-001" norm="0.000000"/><LinearNorm orig="9.90504480000000e-001" norm="1.000000"/></NormContinuous></DerivedField></NeuralInput><NeuralInput id="3"><DerivedField><NormContinuous field="270" shift="-7.62798638546067e+000" scale="8.68252042801700e+000"><LinearNorm orig="8.78545170000000e-001" norm="0.000000"/><LinearNorm orig="9.93719100000000e-001" norm="1.000000"/></NormContinuous></DerivedField></NeuralInput><NeuralInput id="4"><DerivedField><NormContinuous field="44" shift="-7.46026672881935e+000" scale="8.49389917198073e+000"><LinearNorm orig="8.78308840000000e-001" norm="0.000000"/><LinearNorm orig="9.96040400000000e-001" norm="1.000000"/></NormContinuous></DerivedField></NeuralInput><NeuralInput id="5"><DerivedField><NormContinuous field="323" shift="-8.05693813675142e+000" scale="9.10018631721466e+000"><LinearNorm orig="8.85359690000000e-001" norm="0.000000"/><LinearNorm orig="9.95247550000000e-001" norm="1.000000"/></NormContinuous></DerivedField></NeuralInput><NeuralInput id="6"><DerivedField><NormContinuous field="509" shift="-8.50934386591506e+000" scale="9.54868521288697e+000"><LinearNorm orig="8.91153460000000e-001" norm="0.000000"/><LinearNorm orig="9.95879920000000e-001" norm="1.000000"/></NormContinuous></DerivedField></NeuralInput><NeuralInput id="7"><DerivedField><NormContinuous field="602" shift="-6.81585252847055e+000" scale="7.83110069957572e+000"><LinearNorm orig="8.70356900000000e-001" norm="0.000000"/><LinearNorm orig="9.98052870000000e-001" norm="1.000000"/></NormContinuous></DerivedField></NeuralInput><NeuralInput id="8"><DerivedField><NormContinuous field="695" shift="-7.29584743637985e+000" scale="8.32672676953560e+000"><LinearNorm orig="8.76196330000000e-001" norm="0.000000"/><LinearNorm orig="9.96291540000000e-001" norm="1.000000"/></NormContinuous></DerivedField></NeuralInput><NeuralInput id="9"><DerivedField><NormContinuous field="138" shift="-4.73828749531899e+000" scale="5.73828749531899e+000"><LinearNorm orig="8.25731980000000e-001" norm="0.000000"/><LinearNorm orig="1.00000000000000e+000" norm="1.000000"/></NormContinuous></DerivedField></NeuralInput><NeuralInput id="10"><DerivedField><NormContinuous field="510" shift="-5.02529776012597e+000" scale="6.25773260195458e+000"><LinearNorm orig="8.03054090000000e-001" norm="0.000000"/><LinearNorm orig="9.62856380000000e-001" norm="1.000000"/></NormContinuous></DerivedField></NeuralInput><NeuralInput id="11"><DerivedField><NormContinuous field="642" shift="-2.21814943599196e+000" scale="3.21814943599196e+000"><LinearNorm orig="6.89262410000000e-001" norm="0.000000"/><LinearNorm orig="1.00000000000000e+000" norm="1.000000"/></NormContinuous></DerivedField></NeuralInput><NeuralInput id="12"><DerivedField><NormContinuous field="841" shift="-2.25312260732832e+000" scale="3.25312260732832e+000"><LinearNorm orig="6.92603040000000e-001" norm="0.000000"/><LinearNorm orig="1.00000000000000e+000" norm="1.000000"/></NormContinuous></DerivedField></NeuralInput><NeuralInput id="13"><DerivedField><NormContinuous field="699" shift="-1.58846925056543e+000" scale="4.18157118021000e+000"><LinearNorm orig="3.79873780000000e-001" norm="0.000000"/><LinearNorm orig="6.19018340000000e-001" norm="1.000000"/></NormContinuous></DerivedField></NeuralInput><NeuralInput id="14"><DerivedField><NormContinuous field="796" shift="-2.80747299578334e+000" scale="3.80747299578334e+000"><LinearNorm orig="7.37358610000000e-001" norm="0.000000"/><LinearNorm orig="1.00000000000000e+000" norm="1.000000"/></NormContinuous></DerivedField></NeuralInput><NeuralInput id="15"><DerivedField><NormContinuous field="327" shift="-1.25930530099682e+000" scale="3.94155462797637e+000"><LinearNorm orig="3.19494570000000e-001" norm="0.000000"/><LinearNorm orig="5.73201570000000e-001" norm="1.000000"/></NormContinuous></DerivedField></NeuralInput><NeuralInput id="16"><DerivedField><NormContinuous field="693" shift="-1.28149079915929e+000" scale="2.89895716683525e+000"><LinearNorm orig="4.42052340000000e-001" norm="0.000000"/><LinearNorm orig="7.87003970000000e-001" norm="1.000000"/></NormContinuous></DerivedField></NeuralInput><NeuralInput id="17"><DerivedField><NormContinuous field="233" shift="-1.34338883768127e+000" scale="2.34425370319999e+000"><LinearNorm orig="5.73056080000000e-001" norm="0.000000"/><LinearNorm orig="9.99631070000000e-001" norm="1.000000"/></NormContinuous></DerivedField></NeuralInput><NeuralInput id="18"><DerivedField><NormContinuous field="469" shift="-1.06827171407298e+000" scale="2.09099998477752e+000"><LinearNorm orig="5.10890350000000e-001" norm="0.000000"/><LinearNorm orig="9.89130430000000e-001" norm="1.000000"/></NormContinuous></DerivedField></NeuralInput><NeuralInput id="19"><DerivedField><NormContinuous field="18" shift="-5.39864203787934e-001" scale="2.57385369461975e-001"><LinearNorm orig="2.09749375000000e+000" norm="0.000000"/><LinearNorm orig="5.98271847000000e+000" norm="1.000000"/></NormContinuous></DerivedField></NeuralInput><NeuralInput id="20"><DerivedField><NormContinuous field="174" shift="-6.24286838952986e-001" scale="1.74085551663447e+000"><LinearNorm orig="3.58609220000000e-001" norm="0.000000"/><LinearNorm orig="9.33039430000000e-001" norm="1.000000"/></NormContinuous></DerivedField></NeuralInput></NeuralInputs><NeuralLayer numberOfNeurons="12" activationFunction="radialBasis"><Neuron id="21" width="4.64225891282587e-001"><Con from="0" weight="8.61175416360528e-001"/><Con from="1" weight="9.99999999999998e-001"/><Con from="2" weight="9.41977907803357e-001"/><Con from="3" weight="9.45553303599175e-001"/><Con from="4" weight="8.25702301065236e-001"/><Con from="5" weight="7.03448315400809e-001"/><Con from="6" weight="8.43800793037405e-001"/><Con from="7" weight="7.84539950634308e-001"/><Con from="8" weight="8.28381165243810e-001"/><Con from="9" weight="4.26886126324267e-001"/><Con from="10" weight="6.73561749334131e-001"/><Con from="11" weight="9.46048271790999e-001"/><Con from="12" weight="7.66888260703684e-001"/><Con from="13" weight="0.00000000000000e+000"/><Con from="14" weight="9.97156464942559e-001"/><Con from="15" weight="0.00000000000000e+000"/><Con from="16" weight="0.00000000000000e+000"/><Con from="17" weight="9.98424192660709e-001"/><Con from="18" weight="7.99089235682630e-001"/><Con from="19" weight="9.56601802430620e-001"/><Con from="20" weight="1.00000000000000e+000"/></Neuron><Neuron id="22" width="3.02822775087454e-001"><Con from="0" weight="7.53138807164973e-001"/><Con from="1" weight="9.93445944249633e-001"/><Con from="2" weight="8.00744836951568e-001"/><Con from="3" weight="6.94640966058898e-001"/><Con from="4" weight="9.09540908147313e-001"/><Con from="5" weight="9.11194375793649e-001"/><Con from="6" weight="8.85488729400382e-001"/><Con from="7" weight="9.21614127681555e-001"/><Con from="8" weight="8.71419517897507e-001"/><Con from="9" weight="4.71952800060505e-001"/><Con from="10" weight="7.30864933162097e-001"/><Con from="11" weight="7.82859968760136e-001"/><Con from="12" weight="6.79533070203427e-001"/><Con from="13" weight="4.18546338666453e-001"/><Con from="14" weight="6.63622858529648e-001"/><Con from="15" weight="5.61680954802193e-001"/><Con from="16" weight="7.04317124113894e-001"/><Con from="17" weight="7.94401565830196e-001"/><Con from="18" weight="6.11175625430642e-001"/><Con from="19" weight="8.59108816233415e-001"/><Con from="20" weight="8.92206417904100e-001"/></Neuron><Neuron id="23" width="4.42183445736902e-001"><Con from="0" weight="6.27006866099091e-001"/><Con from="1" weight="9.56469505920643e-001"/><Con from="2" weight="6.25116202766993e-001"/><Con from="3" weight="6.19338334638750e-001"/><Con from="4" weight="8.56421081993646e-001"/><Con from="5" weight="8.83358634884690e-001"/><Con from="6" weight="9.03626170501704e-001"/><Con from="7" weight="8.70132080127510e-001"/><Con from="8" weight="7.22292171353047e-001"/><Con from="9" weight="4.61987460464633e-001"/><Con from="10" weight="7.78807174790799e-001"/><Con from="11" weight="6.63539741040021e-001"/><Con from="12" weight="4.17751528837500e-001"/><Con from="13" weight="4.21341384474730e-001"/><Con from="14" weight="4.34886748048356e-001"/><Con from="15" weight="5.39072197456121e-001"/><Con from="16" weight="9.04526730312885e-001"/><Con from="17" weight="7.51381556616810e-001"/><Con from="18" weight="3.92717962911013e-001"/><Con from="19" weight="6.48654701239521e-001"/><Con from="20" weight="7.86641653126147e-001"/></Neuron><Neuron id="24" width="5.50278831085083e-001"><Con from="0" weight="7.68460700467426e-001"/><Con from="1" weight="9.98776303129352e-001"/><Con from="2" weight="8.61324301416307e-001"/><Con from="3" weight="8.67131216239647e-001"/><Con from="4" weight="8.78830451240092e-001"/><Con from="5" weight="7.23176609317898e-001"/><Con from="6" weight="8.85108691728909e-001"/><Con from="7" weight="8.37176537364492e-001"/><Con from="8" weight="8.54736254676602e-001"/><Con from="9" weight="4.03586211629650e-001"/><Con from="10" weight="7.64071028018435e-001"/><Con from="11" weight="8.05489319782650e-001"/><Con from="12" weight="6.46102290666765e-001"/><Con from="13" weight="4.33125972006221e-001"/><Con from="14" weight="9.51846736723408e-001"/><Con from="15" weight="3.57361523332033e-001"/><Con from="16" weight="8.26676714065679e-001"/><Con from="17" weight="9.87724690563786e-001"/><Con from="18" weight="4.14284662214008e-001"/><Con from="19" weight="8.15935388159478e-001"/><Con from="20" weight="8.94404213176741e-001"/></Neuron><Neuron id="25" width="7.96739424397683e-001"><Con from="0" weight="6.78514100772301e-001"/><Con from="1" weight="9.94049244519276e-001"/><Con from="2" weight="7.07109900475746e-001"/><Con from="3" weight="8.81428028026829e-001"/><Con from="4" weight="5.15298786493613e-001"/><Con from="5" weight="6.18262472305858e-001"/><Con from="6" weight="6.41585326191681e-001"/><Con from="7" weight="5.14554374738686e-001"/><Con from="8" weight="5.79669497226409e-001"/><Con from="9" weight="6.33846990400190e-001"/><Con from="10" weight="5.88591627817099e-001"/><Con from="11" weight="8.28973540021341e-001"/><Con from="12" weight="6.72038688996794e-001"/><Con from="13" weight="3.72911012485503e-001"/><Con from="14" weight="9.80376436478652e-001"/><Con from="15" weight="3.64449581603976e-001"/><Con from="16" weight="9.20252036495668e-001"/><Con from="17" weight="9.97482904471263e-001"/><Con from="18" weight="2.93189374675581e-001"/><Con from="19" weight="6.57950253647104e-001"/><Con from="20" weight="5.77507126583750e-001"/></Neuron><Neuron id="26" width="4.42183445736902e-001"><Con from="0" weight="5.92926522022395e-001"/><Con from="1" weight="9.77418672674716e-001"/><Con from="2" weight="6.43233353384005e-001"/><Con from="3" weight="6.99580972881623e-001"/><Con from="4" weight="9.15491309212245e-001"/><Con from="5" weight="8.69837305048982e-001"/><Con from="6" weight="8.71770801762992e-001"/><Con from="7" weight="7.79236024441492e-001"/><Con from="8" weight="7.71831949001131e-001"/><Con from="9" weight="4.86202689397630e-001"/><Con from="10" weight="7.40807844493343e-001"/><Con from="11" weight="6.72153793816835e-001"/><Con from="12" weight="3.49823531111043e-001"/><Con from="13" weight="5.28324750519100e-001"/><Con from="14" weight="7.61823831346613e-001"/><Con from="15" weight="7.05683288202533e-001"/><Con from="16" weight="8.72417648816444e-001"/><Con from="17" weight="7.25564595336449e-001"/><Con from="18" weight="2.93346366954438e-001"/><Con from="19" weight="7.20813278980681e-001"/><Con from="20" weight="7.40109855991035e-001"/></Neuron><Neuron id="27" width="4.47235247439160e-001"><Con from="0" weight="6.53377031603021e-001"/><Con from="1" weight="9.86880953008036e-001"/><Con from="2" weight="6.77302637574961e-001"/><Con from="3" weight="6.32608525210523e-001"/><Con from="4" weight="9.20925790841470e-001"/><Con from="5" weight="8.69452640173353e-001"/><Con from="6" weight="9.61115939562934e-001"/><Con from="7" weight="8.78206962991863e-001"/><Con from="8" weight="8.71293784323289e-001"/><Con from="9" weight="5.52012928132195e-001"/><Con from="10" weight="9.10896208058095e-001"/><Con from="11" weight="5.86108651997977e-001"/><Con from="12" weight="5.13954236892909e-001"/><Con from="13" weight="4.70081694519833e-001"/><Con from="14" weight="6.23995707607243e-001"/><Con from="15" weight="5.07992999798981e-001"/><Con from="16" weight="8.78355669749988e-001"/><Con from="17" weight="6.21602171285288e-001"/><Con from="18" weight="1.84721573315227e-001"/><Con from="19" weight="8.02910494196588e-001"/><Con from="20" weight="8.19539748788630e-001"/></Neuron><Neuron id="28" width="5.12280692595937e-001"><Con from="0" weight="5.91992688031468e-001"/><Con from="1" weight="3.35028334473858e-001"/><Con from="2" weight="6.72810603160714e-001"/><Con from="3" weight="6.34584666859940e-001"/><Con from="4" weight="9.99999999999999e-001"/><Con from="5" weight="9.83714488570438e-001"/><Con from="6" weight="9.53735569788190e-001"/><Con from="7" weight="9.85285361785498e-001"/><Con from="8" weight="9.69851420385544e-001"/><Con from="9" weight="6.89419435648606e-001"/><Con from="10" weight="8.56113200880914e-001"/><Con from="11" weight="7.65265927434141e-001"/><Con from="12" weight="4.39730373390811e-001"/><Con from="13" weight="4.04408279243316e-001"/><Con from="14" weight="1.96887855337653e-001"/><Con from="15" weight="5.59273295573240e-001"/><Con from="16" weight="6.77848978420540e-001"/><Con from="17" weight="2.30157445470490e-001"/><Con from="18" weight="5.41816235895578e-001"/><Con from="19" weight="8.14213202061579e-001"/><Con from="20" weight="7.44570537124083e-001"/></Neuron><Neuron id="29" width="5.12280692595937e-001"><Con from="0" weight="5.60490064465995e-001"/><Con from="1" weight="5.20137091014552e-001"/><Con from="2" weight="5.79301211242958e-001"/><Con from="3" weight="4.18493056545001e-001"/><Con from="4" weight="9.79092012371194e-001"/><Con from="5" weight="1.00773106328579e+000"/><Con from="6" weight="9.74003322560506e-001"/><Con from="7" weight="9.89022754594370e-001"/><Con from="8" weight="9.72154426475461e-001"/><Con from="9" weight="7.34123277466514e-001"/><Con from="10" weight="9.31578327194186e-001"/><Con from="11" weight="5.18166501838416e-001"/><Con from="12" weight="4.61685567742765e-001"/><Con from="13" weight="3.83795224110471e-001"/><Con from="14" weight="3.94878507153804e-001"/><Con from="15" weight="5.00865131825294e-001"/><Con from="16" weight="8.45755968742632e-001"/><Con from="17" weight="3.62409104199944e-001"/><Con from="18" weight="4.43864909858663e-001"/><Con from="19" weight="8.34694290218559e-001"/><Con from="20" weight="6.96375352542827e-001"/></Neuron><Neuron id="30" width="4.64225891282587e-001"><Con from="0" weight="8.25189663860890e-001"/><Con from="1" weight="9.98551432464637e-001"/><Con from="2" weight="9.42637985089588e-001"/><Con from="3" weight="9.06295895260325e-001"/><Con from="4" weight="7.68653706788561e-001"/><Con from="5" weight="8.63132014764870e-001"/><Con from="6" weight="7.37152196302635e-001"/><Con from="7" weight="7.47336035741771e-001"/><Con from="8" weight="7.55621727128002e-001"/><Con from="9" weight="4.17775447267950e-001"/><Con from="10" weight="4.88727414356828e-001"/><Con from="11" weight="9.49760439346910e-001"/><Con from="12" weight="6.81529966984709e-001"/><Con from="13" weight="5.81721365520502e-002"/><Con from="14" weight="8.89853651779714e-001"/><Con from="15" weight="2.86580622529138e-001"/><Con from="16" weight="1.07434656853194e-001"/><Con from="17" weight="9.95881357226311e-001"/><Con from="18" weight="7.71829579821081e-001"/><Con from="19" weight="8.54575364176104e-001"/><Con from="20" weight="9.32268499597192e-001"/></Neuron><Neuron id="31" width="7.60235196508742e-001"><Con from="0" weight="6.46724311158323e-001"/><Con from="1" weight="9.79649974948481e-001"/><Con from="2" weight="6.49422517817756e-001"/><Con from="3" weight="6.07107354937007e-001"/><Con from="4" weight="7.74083261956267e-001"/><Con from="5" weight="6.98818413608199e-001"/><Con from="6" weight="7.50302168143561e-001"/><Con from="7" weight="6.45854054752081e-001"/><Con from="8" weight="2.25642971106009e-001"/><Con from="9" weight="4.34511679193922e-001"/><Con from="10" weight="5.99819501960829e-001"/><Con from="11" weight="5.40429788362586e-001"/><Con from="12" weight="4.75222754317414e-001"/><Con from="13" weight="4.33425581581283e-001"/><Con from="14" weight="7.85105500698119e-001"/><Con from="15" weight="5.63469159305813e-001"/><Con from="16" weight="9.16607003712376e-001"/><Con from="17" weight="8.93082644155955e-001"/><Con from="18" weight="1.48226451450911e-001"/><Con from="19" weight="4.97467541594351e-001"/><Con from="20" weight="7.39389420344031e-001"/></Neuron><Neuron id="32" width="3.02822775087454e-001"><Con from="0" weight="7.70394898072990e-001"/><Con from="1" weight="9.79585902211140e-001"/><Con from="2" weight="7.92070528244107e-001"/><Con from="3" weight="8.03884438084209e-001"/><Con from="4" weight="9.29668901015156e-001"/><Con from="5" weight="9.04771737296549e-001"/><Con from="6" weight="9.29371908493804e-001"/><Con from="7" weight="8.85770396669527e-001"/><Con from="8" weight="9.47409392930826e-001"/><Con from="9" weight="5.50410626114878e-001"/><Con from="10" weight="8.02627296517466e-001"/><Con from="11" weight="7.93353613896536e-001"/><Con from="12" weight="6.64303967091932e-001"/><Con from="13" weight="4.23774138955952e-001"/><Con from="14" weight="5.16213457444769e-001"/><Con from="15" weight="4.55003764184670e-001"/><Con from="16" weight="5.99391108834592e-001"/><Con from="17" weight="8.72091376008706e-001"/><Con from="18" weight="5.31655167839550e-001"/><Con from="19" weight="8.33713945380230e-001"/><Con from="20" weight="8.61012602383847e-001"/></Neuron></NeuralLayer><NeuralLayer numberOfNeurons="2" normalizationMethod="softmax"><Neuron id="33" bias="1.29822112192869e+000"><Con from="21" weight="-3.43229195698787e+000"/><Con from="22" weight="3.93425319876632e+001"/><Con from="23" weight="-1.39177040465765e+000"/><Con from="24" weight="1.97808141686979e-003"/><Con from="25" weight="8.67871174046534e-008"/><Con from="26" weight="-1.05734805524900e+000"/><Con from="27" weight="2.20274558039954e+000"/><Con from="28" weight="4.54237394894061e-002"/><Con from="29" weight="2.27320523763914e-002"/><Con from="30" weight="1.38492088236341e+000"/><Con from="31" weight="1.05881735457179e-007"/><Con from="32" weight="3.84809498295384e+001"/></Neuron><Neuron id="34" bias="-1.20222521969142e+000"><Con from="21" weight="3.43586716470836e+000"/><Con from="22" weight="4.14142201925445e+001"/><Con from="23" weight="1.42237049664155e+000"/><Con from="24" weight="-1.67912066343130e-003"/><Con from="25" weight="1.01136009532366e-007"/><Con from="26" weight="1.07496317287301e+000"/><Con from="27" weight="-2.22167242641306e+000"/><Con from="28" weight="-4.31563026229434e-002"/><Con from="29" weight="-2.23738288232617e-002"/><Con from="30" weight="-1.37656513228446e+000"/><Con from="31" weight="2.53718576253065e-007"/><Con from="32" weight="3.65376669213497e+001"/></Neuron></NeuralLayer><NeuralOutputs numberOfOutputs="2"><NeuralOutput outputNeuron="33"><DerivedField optype="categorical"><NormDiscrete field="TripleNeg" value="0"/></DerivedField></NeuralOutput><NeuralOutput outputNeuron="34"><DerivedField optype="categorical"><NormDiscrete field="TripleNeg" value="1"/></DerivedField></NeuralOutput></NeuralOutputs></NeuralNetwork></PMML>
