<?xml version="1.0" encoding="UTF-8"?>
<PMML version="3.0"><Header copyright="Copyright 1984-2017 TIBCO Software Inc. All rights reserved."><Application name="STATISTICA Automated Neural Networks (SANN)" version="2.0"/></Header><DataDictionary numberOfFields="22"><DataField name="CerbB2Binary" optype="categorical"><Value value="0"/><Value value="1"/></DataField><DataField name="wavelet-LLLglrlmShortRunEmphasis" optype="continuous"/><DataField name="wavelet-HLLglcmIdmn" optype="continuous"/><DataField name="wavelet-LHLglcmIdmn" optype="continuous"/><DataField name="wavelet-LLLglcmImc2" optype="continuous"/><DataField name="originalglcmIdmn" optype="continuous"/><DataField name="originalglrlmShortRunEmphasis" optype="continuous"/><DataField name="wavelet-HHHglcmIdmn" optype="continuous"/><DataField name="wavelet-LHHglcmIdmn" optype="continuous"/><DataField name="wavelet-LLHglcmImc2" optype="continuous"/><DataField name="wavelet-HHLglcmIdn" optype="continuous"/><DataField name="wavelet-LHLglrlmShortRunEmphasis" optype="continuous"/><DataField name="wavelet-LLLglrlmLongRunEmphasis" optype="continuous"/><DataField name="wavelet-LLHglszmSmallAreaEmphasis" optype="continuous"/><DataField name="originalglszmSmallAreaEmphasis" optype="continuous"/><DataField name="originalglrlmRunEntropy" optype="continuous"/><DataField name="wavelet-LLLglcmMCC" optype="continuous"/><DataField name="wavelet-HLHglszmZoneEntropy" optype="continuous"/><DataField name="wavelet-HHLglcmInverseVariance" optype="continuous"/><DataField name="wavelet-LHLglszmSmallAreaEmphasis" optype="continuous"/><DataField name="originalshapeSphericity" optype="continuous"/><DataField name="wavelet-HLLglszmSmallAreaEmphasis" optype="continuous"/></DataDictionary><NeuralNetwork modelName="Over2cc in Ove_MLP 21-16-2" functionName="classification"><MiningSchema><MiningField name="CerbB2Binary" usageType="predicted"/><MiningField name="wavelet-LLLglrlmShortRunEmphasis" lowValue="0.969822" highValue="0.994369"/><MiningField name="wavelet-HLLglcmIdmn" lowValue="0.958521" highValue="0.998206"/><MiningField name="wavelet-LHLglcmIdmn" lowValue="0.955785" highValue="0.996754"/><MiningField name="wavelet-LLLglcmImc2" lowValue="0.907571" highValue="0.999958"/><MiningField name="originalglcmIdmn" lowValue="0.944650" highValue="0.994506"/><MiningField name="originalglrlmShortRunEmphasis" lowValue="0.916925" highValue="0.987686"/><MiningField name="wavelet-HHHglcmIdmn" lowValue="0.928002" highValue="0.998278"/><MiningField name="wavelet-LHHglcmIdmn" lowValue="0.939531" highValue="0.994626"/><MiningField name="wavelet-LLHglcmImc2" lowValue="0.814424" highValue="0.999977"/><MiningField name="wavelet-HHLglcmIdn" lowValue="0.849221" highValue="0.975173"/><MiningField name="wavelet-LHLglrlmShortRunEmphasis" lowValue="0.810757" highValue="0.981017"/><MiningField name="wavelet-LLLglrlmLongRunEmphasis" lowValue="1.022526" highValue="1.166210"/><MiningField name="wavelet-LLHglszmSmallAreaEmphasis" lowValue="0.758014" highValue="0.951627"/><MiningField name="originalglszmSmallAreaEmphasis" lowValue="0.588291" highValue="0.865563"/><MiningField name="originalglrlmRunEntropy" lowValue="4.106356" highValue="6.460317"/><MiningField name="wavelet-LLLglcmMCC" lowValue="0.635162" highValue="0.996855"/><MiningField name="wavelet-HLHglszmZoneEntropy" lowValue="4.149154" highValue="6.712946"/><MiningField name="wavelet-HHLglcmInverseVariance" lowValue="0.244263" highValue="0.500008"/><MiningField name="wavelet-LHLglszmSmallAreaEmphasis" lowValue="0.366051" highValue="0.821654"/><MiningField name="originalshapeSphericity" lowValue="0.360547" highValue="0.808260"/><MiningField name="wavelet-HLLglszmSmallAreaEmphasis" lowValue="0.399397" highValue="0.887391"/></MiningSchema><NeuralInputs numberOfInputs="21"><NeuralInput id="0"><DerivedField><NormContinuous field="wavelet-LLLglrlmShortRunEmphasis" shift="-3.95093717817774e+001" scale="4.07387906125052e+001"><LinearNorm orig="9.69821911445000e-001" norm="0.000000"/><LinearNorm orig="9.94368540958666e-001" norm="1.000000"/></NormContinuous></DerivedField></NeuralInput><NeuralInput id="1"><DerivedField><NormContinuous field="wavelet-HLLglcmIdmn" shift="-2.41535456222184e+001" scale="2.51987558731959e+001"><LinearNorm orig="9.58521354933667e-001" norm="0.000000"/><LinearNorm orig="9.98205853844333e-001" norm="1.000000"/></NormContinuous></DerivedField></NeuralInput><NeuralInput id="2"><DerivedField><NormContinuous field="wavelet-LHLglcmIdmn" shift="-2.33295728809932e+001" scale="2.44087971601344e+001"><LinearNorm orig="9.55785437846000e-001" norm="0.000000"/><LinearNorm orig="9.96754273526000e-001" norm="1.000000"/></NormContinuous></DerivedField></NeuralInput><NeuralInput id="3"><DerivedField><NormContinuous field="wavelet-LLLglcmImc2" shift="-9.82353119773708e+000" scale="1.08239822392250e+001"><LinearNorm orig="9.07570890327000e-001" norm="0.000000"/><LinearNorm orig="9.99958329432000e-001" norm="1.000000"/></NormContinuous></DerivedField></NeuralInput><NeuralInput id="4"><DerivedField><NormContinuous field="originalglcmIdmn" shift="-1.89477013190021e+001" scale="2.00579063315425e+001"><LinearNorm orig="9.44650005130667e-001" norm="0.000000"/><LinearNorm orig="9.94505657234667e-001" norm="1.000000"/></NormContinuous></DerivedField></NeuralInput><NeuralInput id="5"><DerivedField><NormContinuous field="originalglrlmShortRunEmphasis" shift="-1.29579871950634e+001" scale="1.41320063366846e+001"><LinearNorm orig="9.16924807868667e-001" norm="0.000000"/><LinearNorm orig="9.87686168724000e-001" norm="1.000000"/></NormContinuous></DerivedField></NeuralInput><NeuralInput id="6"><DerivedField><NormContinuous field="wavelet-HHHglcmIdmn" shift="-1.32050134455570e+001" scale="1.42295148497464e+001"><LinearNorm orig="9.28001663092000e-001" norm="0.000000"/><LinearNorm orig="9.98278127930000e-001" norm="1.000000"/></NormContinuous></DerivedField></NeuralInput><NeuralInput id="7"><DerivedField><NormContinuous field="wavelet-LHHglcmIdmn" shift="-1.70530983495058e+001" scale="1.81506486420655e+001"><LinearNorm orig="9.39531070530667e-001" norm="0.000000"/><LinearNorm orig="9.94625520306000e-001" norm="1.000000"/></NormContinuous></DerivedField></NeuralInput><NeuralInput id="8"><DerivedField><NormContinuous field="wavelet-LLHglcmImc2" shift="-4.38917559495539e+000" scale="5.38929740151092e+000"><LinearNorm orig="8.14424454238667e-001" norm="0.000000"/><LinearNorm orig="9.99977398435000e-001" norm="1.000000"/></NormContinuous></DerivedField></NeuralInput><NeuralInput id="9"><DerivedField><NormContinuous field="wavelet-HHLglcmIdn" shift="-6.74240741039175e+000" scale="7.93952484002588e+000"><LinearNorm orig="8.49220519646333e-001" norm="0.000000"/><LinearNorm orig="9.75172641486000e-001" norm="1.000000"/></NormContinuous></DerivedField></NeuralInput><NeuralInput id="10"><DerivedField><NormContinuous field="wavelet-LHLglrlmShortRunEmphasis" shift="-4.76185856962449e+000" scale="5.87335033572463e+000"><LinearNorm orig="8.10756773806000e-001" norm="0.000000"/><LinearNorm orig="9.81017347897333e-001" norm="1.000000"/></NormContinuous></DerivedField></NeuralInput><NeuralInput id="11"><DerivedField><NormContinuous field="wavelet-LLLglrlmLongRunEmphasis" shift="-7.11645894920942e+000" scale="6.95968619813874e+000"><LinearNorm orig="1.02252583616667e+000" norm="0.000000"/><LinearNorm orig="1.16621047532000e+000" norm="1.000000"/></NormContinuous></DerivedField></NeuralInput><NeuralInput id="12"><DerivedField><NormContinuous field="wavelet-LLHglszmSmallAreaEmphasis" shift="-3.91508717104089e+000" scale="5.16492850414585e+000"><LinearNorm orig="7.58013817209333e-001" norm="0.000000"/><LinearNorm orig="9.51627339487000e-001" norm="1.000000"/></NormContinuous></DerivedField></NeuralInput><NeuralInput id="13"><DerivedField><NormContinuous field="originalglszmSmallAreaEmphasis" shift="-2.12170267279947e+000" scale="3.60655552783966e+000"><LinearNorm orig="5.88290588186333e-001" norm="0.000000"/><LinearNorm orig="8.65563457626667e-001" norm="1.000000"/></NormContinuous></DerivedField></NeuralInput><NeuralInput id="14"><DerivedField><NormContinuous field="originalglrlmRunEntropy" shift="-1.74444518728142e+000" scale="4.24815878300432e-001"><LinearNorm orig="4.10635589766667e+000" norm="0.000000"/><LinearNorm orig="6.46031687483333e+000" norm="1.000000"/></NormContinuous></DerivedField></NeuralInput><NeuralInput id="15"><DerivedField><NormContinuous field="wavelet-LLLglcmMCC" shift="-1.75608460574563e+000" scale="2.76478111329563e+000"><LinearNorm orig="6.35162254726333e-001" norm="0.000000"/><LinearNorm orig="9.96854540307667e-001" norm="1.000000"/></NormContinuous></DerivedField></NeuralInput><NeuralInput id="16"><DerivedField><NormContinuous field="wavelet-HLHglszmZoneEntropy" shift="-1.61836668261835e+000" scale="3.90047349521413e-001"><LinearNorm orig="4.14915441575000e+000" norm="0.000000"/><LinearNorm orig="6.71294571244000e+000" norm="1.000000"/></NormContinuous></DerivedField></NeuralInput><NeuralInput id="17"><DerivedField><NormContinuous field="wavelet-HHLglcmInverseVariance" shift="-9.55104477387141e-001" scale="3.91014903829889e+000"><LinearNorm orig="2.44262934234000e-001" norm="0.000000"/><LinearNorm orig="5.00007661661333e-001" norm="1.000000"/></NormContinuous></DerivedField></NeuralInput><NeuralInput id="18"><DerivedField><NormContinuous field="wavelet-LHLglszmSmallAreaEmphasis" shift="-8.03444067840359e-001" scale="2.19489369691711e+000"><LinearNorm orig="3.66051471635667e-001" norm="0.000000"/><LinearNorm orig="8.21654401930000e-001" norm="1.000000"/></NormContinuous></DerivedField></NeuralInput><NeuralInput id="19"><DerivedField><NormContinuous field="originalshapeSphericity" shift="-8.05308160483450e-001" scale="2.23357320128161e+000"><LinearNorm orig="3.60547019467000e-001" norm="0.000000"/><LinearNorm orig="8.08260127515667e-001" norm="1.000000"/></NormContinuous></DerivedField></NeuralInput><NeuralInput id="20"><DerivedField><NormContinuous field="wavelet-HLLglszmSmallAreaEmphasis" shift="-8.18445970570180e-001" scale="2.04920399401520e+000"><LinearNorm orig="3.99397020970333e-001" norm="0.000000"/><LinearNorm orig="8.87391385084667e-001" norm="1.000000"/></NormContinuous></DerivedField></NeuralInput></NeuralInputs><NeuralLayer numberOfNeurons="16" activationFunction="tanh"><Neuron id="21" bias="-1.48983650306972e-001"><Con from="0" weight="-8.59557876478262e-001"/><Con from="1" weight="-7.99001373964403e-002"/><Con from="2" weight="1.71230796488407e+000"/><Con from="3" weight="-1.05494314942285e+000"/><Con from="4" weight="-4.42615658462438e-001"/><Con from="5" weight="1.33206324785608e+000"/><Con from="6" weight="-4.43621209392640e-001"/><Con from="7" weight="-9.97043469404996e-001"/><Con from="8" weight="3.57556839976398e-002"/><Con from="9" weight="6.36029366604378e-001"/><Con from="10" weight="6.18545279523114e-002"/><Con from="11" weight="4.92161575514948e-001"/><Con from="12" weight="1.50166933758782e+000"/><Con from="13" weight="-1.02512348586010e-001"/><Con from="14" weight="-1.41461355753025e-001"/><Con from="15" weight="1.55871551957696e+000"/><Con from="16" weight="-1.08488179695917e+000"/><Con from="17" weight="-3.30626301925755e-002"/><Con from="18" weight="2.54150587512034e+000"/><Con from="19" weight="-2.00011468078608e+000"/><Con from="20" weight="7.05617633991864e-001"/></Neuron><Neuron id="22" bias="4.27340535275099e-002"><Con from="0" weight="-2.11845606364644e-001"/><Con from="1" weight="4.56358448800111e-002"/><Con from="2" weight="4.00637631217344e-001"/><Con from="3" weight="-2.30714344989143e-001"/><Con from="4" weight="-8.88115705230898e-002"/><Con from="5" weight="2.73820711694598e-001"/><Con from="6" weight="-9.09202765312463e-002"/><Con from="7" weight="-1.49158846580848e-001"/><Con from="8" weight="9.50298775770714e-002"/><Con from="9" weight="1.98562323777413e-001"/><Con from="10" weight="-7.68762522802991e-003"/><Con from="11" weight="1.86972375343303e-001"/><Con from="12" weight="2.97967012972031e-001"/><Con from="13" weight="-5.45111337630023e-002"/><Con from="14" weight="-3.43855191565822e-002"/><Con from="15" weight="2.99339383630594e-001"/><Con from="16" weight="-2.50154380031277e-001"/><Con from="17" weight="7.39931609263099e-002"/><Con from="18" weight="5.62079791860249e-001"/><Con from="19" weight="-3.14968768621690e-001"/><Con from="20" weight="1.48699166285545e-001"/></Neuron><Neuron id="23" bias="1.27166804291870e-002"><Con from="0" weight="1.72926866279236e-001"/><Con from="1" weight="-3.12103137967226e-002"/><Con from="2" weight="-1.24259318339371e-001"/><Con from="3" weight="1.18585832725798e-001"/><Con from="4" weight="6.17492622174413e-002"/><Con from="5" weight="-2.62470879301838e-002"/><Con from="6" weight="7.91052355855679e-002"/><Con from="7" weight="8.81079400740322e-002"/><Con from="8" weight="1.58514301542505e-002"/><Con from="9" weight="-4.89987879443630e-002"/><Con from="10" weight="1.14364511529625e-001"/><Con from="11" weight="-1.63089787716035e-001"/><Con from="12" weight="1.06401517586635e-002"/><Con from="13" weight="1.01397400024492e-001"/><Con from="14" weight="5.08546630244234e-002"/><Con from="15" weight="-2.53984547449461e-002"/><Con from="16" weight="1.02443160556100e-001"/><Con from="17" weight="-3.47941452050477e-002"/><Con from="18" weight="-9.42488982945737e-002"/><Con from="19" weight="6.32731328337921e-002"/><Con from="20" weight="4.83014447038818e-002"/></Neuron><Neuron id="24" bias="-1.98434967213335e-002"><Con from="0" weight="9.71004152847937e-002"/><Con from="1" weight="1.78686995199651e-002"/><Con from="2" weight="-2.88926184538679e-001"/><Con from="3" weight="1.88876414539663e-001"/><Con from="4" weight="6.53339144302601e-002"/><Con from="5" weight="-2.94727408817300e-001"/><Con from="6" weight="6.13331204173288e-002"/><Con from="7" weight="1.93230872549789e-001"/><Con from="8" weight="3.29153545304591e-002"/><Con from="9" weight="-1.36705592773200e-001"/><Con from="10" weight="-9.82007329262905e-002"/><Con from="11" weight="-3.41846568965347e-002"/><Con from="12" weight="-3.18594465010637e-001"/><Con from="13" weight="-3.23763964194019e-002"/><Con from="14" weight="-3.01291860125633e-002"/><Con from="15" weight="-3.58473265328924e-001"/><Con from="16" weight="1.62924774894910e-001"/><Con from="17" weight="5.18333416434869e-002"/><Con from="18" weight="-4.97002272472661e-001"/><Con from="19" weight="4.04543213155063e-001"/><Con from="20" weight="-1.79716289353680e-001"/></Neuron><Neuron id="25" bias="-5.73168976581804e-002"><Con from="0" weight="2.55833790429393e-001"/><Con from="1" weight="-5.83270213828125e-002"/><Con from="2" weight="-5.49896451668040e-001"/><Con from="3" weight="2.52643508427089e-001"/><Con from="4" weight="9.52100635361345e-002"/><Con from="5" weight="-4.59000394226220e-001"/><Con from="6" weight="1.45292097614456e-001"/><Con from="7" weight="2.88160826904388e-001"/><Con from="8" weight="-6.92028611723974e-002"/><Con from="9" weight="-2.46366390588632e-001"/><Con from="10" weight="-2.89529842118175e-002"/><Con from="11" weight="-1.81774100313450e-001"/><Con from="12" weight="-5.01133044714832e-001"/><Con from="13" weight="-2.83810189890418e-003"/><Con from="14" weight="1.22474601523138e-002"/><Con from="15" weight="-5.14013591335945e-001"/><Con from="16" weight="3.08190108425771e-001"/><Con from="17" weight="-3.20226390174658e-002"/><Con from="18" weight="-7.94550694033507e-001"/><Con from="19" weight="5.78129898159180e-001"/><Con from="20" weight="-2.30613633335318e-001"/></Neuron><Neuron id="26" bias="4.38949718181607e-002"><Con from="0" weight="1.00412725378693e-001"/><Con from="1" weight="2.68154711054787e-002"/><Con from="2" weight="-5.00771607538082e-001"/><Con from="3" weight="2.90841736832531e-001"/><Con from="4" weight="1.22791935885200e-001"/><Con from="5" weight="-4.30948945509362e-001"/><Con from="6" weight="9.33125615285938e-002"/><Con from="7" weight="2.28901858857812e-001"/><Con from="8" weight="8.90832081080978e-002"/><Con from="9" weight="-1.98192182904251e-001"/><Con from="10" weight="-1.14964518611851e-001"/><Con from="11" weight="-8.22315727639848e-002"/><Con from="12" weight="-4.67788486529027e-001"/><Con from="13" weight="-5.31438749351741e-002"/><Con from="14" weight="-2.33526589806986e-002"/><Con from="15" weight="-4.97309985422777e-001"/><Con from="16" weight="2.61911777993597e-001"/><Con from="17" weight="1.23597458972578e-001"/><Con from="18" weight="-7.41874004863682e-001"/><Con from="19" weight="5.54429521585068e-001"/><Con from="20" weight="-2.65003793841826e-001"/></Neuron><Neuron id="27" bias="-9.03514262134224e-003"><Con from="0" weight="-2.53484333475376e-001"/><Con from="1" weight="3.14262788041483e-002"/><Con from="2" weight="5.68823889858967e-001"/><Con from="3" weight="-3.21149826262136e-001"/><Con from="4" weight="-1.30934684830068e-001"/><Con from="5" weight="4.74912814366941e-001"/><Con from="6" weight="-1.33014777639620e-001"/><Con from="7" weight="-2.88450649642585e-001"/><Con from="8" weight="1.77636487048168e-002"/><Con from="9" weight="2.17332685678795e-001"/><Con from="10" weight="3.78038890633236e-002"/><Con from="11" weight="1.66516700976801e-001"/><Con from="12" weight="5.16503164004556e-001"/><Con from="13" weight="4.05257599099025e-002"/><Con from="14" weight="-3.24044763488295e-002"/><Con from="15" weight="5.15267354155931e-001"/><Con from="16" weight="-3.33327343328395e-001"/><Con from="17" weight="-3.04648285137662e-002"/><Con from="18" weight="7.94926323967860e-001"/><Con from="19" weight="-6.18915133499660e-001"/><Con from="20" weight="2.36061814326698e-001"/></Neuron><Neuron id="28" bias="-8.28227238079254e-002"><Con from="0" weight="-3.27127078925682e-001"/><Con from="1" weight="-4.18849459827615e-002"/><Con from="2" weight="5.78861707096710e-001"/><Con from="3" weight="-4.40561083061165e-001"/><Con from="4" weight="-1.80296464496039e-001"/><Con from="5" weight="4.36970748910422e-001"/><Con from="6" weight="-1.65827245780237e-001"/><Con from="7" weight="-3.83305032806927e-001"/><Con from="8" weight="-1.06304919850955e-002"/><Con from="9" weight="2.17768027214342e-001"/><Con from="10" weight="3.41405567714627e-002"/><Con from="11" weight="1.12301017501932e-001"/><Con from="12" weight="4.92751905106769e-001"/><Con from="13" weight="-2.37490931056315e-002"/><Con from="14" weight="-5.90635528041478e-002"/><Con from="15" weight="5.31210292736739e-001"/><Con from="16" weight="-3.81261710842986e-001"/><Con from="17" weight="-8.70645859405847e-002"/><Con from="18" weight="8.40521111534151e-001"/><Con from="19" weight="-6.95266147835207e-001"/><Con from="20" weight="2.67870042688660e-001"/></Neuron><Neuron id="29" bias="-2.26467535813100e-002"><Con from="0" weight="1.15878740732432e-001"/><Con from="1" weight="-2.66730732479798e-002"/><Con from="2" weight="-2.47836264240253e-001"/><Con from="3" weight="1.24923239783348e-001"/><Con from="4" weight="8.15892195396889e-002"/><Con from="5" weight="-2.14301943058988e-001"/><Con from="6" weight="8.08174847783812e-002"/><Con from="7" weight="1.52081041675579e-001"/><Con from="8" weight="-4.34418349967620e-002"/><Con from="9" weight="-1.48611323667386e-001"/><Con from="10" weight="-1.13399702009821e-002"/><Con from="11" weight="-3.27664516889011e-002"/><Con from="12" weight="-2.14067505837173e-001"/><Con from="13" weight="-6.43729975833583e-003"/><Con from="14" weight="-3.72461225911873e-003"/><Con from="15" weight="-2.45441110348083e-001"/><Con from="16" weight="1.49234967407031e-001"/><Con from="17" weight="-7.64208548953828e-003"/><Con from="18" weight="-3.72237831387079e-001"/><Con from="19" weight="2.88416934828975e-001"/><Con from="20" weight="-1.04218530435336e-001"/></Neuron><Neuron id="30" bias="-1.41332546978558e-002"><Con from="0" weight="-3.68169110534755e-001"/><Con from="1" weight="5.61370593338278e-002"/><Con from="2" weight="7.83292356963096e-001"/><Con from="3" weight="-4.00654190824819e-001"/><Con from="4" weight="-1.95125808152421e-001"/><Con from="5" weight="5.81120679317897e-001"/><Con from="6" weight="-1.53707534366130e-001"/><Con from="7" weight="-4.17199359853734e-001"/><Con from="8" weight="3.04933764747472e-002"/><Con from="9" weight="3.35607383929281e-001"/><Con from="10" weight="2.49793051970630e-002"/><Con from="11" weight="2.40904104969720e-001"/><Con from="12" weight="6.43241950364397e-001"/><Con from="13" weight="3.84129896426002e-003"/><Con from="14" weight="-5.50990460227100e-002"/><Con from="15" weight="7.36385718271724e-001"/><Con from="16" weight="-4.46720380961719e-001"/><Con from="17" weight="2.85447453654171e-003"/><Con from="18" weight="1.12541279195126e+000"/><Con from="19" weight="-8.51188819800795e-001"/><Con from="20" weight="3.18200495814965e-001"/></Neuron><Neuron id="31" bias="-5.82751156246098e-002"><Con from="0" weight="-3.45119848300933e-001"/><Con from="1" weight="1.00298890922201e-002"/><Con from="2" weight="6.88112047923542e-001"/><Con from="3" weight="-4.36538882706490e-001"/><Con from="4" weight="-2.25888691035807e-001"/><Con from="5" weight="5.20085690065684e-001"/><Con from="6" weight="-2.17951797682066e-001"/><Con from="7" weight="-3.84984975778222e-001"/><Con from="8" weight="8.32266128363058e-004"/><Con from="9" weight="2.47755185599022e-001"/><Con from="10" weight="6.86126041604370e-004"/><Con from="11" weight="2.39866189879587e-001"/><Con from="12" weight="5.74496756177122e-001"/><Con from="13" weight="-7.80204694413673e-002"/><Con from="14" weight="-4.31072269160874e-002"/><Con from="15" weight="6.17029991903116e-001"/><Con from="16" weight="-4.68449375525643e-001"/><Con from="17" weight="-1.68830246709885e-002"/><Con from="18" weight="9.81349802980022e-001"/><Con from="19" weight="-7.89526902414468e-001"/><Con from="20" weight="2.57967296349336e-001"/></Neuron><Neuron id="32" bias="-7.70923037295169e-002"><Con from="0" weight="-1.64344407451847e-001"/><Con from="1" weight="-7.51291858207253e-002"/><Con from="2" weight="3.52290982393228e-001"/><Con from="3" weight="-2.55808058374328e-001"/><Con from="4" weight="-1.71542940844295e-001"/><Con from="5" weight="2.85936534452480e-001"/><Con from="6" weight="-1.18387929869058e-001"/><Con from="7" weight="-2.58228078268514e-001"/><Con from="8" weight="-6.21114132086952e-002"/><Con from="9" weight="1.22647356883195e-001"/><Con from="10" weight="2.56659782554732e-002"/><Con from="11" weight="6.59933653286347e-002"/><Con from="12" weight="2.97718852374160e-001"/><Con from="13" weight="4.06278028438393e-002"/><Con from="14" weight="-1.72242803615541e-002"/><Con from="15" weight="3.18555843492162e-001"/><Con from="16" weight="-2.43484445905447e-001"/><Con from="17" weight="-1.06998914338349e-001"/><Con from="18" weight="5.14900995451825e-001"/><Con from="19" weight="-5.15616124688020e-001"/><Con from="20" weight="1.67093409166667e-001"/></Neuron><Neuron id="33" bias="-6.53244765077587e-002"><Con from="0" weight="1.36978525185124e-001"/><Con from="1" weight="-5.82291408697960e-002"/><Con from="2" weight="-3.89977707394425e-001"/><Con from="3" weight="1.20734097547804e-001"/><Con from="4" weight="5.05852784810771e-002"/><Con from="5" weight="-3.38112158012328e-001"/><Con from="6" weight="1.09448041090700e-001"/><Con from="7" weight="1.55797904597882e-001"/><Con from="8" weight="-7.52436827291902e-002"/><Con from="9" weight="-1.67380237620256e-001"/><Con from="10" weight="-5.73369214770265e-002"/><Con from="11" weight="-8.38091673752245e-002"/><Con from="12" weight="-3.17662735089092e-001"/><Con from="13" weight="-1.27709735039426e-002"/><Con from="14" weight="-3.83818152339420e-002"/><Con from="15" weight="-3.60924229011931e-001"/><Con from="16" weight="2.00905739830019e-001"/><Con from="17" weight="-6.35844146099250e-002"/><Con from="18" weight="-5.84015780775705e-001"/><Con from="19" weight="3.71751532696899e-001"/><Con from="20" weight="-1.73994280989304e-001"/></Neuron><Neuron id="34" bias="5.03967702862600e-002"><Con from="0" weight="-3.01064664079321e-001"/><Con from="1" weight="8.34735560412399e-002"/><Con from="2" weight="6.40518093037293e-001"/><Con from="3" weight="-2.82524859322053e-001"/><Con from="4" weight="-1.47136790379360e-001"/><Con from="5" weight="4.57485685269100e-001"/><Con from="6" weight="-1.02449978852309e-001"/><Con from="7" weight="-2.99615140183793e-001"/><Con from="8" weight="6.74210413689656e-002"/><Con from="9" weight="2.40108635044030e-001"/><Con from="10" weight="3.08096569635975e-002"/><Con from="11" weight="2.14140157828692e-001"/><Con from="12" weight="4.72473034067483e-001"/><Con from="13" weight="-1.26274418765398e-002"/><Con from="14" weight="-5.95910344413579e-003"/><Con from="15" weight="5.19540987044593e-001"/><Con from="16" weight="-3.48873687691337e-001"/><Con from="17" weight="4.44330126761957e-002"/><Con from="18" weight="8.32709783338919e-001"/><Con from="19" weight="-5.18547723457482e-001"/><Con from="20" weight="2.07236237491499e-001"/></Neuron><Neuron id="35" bias="-2.11501589678330e-003"><Con from="0" weight="4.29236817872411e-001"/><Con from="1" weight="-2.56028846847444e-002"/><Con from="2" weight="-9.26762358780895e-001"/><Con from="3" weight="5.64059266670755e-001"/><Con from="4" weight="2.57589844045915e-001"/><Con from="5" weight="-6.75882455786386e-001"/><Con from="6" weight="2.70119196550311e-001"/><Con from="7" weight="5.42921258398153e-001"/><Con from="8" weight="-6.68551094317792e-002"/><Con from="9" weight="-2.97753020100622e-001"/><Con from="10" weight="-5.66425263334766e-002"/><Con from="11" weight="-3.22872355830556e-001"/><Con from="12" weight="-7.76725965835253e-001"/><Con from="13" weight="4.10862609543080e-003"/><Con from="14" weight="5.76376758906888e-002"/><Con from="15" weight="-8.62536157819771e-001"/><Con from="16" weight="5.50720416928864e-001"/><Con from="17" weight="-2.26959475161663e-002"/><Con from="18" weight="-1.37315919085899e+000"/><Con from="19" weight="1.02068439793855e+000"/><Con from="20" weight="-3.98124540679701e-001"/></Neuron><Neuron id="36" bias="-3.09542406748421e-002"><Con from="0" weight="-1.27207451072105e-001"/><Con from="1" weight="-1.73440732628349e-003"/><Con from="2" weight="2.58168143849401e-001"/><Con from="3" weight="-1.62192616645162e-001"/><Con from="4" weight="-7.76712174616908e-002"/><Con from="5" weight="1.30678153240792e-001"/><Con from="6" weight="-8.91420571982513e-002"/><Con from="7" weight="-1.62402578183065e-001"/><Con from="8" weight="1.29928369728994e-002"/><Con from="9" weight="9.62135617467505e-002"/><Con from="10" weight="-2.19518707498586e-002"/><Con from="11" weight="1.10164906421214e-001"/><Con from="12" weight="1.62853904665564e-001"/><Con from="13" weight="-8.62085170927587e-002"/><Con from="14" weight="-6.10114997533277e-002"/><Con from="15" weight="1.69813646130536e-001"/><Con from="16" weight="-2.09685645359657e-001"/><Con from="17" weight="3.93219513591355e-003"/><Con from="18" weight="3.02098685070126e-001"/><Con from="19" weight="-2.45560843891762e-001"/><Con from="20" weight="7.16264609328020e-002"/></Neuron></NeuralLayer><NeuralLayer numberOfNeurons="2" normalizationMethod="softmax"><Neuron id="37" bias="5.31532244470390e-001"><Con from="21" weight="1.07900748568755e+000"/><Con from="22" weight="1.02040636402521e+000"/><Con from="23" weight="-1.22844504634758e+000"/><Con from="24" weight="6.04086381834578e-001"/><Con from="25" weight="-1.42219294262362e-001"/><Con from="26" weight="1.07523338288869e+000"/><Con from="27" weight="-3.98717723851432e-002"/><Con from="28" weight="8.85070833041723e-002"/><Con from="29" weight="1.66642689329113e-001"/><Con from="30" weight="2.34154568169972e-001"/><Con from="31" weight="4.65087490902604e-001"/><Con from="32" weight="-5.08120760402162e-001"/><Con from="33" weight="1.09103254042143e-001"/><Con from="34" weight="2.70108932679744e-001"/><Con from="35" weight="4.44684293965960e-002"/><Con from="36" weight="5.99460057030898e-001"/></Neuron><Neuron id="38" bias="-5.38131456673393e-001"><Con from="21" weight="-1.13426336214372e+000"/><Con from="22" weight="-1.01170383093588e+000"/><Con from="23" weight="1.16940569496643e+000"/><Con from="24" weight="-6.07258304655197e-001"/><Con from="25" weight="1.30087507391173e-001"/><Con from="26" weight="-1.09680511876552e+000"/><Con from="27" weight="6.05886626272944e-002"/><Con from="28" weight="-6.63985132293077e-002"/><Con from="29" weight="-1.37155707917464e-001"/><Con from="30" weight="-2.16880299660264e-001"/><Con from="31" weight="-4.13979363365639e-001"/><Con from="32" weight="5.35723456708961e-001"/><Con from="33" weight="-1.50203127129344e-001"/><Con from="34" weight="-2.48472892769480e-001"/><Con from="35" weight="-1.52626046986979e-002"/><Con from="36" weight="-5.16211762509135e-001"/></Neuron></NeuralLayer><NeuralOutputs numberOfOutputs="2"><NeuralOutput outputNeuron="37"><DerivedField optype="categorical"><NormDiscrete field="CerbB2Binary" value="0"/></DerivedField></NeuralOutput><NeuralOutput outputNeuron="38"><DerivedField optype="categorical"><NormDiscrete field="CerbB2Binary" value="1"/></DerivedField></NeuralOutput></NeuralOutputs></NeuralNetwork></PMML>
