<?xml version="1.0" encoding="UTF-8"?>
<PMML version="3.0"><Header copyright="Copyright 1984-2018 TIBCO Software Inc. All rights reserved."><Application name="STATISTICA Automated Neural Networks (SANN)" version="2.0"/></Header><DataDictionary numberOfFields="22"><DataField name="CerbB2Binary" optype="categorical"><Value value="0"/><Value value="1"/></DataField><DataField name="828" optype="continuous"/><DataField name="791" optype="continuous"/><DataField name="270" optype="continuous"/><DataField name="456" optype="continuous"/><DataField name="509" optype="continuous"/><DataField name="602" optype="continuous"/><DataField name="695" optype="continuous"/><DataField name="138" optype="continuous"/><DataField name="796" optype="continuous"/><DataField name="419" optype="continuous"/><DataField name="327" optype="continuous"/><DataField name="735" optype="continuous"/><DataField name="363" optype="continuous"/><DataField name="233" optype="continuous"/><DataField name="549" optype="continuous"/><DataField name="513" optype="continuous"/><DataField name="321" optype="continuous"/><DataField name="469" optype="continuous"/><DataField name="18" optype="continuous"/><DataField name="174" optype="continuous"/><DataField name="451" optype="continuous"/></DataDictionary><NeuralNetwork modelName="Breas_RBF 21-12-2" functionName="classification"><MiningSchema><MiningField name="CerbB2Binary" usageType="predicted"/><MiningField name="828" lowValue="0.958665" highValue="1.000000"/><MiningField name="791" lowValue="0.945927" highValue="0.999970"/><MiningField name="270" lowValue="0.892683" highValue="0.993719"/><MiningField name="456" lowValue="0.884127" highValue="0.995567"/><MiningField name="509" lowValue="0.886118" highValue="0.996879"/><MiningField name="602" lowValue="0.853205" highValue="0.998053"/><MiningField name="695" lowValue="0.876196" highValue="0.996292"/><MiningField name="138" lowValue="0.832969" highValue="1.000000"/><MiningField name="796" lowValue="0.737359" highValue="1.000000"/><MiningField name="419" lowValue="0.657871" highValue="0.999703"/><MiningField name="327" lowValue="0.263691" highValue="0.573202"/><MiningField name="735" lowValue="0.617501" highValue="0.959439"/><MiningField name="363" lowValue="0.581404" highValue="0.949625"/><MiningField name="233" lowValue="0.547888" highValue="0.999122"/><MiningField name="549" lowValue="0.587707" highValue="0.959142"/><MiningField name="513" lowValue="0.244998" highValue="0.569411"/><MiningField name="321" lowValue="0.340034" highValue="0.825926"/><MiningField name="469" lowValue="0.510890" highValue="0.978261"/><MiningField name="18" lowValue="2.097494" highValue="6.324055"/><MiningField name="174" lowValue="0.360063" highValue="0.943776"/><MiningField name="451" lowValue="2.588656" highValue="6.196453"/></MiningSchema><NeuralInputs numberOfInputs="21"><NeuralInput id="0"><DerivedField><NormContinuous field="828" shift="-2.31925904385560e+001" scale="2.41925904385560e+001"><LinearNorm orig="9.58665030000000e-001" norm="0.000000"/><LinearNorm orig="1.00000000000000e+000" norm="1.000000"/></NormContinuous></DerivedField></NeuralInput><NeuralInput id="1"><DerivedField><NormContinuous field="791" shift="-1.75033456914762e+001" scale="1.85039072850623e+001"><LinearNorm orig="9.45927010000000e-001" norm="0.000000"/><LinearNorm orig="9.99969650000000e-001" norm="1.000000"/></NormContinuous></DerivedField></NeuralInput><NeuralInput id="2"><DerivedField><NormContinuous field="270" shift="-8.83527590402729e+000" scale="9.89744073956844e+000"><LinearNorm orig="8.92682880000000e-001" norm="0.000000"/><LinearNorm orig="9.93719100000000e-001" norm="1.000000"/></NormContinuous></DerivedField></NeuralInput><NeuralInput id="3"><DerivedField><NormContinuous field="456" shift="-7.93359766498469e+000" scale="8.97337339884736e+000"><LinearNorm orig="8.84126550000000e-001" norm="0.000000"/><LinearNorm orig="9.95567360000000e-001" norm="1.000000"/></NormContinuous></DerivedField></NeuralInput><NeuralInput id="4"><DerivedField><NormContinuous field="509" shift="-8.00026399169528e+000" scale="9.02844375089946e+000"><LinearNorm orig="8.86117720000000e-001" norm="0.000000"/><LinearNorm orig="9.96878780000000e-001" norm="1.000000"/></NormContinuous></DerivedField></NeuralInput><NeuralInput id="5"><DerivedField><NormContinuous field="602" shift="-5.89037143693292e+000" scale="6.90381406040436e+000"><LinearNorm orig="8.53205400000000e-001" norm="0.000000"/><LinearNorm orig="9.98052870000000e-001" norm="1.000000"/></NormContinuous></DerivedField></NeuralInput><NeuralInput id="6"><DerivedField><NormContinuous field="695" shift="-7.29584743637985e+000" scale="8.32672676953560e+000"><LinearNorm orig="8.76196330000000e-001" norm="0.000000"/><LinearNorm orig="9.96291540000000e-001" norm="1.000000"/></NormContinuous></DerivedField></NeuralInput><NeuralInput id="7"><DerivedField><NormContinuous field="138" shift="-4.98691798550986e+000" scale="5.98691798550986e+000"><LinearNorm orig="8.32969150000000e-001" norm="0.000000"/><LinearNorm orig="1.00000000000000e+000" norm="1.000000"/></NormContinuous></DerivedField></NeuralInput><NeuralInput id="8"><DerivedField><NormContinuous field="796" shift="-2.80747299578334e+000" scale="3.80747299578334e+000"><LinearNorm orig="7.37358610000000e-001" norm="0.000000"/><LinearNorm orig="1.00000000000000e+000" norm="1.000000"/></NormContinuous></DerivedField></NeuralInput><NeuralInput id="9"><DerivedField><NormContinuous field="419" shift="-1.92454716032856e+000" scale="2.92541536510061e+000"><LinearNorm orig="6.57871420000000e-001" norm="0.000000"/><LinearNorm orig="9.99703220000000e-001" norm="1.000000"/></NormContinuous></DerivedField></NeuralInput><NeuralInput id="10"><DerivedField><NormContinuous field="327" shift="-8.51961210888533e-001" scale="3.23090742910654e+000"><LinearNorm orig="2.63691000000000e-001" norm="0.000000"/><LinearNorm orig="5.73201570000000e-001" norm="1.000000"/></NormContinuous></DerivedField></NeuralInput><NeuralInput id="11"><DerivedField><NormContinuous field="735" shift="-1.80588214048464e+000" scale="2.92450293320333e+000"><LinearNorm orig="6.17500540000000e-001" norm="0.000000"/><LinearNorm orig="9.59438990000000e-001" norm="1.000000"/></NormContinuous></DerivedField></NeuralInput><NeuralInput id="12"><DerivedField><NormContinuous field="363" shift="-1.57895356321020e+000" scale="2.71575897085119e+000"><LinearNorm orig="5.81404160000000e-001" norm="0.000000"/><LinearNorm orig="9.49625350000000e-001" norm="1.000000"/></NormContinuous></DerivedField></NeuralInput><NeuralInput id="13"><DerivedField><NormContinuous field="233" shift="-1.21419835390166e+000" scale="2.21614368482820e+000"><LinearNorm orig="5.47887920000000e-001" norm="0.000000"/><LinearNorm orig="9.99122200000000e-001" norm="1.000000"/></NormContinuous></DerivedField></NeuralInput><NeuralInput id="14"><DerivedField><NormContinuous field="549" shift="-1.58225804098058e+000" scale="2.69225805121117e+000"><LinearNorm orig="5.87706680000000e-001" norm="0.000000"/><LinearNorm orig="9.59142100000000e-001" norm="1.000000"/></NormContinuous></DerivedField></NeuralInput><NeuralInput id="15"><DerivedField><NormContinuous field="513" shift="-7.55201506915491e-001" scale="3.08248406787285e+000"><LinearNorm orig="2.44997700000000e-001" norm="0.000000"/><LinearNorm orig="5.69411380000000e-001" norm="1.000000"/></NormContinuous></DerivedField></NeuralInput><NeuralInput id="16"><DerivedField><NormContinuous field="321" shift="-6.99815275662937e-001" scale="2.05807229670454e+000"><LinearNorm orig="3.40034350000000e-001" norm="0.000000"/><LinearNorm orig="8.25925930000000e-001" norm="1.000000"/></NormContinuous></DerivedField></NeuralInput><NeuralInput id="17"><DerivedField><NormContinuous field="469" shift="-1.09311633519376e+000" scale="2.13963003058045e+000"><LinearNorm orig="5.10890350000000e-001" norm="0.000000"/><LinearNorm orig="9.78260870000000e-001" norm="1.000000"/></NormContinuous></DerivedField></NeuralInput><NeuralInput id="18"><DerivedField><NormContinuous field="18" shift="-4.96264847649668e-001" scale="2.36598963715467e-001"><LinearNorm orig="2.09749375000000e+000" norm="0.000000"/><LinearNorm orig="6.32405495000000e+000" norm="1.000000"/></NormContinuous></DerivedField></NeuralInput><NeuralInput id="19"><DerivedField><NormContinuous field="174" shift="-6.16849921836521e-001" scale="1.71317215238666e+000"><LinearNorm orig="3.60063010000000e-001" norm="0.000000"/><LinearNorm orig="9.43775510000000e-001" norm="1.000000"/></NormContinuous></DerivedField></NeuralInput><NeuralInput id="20"><DerivedField><NormContinuous field="451" shift="-7.17517064457517e-001" scale="2.77177451454670e-001"><LinearNorm orig="2.58865597000000e+000" norm="0.000000"/><LinearNorm orig="6.19645305000000e+000" norm="1.000000"/></NormContinuous></DerivedField></NeuralInput></NeuralInputs><NeuralLayer numberOfNeurons="12" activationFunction="radialBasis"><Neuron id="21" width="5.87963882816416e-001"><Con from="0" weight="5.88653142847328e-001"/><Con from="1" weight="9.67655910222003e-001"/><Con from="2" weight="3.23199145811277e-001"/><Con from="3" weight="7.20657809289077e-001"/><Con from="4" weight="8.25683141710632e-001"/><Con from="5" weight="9.42231231239316e-001"/><Con from="6" weight="8.19366900644914e-001"/><Con from="7" weight="3.90456194170119e-001"/><Con from="8" weight="6.60837806257422e-001"/><Con from="9" weight="8.50489919311194e-001"/><Con from="10" weight="5.68949099218162e-001"/><Con from="11" weight="1.72371635889442e-001"/><Con from="12" weight="3.43098152499046e-001"/><Con from="13" weight="8.32915420344394e-001"/><Con from="14" weight="6.54671301945302e-001"/><Con from="15" weight="8.33564540188317e-001"/><Con from="16" weight="8.13595205745282e-001"/><Con from="17" weight="4.97130306806685e-001"/><Con from="18" weight="6.32205720811519e-001"/><Con from="19" weight="8.42860980362764e-001"/><Con from="20" weight="6.67371483653399e-001"/></Neuron><Neuron id="22" width="4.35770954749001e-001"><Con from="0" weight="7.48197954419709e-001"/><Con from="1" weight="9.93330821736318e-001"/><Con from="2" weight="6.38954030544690e-001"/><Con from="3" weight="7.28229631496755e-001"/><Con from="4" weight="9.59484497530088e-001"/><Con from="5" weight="9.20577694591421e-001"/><Con from="6" weight="9.05840541017415e-001"/><Con from="7" weight="6.11279353484700e-001"/><Con from="8" weight="7.12398834014699e-001"/><Con from="9" weight="6.35217934668454e-001"/><Con from="10" weight="6.03060502909481e-001"/><Con from="11" weight="2.23995722037109e-001"/><Con from="12" weight="6.01850941821137e-001"/><Con from="13" weight="6.64026744599280e-001"/><Con from="14" weight="5.44093910053059e-001"/><Con from="15" weight="7.09441414431105e-001"/><Con from="16" weight="5.63515486314869e-001"/><Con from="17" weight="4.21976722023460e-001"/><Con from="18" weight="1.00000000000000e+000"/><Con from="19" weight="7.72823556117095e-001"/><Con from="20" weight="8.24009140225813e-001"/></Neuron><Neuron id="23" width="7.22362912498819e-001"><Con from="0" weight="5.53551629528219e-001"/><Con from="1" weight="8.55255775809621e-001"/><Con from="2" weight="6.78075644555982e-001"/><Con from="3" weight="6.87180486215060e-001"/><Con from="4" weight="8.61394699545126e-001"/><Con from="5" weight="8.61264956854270e-001"/><Con from="6" weight="6.25857600815221e-001"/><Con from="7" weight="2.95889172569019e-001"/><Con from="8" weight="1.95601805183867e-001"/><Con from="9" weight="7.82866134748142e-001"/><Con from="10" weight="7.94783325170446e-001"/><Con from="11" weight="1.37560283144525e-001"/><Con from="12" weight="5.07517125779752e-001"/><Con from="13" weight="8.71885066001635e-001"/><Con from="14" weight="5.17202317431117e-001"/><Con from="15" weight="6.63588477526595e-001"/><Con from="16" weight="6.84235462569654e-001"/><Con from="17" weight="3.23544304848324e-001"/><Con from="18" weight="5.05357923126725e-001"/><Con from="19" weight="7.87548836113669e-001"/><Con from="20" weight="5.82080694516223e-001"/></Neuron><Neuron id="24" width="5.87963882816416e-001"><Con from="0" weight="6.18405190568662e-001"/><Con from="1" weight="9.89862819432950e-001"/><Con from="2" weight="6.79710008945303e-001"/><Con from="3" weight="8.13952985445817e-001"/><Con from="4" weight="8.13355343475401e-001"/><Con from="5" weight="7.86905494448747e-001"/><Con from="6" weight="7.73512115928687e-001"/><Con from="7" weight="4.27307769792228e-001"/><Con from="8" weight="8.61505568486368e-001"/><Con from="9" weight="9.17477484540643e-001"/><Con from="10" weight="7.38339663165623e-001"/><Con from="11" weight="3.02085272948976e-001"/><Con from="12" weight="5.33570080526871e-001"/><Con from="13" weight="8.88238499965030e-001"/><Con from="14" weight="7.12156988151535e-001"/><Con from="15" weight="6.97890545182928e-001"/><Con from="16" weight="7.04346842149436e-001"/><Con from="17" weight="5.82828202343614e-001"/><Con from="18" weight="6.23166471598708e-001"/><Con from="19" weight="7.44810056320534e-001"/><Con from="20" weight="6.45473655630322e-001"/></Neuron><Neuron id="25" width="4.58372792448847e-001"><Con from="0" weight="5.82128643131952e-001"/><Con from="1" weight="9.30700461709495e-001"/><Con from="2" weight="6.66246718256090e-001"/><Con from="3" weight="6.40117475815189e-001"/><Con from="4" weight="9.31817373362076e-001"/><Con from="5" weight="8.53060257110462e-001"/><Con from="6" weight="8.09345435175974e-001"/><Con from="7" weight="5.99357184615896e-001"/><Con from="8" weight="7.73062958583946e-001"/><Con from="9" weight="5.73493747509740e-001"/><Con from="10" weight="6.90398554078460e-001"/><Con from="11" weight="2.94471329562382e-001"/><Con from="12" weight="5.76993681433706e-001"/><Con from="13" weight="5.55846067368818e-001"/><Con from="14" weight="5.39871668673925e-001"/><Con from="15" weight="6.96315549948448e-001"/><Con from="16" weight="6.82821258190974e-001"/><Con from="17" weight="4.14845934227944e-001"/><Con from="18" weight="7.22033910215236e-001"/><Con from="19" weight="7.38895946206394e-001"/><Con from="20" weight="6.50743109421221e-001"/></Neuron><Neuron id="26" width="4.69047646634435e-001"><Con from="0" weight="5.61492363487865e-001"/><Con from="1" weight="9.71529333133983e-001"/><Con from="2" weight="5.70885767500011e-001"/><Con from="3" weight="3.90321642493444e-001"/><Con from="4" weight="8.52990482395164e-001"/><Con from="5" weight="9.02532643476617e-001"/><Con from="6" weight="7.61911819796977e-001"/><Con from="7" weight="5.24343676632191e-001"/><Con from="8" weight="7.08356287636156e-001"/><Con from="9" weight="4.93382388648453e-001"/><Con from="10" weight="6.62396764026508e-001"/><Con from="11" weight="1.87638447796672e-001"/><Con from="12" weight="5.23295848345936e-001"/><Con from="13" weight="7.08490963940063e-001"/><Con from="14" weight="2.76696094303554e-001"/><Con from="15" weight="6.26208487878810e-001"/><Con from="16" weight="6.60691774078489e-001"/><Con from="17" weight="1.45867629819699e-001"/><Con from="18" weight="6.94391544596586e-001"/><Con from="19" weight="7.29231685118958e-001"/><Con from="20" weight="5.25688578915309e-001"/></Neuron><Neuron id="27" width="9.95097000218176e-001"><Con from="0" weight="8.52145773905242e-001"/><Con from="1" weight="9.97274189417837e-001"/><Con from="2" weight="9.62686549437420e-001"/><Con from="3" weight="6.83223408013636e-001"/><Con from="4" weight="6.61965947238132e-001"/><Con from="5" weight="4.95759780961311e-001"/><Con from="6" weight="6.98507709008545e-001"/><Con from="7" weight="2.40797373658818e-001"/><Con from="8" weight="1.00000000000000e+000"/><Con from="9" weight="9.69092079788949e-001"/><Con from="10" weight="3.37217401008308e-001"/><Con from="11" weight="6.20611253282572e-001"/><Con from="12" weight="9.17085217176122e-001"/><Con from="13" weight="9.99826387303731e-001"/><Con from="14" weight="8.33805591292290e-001"/><Con from="15" weight="7.57952932194475e-001"/><Con from="16" weight="3.67733332608892e-001"/><Con from="17" weight="6.73634272011850e-001"/><Con from="18" weight="5.70526568975270e-001"/><Con from="19" weight="8.90461331563055e-001"/><Con from="20" weight="3.58102365890268e-001"/></Neuron><Neuron id="28" width="4.35770954749001e-001"><Con from="0" weight="6.98885229625180e-001"/><Con from="1" weight="9.44169270783220e-001"/><Con from="2" weight="7.27585117495488e-001"/><Con from="3" weight="6.85013326805504e-001"/><Con from="4" weight="8.94742881658949e-001"/><Con from="5" weight="9.20697337689089e-001"/><Con from="6" weight="9.07130684063086e-001"/><Con from="7" weight="5.05563972164424e-001"/><Con from="8" weight="5.39054944843233e-001"/><Con from="9" weight="7.25792597411943e-001"/><Con from="10" weight="6.38268218109643e-001"/><Con from="11" weight="3.41779317301110e-001"/><Con from="12" weight="6.46520207052723e-001"/><Con from="13" weight="7.94823434070657e-001"/><Con from="14" weight="6.52478619298073e-001"/><Con from="15" weight="5.58941380030583e-001"/><Con from="16" weight="5.38334045632155e-001"/><Con from="17" weight="4.68953882671076e-001"/><Con from="18" weight="7.89534470718181e-001"/><Con from="19" weight="7.86696001884489e-001"/><Con from="20" weight="7.48104535857100e-001"/></Neuron><Neuron id="29" width="1.35318297556421e+000"><Con from="0" weight="1.35237064403338e-001"/><Con from="1" weight="1.12316866829602e-001"/><Con from="2" weight="5.89112498468367e-002"/><Con from="3" weight="0.00000000000000e+000"/><Con from="4" weight="9.47713754274290e-001"/><Con from="5" weight="9.53214163837311e-001"/><Con from="6" weight="7.85964902347063e-001"/><Con from="7" weight="6.08042945360094e-001"/><Con from="8" weight="5.09839100379418e-001"/><Con from="9" weight="2.35880131690498e-001"/><Con from="10" weight="6.58753657427596e-001"/><Con from="11" weight="6.99621817903193e-002"/><Con from="12" weight="2.21085402499514e-001"/><Con from="13" weight="1.73086029722742e-001"/><Con from="14" weight="1.71427512217333e-001"/><Con from="15" weight="5.05557133102402e-001"/><Con from="16" weight="8.17996249286724e-001"/><Con from="17" weight="2.53956903400754e-001"/><Con from="18" weight="4.88982998755584e-001"/><Con from="19" weight="6.21934942287513e-001"/><Con from="20" weight="5.14359438419413e-001"/></Neuron><Neuron id="30" width="1.08001266666779e+000"><Con from="0" weight="8.60169004598287e-001"/><Con from="1" weight="9.84728540278564e-001"/><Con from="2" weight="8.11772451503035e-001"/><Con from="3" weight="8.68361330108782e-001"/><Con from="4" weight="2.79727099036426e-001"/><Con from="5" weight="5.92568858814034e-001"/><Con from="6" weight="3.36592941550292e-001"/><Con from="7" weight="6.84518338977500e-001"/><Con from="8" weight="1.00000000000000e+000"/><Con from="9" weight="9.92866842698661e-001"/><Con from="10" weight="5.66500976040980e-001"/><Con from="11" weight="3.89938598598666e-001"/><Con from="12" weight="4.19281899556079e-001"/><Con from="13" weight="9.90680539607940e-001"/><Con from="14" weight="4.55663329038464e-001"/><Con from="15" weight="4.64910172715281e-001"/><Con from="16" weight="6.87591108287985e-001"/><Con from="17" weight="8.01572893386600e-001"/><Con from="18" weight="4.26568887728397e-001"/><Con from="19" weight="3.88451780628306e-001"/><Con from="20" weight="3.48049400272811e-001"/></Neuron><Neuron id="31" width="1.07969712385004e+000"><Con from="0" weight="5.91992688031468e-001"/><Con from="1" weight="2.01261818445584e-001"/><Con from="2" weight="5.83453141853486e-001"/><Con from="3" weight="8.00088495408461e-001"/><Con from="4" weight="9.47238045573053e-001"/><Con from="5" weight="9.87027733380500e-001"/><Con from="6" weight="9.69851420385544e-001"/><Con from="7" weight="6.75962494353588e-001"/><Con from="8" weight="1.96887855337653e-001"/><Con from="9" weight="3.93101753552478e-001"/><Con from="10" weight="6.38734631906109e-001"/><Con from="11" weight="3.50507671775432e-001"/><Con from="12" weight="5.53543971763276e-001"/><Con from="13" weight="2.73355938294405e-001"/><Con from="14" weight="7.56488489977612e-001"/><Con from="15" weight="4.89601239997031e-001"/><Con from="16" weight="5.87092577319409e-001"/><Con from="17" weight="5.54417167775152e-001"/><Con from="18" weight="7.48457459932202e-001"/><Con from="19" weight="7.30239664218258e-001"/><Con from="20" weight="8.79962021034731e-001"/></Neuron><Neuron id="32" width="4.69047646634435e-001"><Con from="0" weight="6.10109309381379e-001"/><Con from="1" weight="8.43581475664401e-001"/><Con from="2" weight="6.32179826204897e-001"/><Con from="3" weight="4.41072619626508e-001"/><Con from="4" weight="9.46755204401255e-001"/><Con from="5" weight="9.51109121892153e-001"/><Con from="6" weight="8.79982640440032e-001"/><Con from="7" weight="5.69548679181121e-001"/><Con from="8" weight="3.47022302920343e-001"/><Con from="9" weight="4.29272993325958e-001"/><Con from="10" weight="7.00245649122742e-001"/><Con from="11" weight="1.60331632783619e-001"/><Con from="12" weight="5.39136544531834e-001"/><Con from="13" weight="6.57489453150590e-001"/><Con from="14" weight="2.88075730634413e-001"/><Con from="15" weight="6.37198437501156e-001"/><Con from="16" weight="6.42675573838921e-001"/><Con from="17" weight="2.84657834216844e-001"/><Con from="18" weight="6.94978884962082e-001"/><Con from="19" weight="7.32635638263700e-001"/><Con from="20" weight="6.16523842854266e-001"/></Neuron></NeuralLayer><NeuralLayer numberOfNeurons="2" normalizationMethod="softmax"><Neuron id="33" bias="1.47621579054382e+000"><Con from="21" weight="5.74983405231368e-004"/><Con from="22" weight="1.22009081345547e+000"/><Con from="23" weight="7.58943120984791e-007"/><Con from="24" weight="1.32306133780395e-004"/><Con from="25" weight="1.95156852154240e+000"/><Con from="26" weight="-4.13291618127106e+000"/><Con from="27" weight="2.45312994674949e-010"/><Con from="28" weight="-2.49532604191504e+000"/><Con from="29" weight="-1.72817635406737e-013"/><Con from="30" weight="7.50738315420053e-011"/><Con from="31" weight="-7.66710462487232e-011"/><Con from="32" weight="3.16944052492133e+000"/></Neuron><Neuron id="34" bias="-1.08936159752622e+000"><Con from="21" weight="-4.50392744775916e-004"/><Con from="22" weight="-1.18023312527197e+000"/><Con from="23" weight="1.67867684047782e-007"/><Con from="24" weight="-9.44609212910300e-005"/><Con from="25" weight="-1.94178344139472e+000"/><Con from="26" weight="4.14657389363560e+000"/><Con from="27" weight="5.01144034982800e-010"/><Con from="28" weight="2.51907394228266e+000"/><Con from="29" weight="9.83157267857362e-013"/><Con from="30" weight="2.17856936657436e-010"/><Con from="31" weight="-2.92186205721401e-011"/><Con from="32" weight="-3.15593345226565e+000"/></Neuron></NeuralLayer><NeuralOutputs numberOfOutputs="2"><NeuralOutput outputNeuron="33"><DerivedField optype="categorical"><NormDiscrete field="CerbB2Binary" value="0"/></DerivedField></NeuralOutput><NeuralOutput outputNeuron="34"><DerivedField optype="categorical"><NormDiscrete field="CerbB2Binary" value="1"/></DerivedField></NeuralOutput></NeuralOutputs></NeuralNetwork></PMML>
