<?xml version="1.0" encoding="UTF-8"?>
<PMML version="3.0"><Header copyright="Copyright 1984-2018 TIBCO Software Inc. All rights reserved."><Application name="STATISTICA Automated Neural Networks (SANN)" version="2.0"/></Header><DataDictionary numberOfFields="23"><DataField name="E-cadherin" optype="categorical"><Value value="0"/><Value value="1"/></DataField><DataField name="828" optype="continuous"/><DataField name="137" optype="continuous"/><DataField name="788" optype="continuous"/><DataField name="509" optype="continuous"/><DataField name="791" optype="continuous"/><DataField name="602" optype="continuous"/><DataField name="270" optype="continuous"/><DataField name="699" optype="continuous"/><DataField name="336" optype="continuous"/><DataField name="796" optype="continuous"/><DataField name="844" optype="continuous"/><DataField name="327" optype="continuous"/><DataField name="363" optype="continuous"/><DataField name="265" optype="continuous"/><DataField name="735" optype="continuous"/><DataField name="140" optype="continuous"/><DataField name="544" optype="continuous"/><DataField name="233" optype="continuous"/><DataField name="513" optype="continuous"/><DataField name="190" optype="continuous"/><DataField name="131" optype="continuous"/><DataField name="424" optype="continuous"/></DataDictionary><NeuralNetwork modelName="BreastOve_RBF 22-10-2" functionName="classification"><MiningSchema><MiningField name="E-cadherin" usageType="predicted"/><MiningField name="828" lowValue="0.958665" highValue="0.994198"/><MiningField name="137" lowValue="0.956062" highValue="0.995105"/><MiningField name="788" lowValue="0.947681" highValue="0.997023"/><MiningField name="509" lowValue="0.949301" highValue="0.996879"/><MiningField name="791" lowValue="0.935052" highValue="0.999976"/><MiningField name="602" lowValue="0.936063" highValue="0.998053"/><MiningField name="270" lowValue="0.878545" highValue="0.983939"/><MiningField name="699" lowValue="0.375063" highValue="0.509834"/><MiningField name="336" lowValue="4.397319" highValue="6.144925"/><MiningField name="796" lowValue="0.787497" highValue="1.000000"/><MiningField name="844" lowValue="5.707190" highValue="8.282350"/><MiningField name="327" lowValue="0.318475" highValue="0.514084"/><MiningField name="363" lowValue="0.626349" highValue="0.935582"/><MiningField name="265" lowValue="3.427335" highValue="5.635996"/><MiningField name="735" lowValue="0.647394" highValue="0.905452"/><MiningField name="140" lowValue="0.546052" highValue="0.977335"/><MiningField name="544" lowValue="2.365220" highValue="4.467361"/><MiningField name="233" lowValue="0.547888" highValue="0.998557"/><MiningField name="513" lowValue="0.244998" highValue="0.512025"/><MiningField name="190" lowValue="0.366909" highValue="0.715929"/><MiningField name="131" lowValue="0.297278" highValue="0.807359"/><MiningField name="424" lowValue="0.500046" highValue="0.972194"/></MiningSchema><NeuralInputs numberOfInputs="22"><NeuralInput id="0"><DerivedField><NormContinuous field="828" shift="-2.69792806088248e+001" scale="2.81425521579991e+001"><LinearNorm orig="9.58665030000000e-001" norm="0.000000"/><LinearNorm orig="9.94198410000000e-001" norm="1.000000"/></NormContinuous></DerivedField></NeuralInput><NeuralInput id="1"><DerivedField><NormContinuous field="137" shift="-2.44877715122313e+001" scale="2.56131532762809e+001"><LinearNorm orig="9.56062350000000e-001" norm="0.000000"/><LinearNorm orig="9.95104790000000e-001" norm="1.000000"/></NormContinuous></DerivedField></NeuralInput><NeuralInput id="2"><DerivedField><NormContinuous field="788" shift="-1.92065905211174e+001" scale="2.02669275966038e+001"><LinearNorm orig="9.47681410000000e-001" norm="0.000000"/><LinearNorm orig="9.97022880000000e-001" norm="1.000000"/></NormContinuous></DerivedField></NeuralInput><NeuralInput id="3"><DerivedField><NormContinuous field="509" shift="-1.99527796811091e+001" scale="2.10183826774897e+001"><LinearNorm orig="9.49301380000000e-001" norm="0.000000"/><LinearNorm orig="9.96878780000000e-001" norm="1.000000"/></NormContinuous></DerivedField></NeuralInput><NeuralInput id="4"><DerivedField><NormContinuous field="791" shift="-1.44020847830889e+001" scale="1.54024490510089e+001"><LinearNorm orig="9.35051610000000e-001" norm="0.000000"/><LinearNorm orig="9.99976350000000e-001" norm="1.000000"/></NormContinuous></DerivedField></NeuralInput><NeuralInput id="5"><DerivedField><NormContinuous field="602" shift="-1.51003665946383e+001" scale="1.61317772620986e+001"><LinearNorm orig="9.36063420000000e-001" norm="0.000000"/><LinearNorm orig="9.98052870000000e-001" norm="1.000000"/></NormContinuous></DerivedField></NeuralInput><NeuralInput id="6"><DerivedField><NormContinuous field="270" shift="-8.33586198533798e+000" scale="9.48825657460274e+000"><LinearNorm orig="8.78545170000000e-001" norm="0.000000"/><LinearNorm orig="9.83938610000000e-001" norm="1.000000"/></NormContinuous></DerivedField></NeuralInput><NeuralInput id="7"><DerivedField><NormContinuous field="699" shift="-2.78296229681289e+000" scale="7.41998840997810e+000"><LinearNorm orig="3.75062890000000e-001" norm="0.000000"/><LinearNorm orig="5.09833990000000e-001" norm="1.000000"/></NormContinuous></DerivedField></NeuralInput><NeuralInput id="8"><DerivedField><NormContinuous field="336" shift="-2.51619692238773e+000" scale="5.72211533374358e-001"><LinearNorm orig="4.39731948000000e+000" norm="0.000000"/><LinearNorm orig="6.14492494000000e+000" norm="1.000000"/></NormContinuous></DerivedField></NeuralInput><NeuralInput id="9"><DerivedField><NormContinuous field="796" shift="-3.70581060317010e+000" scale="4.70581060317010e+000"><LinearNorm orig="7.87496760000000e-001" norm="0.000000"/><LinearNorm orig="1.00000000000000e+000" norm="1.000000"/></NormContinuous></DerivedField></NeuralInput><NeuralInput id="10"><DerivedField><NormContinuous field="844" shift="-2.21624686537440e+000" scale="3.88325384099142e-001"><LinearNorm orig="5.70719030000000e+000" norm="0.000000"/><LinearNorm orig="8.28235031000000e+000" norm="1.000000"/></NormContinuous></DerivedField></NeuralInput><NeuralInput id="11"><DerivedField><NormContinuous field="327" shift="-1.62811955531133e+000" scale="5.11223372355525e+000"><LinearNorm orig="3.18475180000000e-001" norm="0.000000"/><LinearNorm orig="5.14084390000000e-001" norm="1.000000"/></NormContinuous></DerivedField></NeuralInput><NeuralInput id="12"><DerivedField><NormContinuous field="363" shift="-2.02549265275746e+000" scale="3.23380730815875e+000"><LinearNorm orig="6.26349210000000e-001" norm="0.000000"/><LinearNorm orig="9.35582230000000e-001" norm="1.000000"/></NormContinuous></DerivedField></NeuralInput><NeuralInput id="13"><DerivedField><NormContinuous field="265" shift="-1.55177063716337e+000" scale="4.52763037599172e-001"><LinearNorm orig="3.42733507000000e+000" norm="0.000000"/><LinearNorm orig="5.63599593000000e+000" norm="1.000000"/></NormContinuous></DerivedField></NeuralInput><NeuralInput id="14"><DerivedField><NormContinuous field="735" shift="-2.50872368403819e+000" scale="3.87510895837614e+000"><LinearNorm orig="6.47394360000000e-001" norm="0.000000"/><LinearNorm orig="9.05451620000000e-001" norm="1.000000"/></NormContinuous></DerivedField></NeuralInput><NeuralInput id="15"><DerivedField><NormContinuous field="140" shift="-1.26611322100769e+000" scale="2.31866675363213e+000"><LinearNorm orig="5.46052260000000e-001" norm="0.000000"/><LinearNorm orig="9.77334590000000e-001" norm="1.000000"/></NormContinuous></DerivedField></NeuralInput><NeuralInput id="16"><DerivedField><NormContinuous field="544" shift="-1.12514839932756e+000" scale="4.75705575905368e-001"><LinearNorm orig="2.36522012000000e+000" norm="0.000000"/><LinearNorm orig="4.46736071000000e+000" norm="1.000000"/></NormContinuous></DerivedField></NeuralInput><NeuralInput id="17"><DerivedField><NormContinuous field="233" shift="-1.21572020573306e+000" scale="2.21892135481480e+000"><LinearNorm orig="5.47887920000000e-001" norm="0.000000"/><LinearNorm orig="9.98557340000000e-001" norm="1.000000"/></NormContinuous></DerivedField></NeuralInput><NeuralInput id="18"><DerivedField><NormContinuous field="513" shift="-9.17499264495726e-001" scale="3.74493011361219e+000"><LinearNorm orig="2.44997700000000e-001" norm="0.000000"/><LinearNorm orig="5.12025380000000e-001" norm="1.000000"/></NormContinuous></DerivedField></NeuralInput><NeuralInput id="19"><DerivedField><NormContinuous field="190" shift="-1.05125648957089e+000" scale="2.86516852161975e+000"><LinearNorm orig="3.66909130000000e-001" norm="0.000000"/><LinearNorm orig="7.15928740000000e-001" norm="1.000000"/></NormContinuous></DerivedField></NeuralInput><NeuralInput id="20"><DerivedField><NormContinuous field="131" shift="-5.82806475338443e-001" scale="1.96047478935287e+000"><LinearNorm orig="2.97278230000000e-001" norm="0.000000"/><LinearNorm orig="8.07358750000000e-001" norm="1.000000"/></NormContinuous></DerivedField></NeuralInput><NeuralInput id="21"><DerivedField><NormContinuous field="424" shift="-1.05908752677470e+000" scale="2.11797901341191e+000"><LinearNorm orig="5.00046280000000e-001" norm="0.000000"/><LinearNorm orig="9.72194490000000e-001" norm="1.000000"/></NormContinuous></DerivedField></NeuralInput></NeuralInputs><NeuralLayer numberOfNeurons="10" activationFunction="radialBasis"><Neuron id="22" width="7.06357241173157e-001"><Con from="0" weight="8.73757013827561e-001"/><Con from="1" weight="6.59428816436680e-001"/><Con from="2" weight="7.21352647174882e-001"/><Con from="3" weight="6.36635671558349e-001"/><Con from="4" weight="9.90350519694035e-001"/><Con from="5" weight="8.50631034797050e-001"/><Con from="6" weight="7.12661528079927e-001"/><Con from="7" weight="7.37038801345392e-001"/><Con from="8" weight="8.06259091225316e-001"/><Con from="9" weight="4.16130878757425e-001"/><Con from="10" weight="5.96186292905349e-001"/><Con from="11" weight="6.90640997936651e-001"/><Con from="12" weight="3.11744651331219e-001"/><Con from="13" weight="7.26815378980366e-001"/><Con from="14" weight="9.93704652990584e-002"/><Con from="15" weight="7.23017773531320e-001"/><Con from="16" weight="5.32517608634349e-001"/><Con from="17" weight="8.23283927274231e-001"/><Con from="18" weight="7.97605064763323e-001"/><Con from="19" weight="4.78336532437246e-001"/><Con from="20" weight="5.94129040646367e-001"/><Con from="21" weight="1.29646091425402e-001"/></Neuron><Neuron id="23" width="6.61739697883323e-001"><Con from="0" weight="9.16537070213980e-001"/><Con from="1" weight="6.04832331176024e-001"/><Con from="2" weight="5.81218800331648e-001"/><Con from="3" weight="2.72865688331017e-001"/><Con from="4" weight="9.99567961304120e-001"/><Con from="5" weight="6.81920875245709e-001"/><Con from="6" weight="8.69614180920559e-001"/><Con from="7" weight="9.84159140943422e-001"/><Con from="8" weight="5.11106780359910e-001"/><Con from="9" weight="9.81963051481004e-001"/><Con from="10" weight="4.59073849939135e-001"/><Con from="11" weight="6.16914408069027e-001"/><Con from="12" weight="7.28536590303325e-001"/><Con from="13" weight="7.29958808614918e-001"/><Con from="14" weight="5.89790304678892e-001"/><Con from="15" weight="9.38206580362335e-001"/><Con from="16" weight="6.06731465091971e-001"/><Con from="17" weight="9.73033315639655e-001"/><Con from="18" weight="4.13054931234095e-001"/><Con from="19" weight="7.76926259243714e-001"/><Con from="20" weight="5.47868050322722e-001"/><Con from="21" weight="8.73016695329630e-001"/></Neuron><Neuron id="24" width="7.59975639025105e-001"><Con from="0" weight="8.70357393526874e-001"/><Con from="1" weight="8.83201972007900e-001"/><Con from="2" weight="8.31119137715191e-001"/><Con from="3" weight="9.05679166999459e-001"/><Con from="4" weight="9.94345452904394e-001"/><Con from="5" weight="8.14418098563547e-001"/><Con from="6" weight="7.46680343672244e-001"/><Con from="7" weight="8.38033302391982e-001"/><Con from="8" weight="9.29068246330610e-001"/><Con from="9" weight="6.44542031453262e-001"/><Con from="10" weight="1.00000000000000e+000"/><Con from="11" weight="6.74147296029671e-001"/><Con from="12" weight="5.71314214762706e-001"/><Con from="13" weight="8.82098032922990e-001"/><Con from="14" weight="1.80963441989580e-001"/><Con from="15" weight="5.58131792693663e-001"/><Con from="16" weight="5.75484749095682e-001"/><Con from="17" weight="6.64859022384967e-001"/><Con from="18" weight="8.61905027973130e-001"/><Con from="19" weight="6.43698816808603e-001"/><Con from="20" weight="5.94835850622172e-001"/><Con from="21" weight="3.54703325042787e-001"/></Neuron><Neuron id="25" width="6.42858276455799e-001"><Con from="0" weight="8.35955374917894e-001"/><Con from="1" weight="8.78018125916313e-001"/><Con from="2" weight="8.51128675331321e-001"/><Con from="3" weight="8.38184095810195e-001"/><Con from="4" weight="9.78865067461188e-001"/><Con from="5" weight="8.12758945272140e-001"/><Con from="6" weight="9.11949358517949e-001"/><Con from="7" weight="3.91957845561845e-001"/><Con from="8" weight="9.44003573895906e-001"/><Con from="9" weight="7.88964300026673e-001"/><Con from="10" weight="7.29370044077378e-001"/><Con from="11" weight="4.87616355078577e-001"/><Con from="12" weight="8.31943529187148e-001"/><Con from="13" weight="9.99647655276510e-001"/><Con from="14" weight="8.21030689080400e-001"/><Con from="15" weight="6.76513341040427e-001"/><Con from="16" weight="8.07270331048600e-001"/><Con from="17" weight="8.82896558634930e-001"/><Con from="18" weight="3.84769024694369e-001"/><Con from="19" weight="8.77895141765817e-001"/><Con from="20" weight="4.83372233074104e-001"/><Con from="21" weight="5.68279947519022e-001"/></Neuron><Neuron id="26" width="4.77542537044335e-001"><Con from="0" weight="9.30458627915499e-001"/><Con from="1" weight="3.70022467858057e-001"/><Con from="2" weight="5.23574591515008e-001"/><Con from="3" weight="4.47663806765398e-001"/><Con from="4" weight="9.98414009821218e-001"/><Con from="5" weight="6.09410472265846e-001"/><Con from="6" weight="8.41719940064582e-001"/><Con from="7" weight="7.04676373495504e-001"/><Con from="8" weight="4.74327042901319e-001"/><Con from="9" weight="9.25417984215205e-001"/><Con from="10" weight="2.11110768996448e-001"/><Con from="11" weight="8.79608173868705e-001"/><Con from="12" weight="7.96880811758072e-001"/><Con from="13" weight="5.61575220742581e-001"/><Con from="14" weight="4.24332878679716e-001"/><Con from="15" weight="8.18968655636784e-001"/><Con from="16" weight="3.26556617224160e-001"/><Con from="17" weight="9.55940076874974e-001"/><Con from="18" weight="1.04205945990318e+000"/><Con from="19" weight="5.18371675448265e-001"/><Con from="20" weight="3.33871503267759e-001"/><Con from="21" weight="7.73291462865018e-001"/></Neuron><Neuron id="27" width="7.06357241173157e-001"><Con from="0" weight="8.68421467363927e-001"/><Con from="1" weight="7.30261479559168e-001"/><Con from="2" weight="6.52522918348399e-001"/><Con from="3" weight="6.54400618781189e-001"/><Con from="4" weight="9.93599666321344e-001"/><Con from="5" weight="7.39270956590195e-001"/><Con from="6" weight="8.22242731615933e-001"/><Con from="7" weight="8.70101824500950e-001"/><Con from="8" weight="7.93171989746473e-001"/><Con from="9" weight="4.74339120664701e-001"/><Con from="10" weight="5.54126292913348e-001"/><Con from="11" weight="7.85772203670778e-001"/><Con from="12" weight="6.19200724424578e-001"/><Con from="13" weight="7.56495517378797e-001"/><Con from="14" weight="4.70069317174026e-001"/><Con from="15" weight="7.39886352404004e-001"/><Con from="16" weight="6.50498846987204e-001"/><Con from="17" weight="8.96878847470947e-001"/><Con from="18" weight="6.08438084021851e-001"/><Con from="19" weight="6.97290418724610e-001"/><Con from="20" weight="5.21251664345072e-001"/><Con from="21" weight="4.31065427527513e-001"/></Neuron><Neuron id="28" width="7.59975639025105e-001"><Con from="0" weight="6.93772447203163e-001"/><Con from="1" weight="9.64566763757595e-001"/><Con from="2" weight="9.08148054770155e-001"/><Con from="3" weight="8.41576672958173e-001"/><Con from="4" weight="7.87844048355066e-001"/><Con from="5" weight="8.49924140317425e-001"/><Con from="6" weight="7.42927074019029e-001"/><Con from="7" weight="8.88269517723014e-001"/><Con from="8" weight="8.31279120631724e-001"/><Con from="9" weight="4.85682947704703e-001"/><Con from="10" weight="6.72045579024039e-001"/><Con from="11" weight="7.70399614619373e-001"/><Con from="12" weight="4.67977449497469e-001"/><Con from="13" weight="6.68119717574023e-001"/><Con from="14" weight="3.66698809403774e-001"/><Con from="15" weight="3.50113671478264e-001"/><Con from="16" weight="6.63645165616634e-001"/><Con from="17" weight="4.37989735358570e-001"/><Con from="18" weight="6.51105720575485e-001"/><Con from="19" weight="7.08999732135395e-001"/><Con from="20" weight="3.56640379052311e-001"/><Con from="21" weight="1.73747074038468e-001"/></Neuron><Neuron id="29" width="6.42858276455799e-001"><Con from="0" weight="9.03285023828300e-001"/><Con from="1" weight="7.80440720405796e-001"/><Con from="2" weight="8.17337424280225e-001"/><Con from="3" weight="7.75599549365879e-001"/><Con from="4" weight="9.89881053046959e-001"/><Con from="5" weight="7.73888460052477e-001"/><Con from="6" weight="9.04019453203160e-001"/><Con from="7" weight="7.87486412146224e-001"/><Con from="8" weight="8.01184730791582e-001"/><Con from="9" weight="7.42901896460497e-001"/><Con from="10" weight="6.91452796364293e-001"/><Con from="11" weight="6.96870765952176e-001"/><Con from="12" weight="7.22992842096875e-001"/><Con from="13" weight="8.09400058821163e-001"/><Con from="14" weight="6.74809265199515e-001"/><Con from="15" weight="6.49302511419839e-001"/><Con from="16" weight="8.58751412054700e-001"/><Con from="17" weight="8.07203892378587e-001"/><Con from="18" weight="3.69868921454135e-001"/><Con from="19" weight="8.37089440332593e-001"/><Con from="20" weight="3.87088787472221e-001"/><Con from="21" weight="8.48545057493705e-001"/></Neuron><Neuron id="30" width="6.29382831770933e-001"><Con from="0" weight="7.90268474319078e-001"/><Con from="1" weight="5.33174924518040e-001"/><Con from="2" weight="7.27370708655418e-001"/><Con from="3" weight="5.29981671970308e-001"/><Con from="4" weight="9.92066814591787e-001"/><Con from="5" weight="7.06282117360294e-001"/><Con from="6" weight="7.20912610879767e-001"/><Con from="7" weight="8.50957957603670e-001"/><Con from="8" weight="5.99068728018279e-001"/><Con from="9" weight="9.55920625022000e-001"/><Con from="10" weight="1.84016988521036e-001"/><Con from="11" weight="7.75504946827402e-001"/><Con from="12" weight="6.98480776729471e-001"/><Con from="13" weight="6.13593532870411e-001"/><Con from="14" weight="5.43101558158062e-001"/><Con from="15" weight="8.91153620877535e-001"/><Con from="16" weight="5.42976461912093e-001"/><Con from="17" weight="9.51880893094544e-001"/><Con from="18" weight="7.36812603097926e-001"/><Con from="19" weight="7.89947017590215e-001"/><Con from="20" weight="3.39655746900509e-001"/><Con from="21" weight="7.83946104550518e-001"/></Neuron><Neuron id="31" width="4.77542537044335e-001"><Con from="0" weight="9.69583811053155e-001"/><Con from="1" weight="4.82710865406982e-001"/><Con from="2" weight="4.75589397721635e-001"/><Con from="3" weight="5.33855780265423e-001"/><Con from="4" weight="9.96146307247438e-001"/><Con from="5" weight="4.45790533711786e-001"/><Con from="6" weight="8.32298765463960e-001"/><Con from="7" weight="8.32535016780304e-001"/><Con from="8" weight="3.92231150387914e-001"/><Con from="9" weight="8.28874091519734e-001"/><Con from="10" weight="1.92778331471527e-001"/><Con from="11" weight="1.00000000000000e+000"/><Con from="12" weight="7.05576235034667e-001"/><Con from="13" weight="5.81202656889569e-001"/><Con from="14" weight="4.54811734418943e-001"/><Con from="15" weight="7.94957702069547e-001"/><Con from="16" weight="4.47921149745746e-001"/><Con from="17" weight="9.56972008440244e-001"/><Con from="18" weight="7.47072213637178e-001"/><Con from="19" weight="5.41466853395430e-001"/><Con from="20" weight="4.13778240345269e-001"/><Con from="21" weight="6.67990820085922e-001"/></Neuron></NeuralLayer><NeuralLayer numberOfNeurons="2" normalizationMethod="softmax"><Neuron id="32" bias="-4.27033517185327e-001"><Con from="22" weight="1.87550709604613e-007"/><Con from="23" weight="1.52900388220830e-006"/><Con from="24" weight="3.75771143948073e-008"/><Con from="25" weight="3.46810096024125e-006"/><Con from="26" weight="2.37441990863191e-003"/><Con from="27" weight="3.61344865970394e-007"/><Con from="28" weight="1.50954248814575e-007"/><Con from="29" weight="2.66711229308257e-006"/><Con from="30" weight="1.02564913577856e-006"/><Con from="31" weight="1.89656619283891e-003"/></Neuron><Neuron id="33" bias="7.26163849646382e-001"><Con from="22" weight="1.50209555228632e-007"/><Con from="23" weight="1.37254416079017e-006"/><Con from="24" weight="1.16781565924268e-008"/><Con from="25" weight="-4.53569742198017e-007"/><Con from="26" weight="1.36853803216213e-003"/><Con from="27" weight="3.33332250833689e-007"/><Con from="28" weight="1.77431684445636e-008"/><Con from="29" weight="2.21594113591405e-006"/><Con from="30" weight="8.57719879023227e-006"/><Con from="31" weight="-1.36188042353484e-003"/></Neuron></NeuralLayer><NeuralOutputs numberOfOutputs="2"><NeuralOutput outputNeuron="32"><DerivedField optype="categorical"><NormDiscrete field="E-cadherin" value="0"/></DerivedField></NeuralOutput><NeuralOutput outputNeuron="33"><DerivedField optype="categorical"><NormDiscrete field="E-cadherin" value="1"/></DerivedField></NeuralOutput></NeuralOutputs></NeuralNetwork></PMML>
