<?xml version="1.0" encoding="UTF-8"?>
<PMML version="3.0"><Header copyright="Copyright 1984-2017 TIBCO Software Inc. All rights reserved."><Application name="STATISTICA Automated Neural Networks (SANN)" version="2.0"/></Header><DataDictionary numberOfFields="12"><DataField name="ILCA" optype="categorical"><Value value="0"/><Value value="1"/></DataField><DataField name="wavelet-HLLglcmIdmn" optype="continuous"/><DataField name="wavelet-LHLglcmIdmn" optype="continuous"/><DataField name="wavelet-HLHglcmIdmn" optype="continuous"/><DataField name="wavelet-LLLglcmIdmn" optype="continuous"/><DataField name="wavelet-LHHglrlmShortRunEmphasis" optype="continuous"/><DataField name="originalglcmImc2" optype="continuous"/><DataField name="wavelet-LLLglcmMCC" optype="continuous"/><DataField name="wavelet-LLHglcmMCC" optype="continuous"/><DataField name="wavelet-HLLglrlmRunEntropy" optype="continuous"/><DataField name="wavelet-LHLglszmSmallAreaEmphasis" optype="continuous"/><DataField name="wavelet-HLLglszmSmallAreaEmphasis" optype="continuous"/></DataDictionary><NeuralNetwork modelName="Over2cc in Ove_MLP 11-9-2" functionName="classification"><MiningSchema><MiningField name="ILCA" usageType="predicted"/><MiningField name="wavelet-HLLglcmIdmn" lowValue="0.952722" highValue="0.998206"/><MiningField name="wavelet-LHLglcmIdmn" lowValue="0.957705" highValue="0.996754"/><MiningField name="wavelet-HLHglcmIdmn" lowValue="0.938441" highValue="0.997103"/><MiningField name="wavelet-LLLglcmIdmn" lowValue="0.934927" highValue="0.995519"/><MiningField name="wavelet-LHHglrlmShortRunEmphasis" lowValue="0.879321" highValue="0.984045"/><MiningField name="originalglcmImc2" lowValue="0.718192" highValue="0.999524"/><MiningField name="wavelet-LLLglcmMCC" lowValue="0.635162" highValue="0.999316"/><MiningField name="wavelet-LLHglcmMCC" lowValue="0.617261" highValue="0.999731"/><MiningField name="wavelet-HLLglrlmRunEntropy" lowValue="3.211735" highValue="5.218720"/><MiningField name="wavelet-LHLglszmSmallAreaEmphasis" lowValue="0.433984" highValue="0.821654"/><MiningField name="wavelet-HLLglszmSmallAreaEmphasis" lowValue="0.464379" highValue="0.887391"/></MiningSchema><NeuralInputs numberOfInputs="11"><NeuralInput id="0"><DerivedField><NormContinuous field="wavelet-HLLglcmIdmn" shift="-2.09462828700856e+001" scale="2.19857284803181e+001"><LinearNorm orig="9.52721802638333e-001" norm="0.000000"/><LinearNorm orig="9.98205853844333e-001" norm="1.000000"/></NormContinuous></DerivedField></NeuralInput><NeuralInput id="1"><DerivedField><NormContinuous field="wavelet-LHLglcmIdmn" shift="-2.45256192639272e+001" scale="2.56087382235451e+001"><LinearNorm orig="9.57705102447334e-001" norm="0.000000"/><LinearNorm orig="9.96754273526000e-001" norm="1.000000"/></NormContinuous></DerivedField></NeuralInput><NeuralInput id="2"><DerivedField><NormContinuous field="wavelet-HLHglcmIdmn" shift="-1.59975838460759e+001" scale="1.70469738512845e+001"><LinearNorm orig="9.38441273251000e-001" norm="0.000000"/><LinearNorm orig="9.97102711270667e-001" norm="1.000000"/></NormContinuous></DerivedField></NeuralInput><NeuralInput id="3"><DerivedField><NormContinuous field="wavelet-LLLglcmIdmn" shift="-1.54300549406489e+001" scale="1.65040165819957e+001"><LinearNorm orig="9.34927256282667e-001" norm="0.000000"/><LinearNorm orig="9.95518567193667e-001" norm="1.000000"/></NormContinuous></DerivedField></NeuralInput><NeuralInput id="4"><DerivedField><NormContinuous field="wavelet-LHHglrlmShortRunEmphasis" shift="-8.39659603520299e+000" scale="9.54895035227432e+000"><LinearNorm orig="8.79321362604333e-001" norm="0.000000"/><LinearNorm orig="9.84044914734000e-001" norm="1.000000"/></NormContinuous></DerivedField></NeuralInput><NeuralInput id="5"><DerivedField><NormContinuous field="originalglcmImc2" shift="-2.55282274426968e+000" scale="3.55451338564430e+000"><LinearNorm orig="7.18191906262000e-001" norm="0.000000"/><LinearNorm orig="9.99524367700667e-001" norm="1.000000"/></NormContinuous></DerivedField></NeuralInput><NeuralInput id="6"><DerivedField><NormContinuous field="wavelet-LLLglcmMCC" shift="-1.74421361483674e+000" scale="2.74609141500112e+000"><LinearNorm orig="6.35162254726333e-001" norm="0.000000"/><LinearNorm orig="9.99316191677333e-001" norm="1.000000"/></NormContinuous></DerivedField></NeuralInput><NeuralInput id="7"><DerivedField><NormContinuous field="wavelet-LLHglcmMCC" shift="-1.61387992288008e+000" scale="2.61458218474307e+000"><LinearNorm orig="6.17261118161667e-001" norm="0.000000"/><LinearNorm orig="9.99731405703334e-001" norm="1.000000"/></NormContinuous></DerivedField></NeuralInput><NeuralInput id="8"><DerivedField><NormContinuous field="wavelet-HLLglrlmRunEntropy" shift="-1.60027756221266e+000" scale="4.98259602190113e-001"><LinearNorm orig="3.21173451586000e+000" norm="0.000000"/><LinearNorm orig="5.21872042361667e+000" norm="1.000000"/></NormContinuous></DerivedField></NeuralInput><NeuralInput id="9"><DerivedField><NormContinuous field="wavelet-LHLglszmSmallAreaEmphasis" shift="-1.11946846882573e+000" scale="2.57951331344086e+000"><LinearNorm orig="4.33984373328333e-001" norm="0.000000"/><LinearNorm orig="8.21654401930000e-001" norm="1.000000"/></NormContinuous></DerivedField></NeuralInput><NeuralInput id="10"><DerivedField><NormContinuous field="wavelet-HLLglszmSmallAreaEmphasis" shift="-1.09779265560020e+000" scale="2.36399934781883e+000"><LinearNorm orig="4.64379424052333e-001" norm="0.000000"/><LinearNorm orig="8.87391385084667e-001" norm="1.000000"/></NormContinuous></DerivedField></NeuralInput></NeuralInputs><NeuralLayer numberOfNeurons="9" activationFunction="tanh"><Neuron id="11" bias="-9.57471840926336e-001"><Con from="0" weight="-6.08870714271073e-002"/><Con from="1" weight="9.32716431846114e+000"/><Con from="2" weight="-1.97888873493093e+000"/><Con from="3" weight="6.30931791742507e+000"/><Con from="4" weight="-2.33560615118194e+000"/><Con from="5" weight="-1.15938901602403e+000"/><Con from="6" weight="1.67071253899717e-001"/><Con from="7" weight="-5.62931727567628e+000"/><Con from="8" weight="2.35216172652226e+000"/><Con from="9" weight="-2.50851407316405e+000"/><Con from="10" weight="9.28469145585525e-001"/></Neuron><Neuron id="12" bias="3.79822495360403e-001"><Con from="0" weight="-8.81016938892715e-001"/><Con from="1" weight="-1.19070281533713e+000"/><Con from="2" weight="-1.25966238606403e+000"/><Con from="3" weight="-4.27251111723971e+000"/><Con from="4" weight="1.54756590111520e+000"/><Con from="5" weight="1.28627319488074e+000"/><Con from="6" weight="-2.42999288950399e+000"/><Con from="7" weight="-3.61815875398203e-001"/><Con from="8" weight="-5.00538876525581e+000"/><Con from="9" weight="2.10086929760189e+000"/><Con from="10" weight="9.55338745423004e+000"/></Neuron><Neuron id="13" bias="5.89509725857869e-001"><Con from="0" weight="1.76573091123159e-001"/><Con from="1" weight="-4.91496196403007e+000"/><Con from="2" weight="7.89665461695778e-001"/><Con from="3" weight="-4.72758597642810e+000"/><Con from="4" weight="2.38923284762325e+000"/><Con from="5" weight="7.92562721239494e-001"/><Con from="6" weight="-9.93872525585073e-001"/><Con from="7" weight="3.22550352140150e+000"/><Con from="8" weight="-1.44066525616305e+000"/><Con from="9" weight="1.97289131320817e+000"/><Con from="10" weight="-9.49086899688062e-001"/></Neuron><Neuron id="14" bias="-2.54571912065935e-001"><Con from="0" weight="4.73067828580531e-001"/><Con from="1" weight="-4.86140875361493e+000"/><Con from="2" weight="2.37276505245483e+000"/><Con from="3" weight="-6.20135115024969e+000"/><Con from="4" weight="2.00401180093377e+000"/><Con from="5" weight="7.85615234480392e-001"/><Con from="6" weight="-6.30989874740231e-001"/><Con from="7" weight="4.15049585820030e+000"/><Con from="8" weight="3.93137581802329e-002"/><Con from="9" weight="1.75072300734406e+000"/><Con from="10" weight="-3.13783497770783e+000"/></Neuron><Neuron id="15" bias="6.51735980433842e-001"><Con from="0" weight="-3.98369599638455e+000"/><Con from="1" weight="-3.68060620673183e-001"/><Con from="2" weight="-6.65175454976436e+000"/><Con from="3" weight="2.76046784959842e-001"/><Con from="4" weight="-1.33854699464561e+000"/><Con from="5" weight="8.12376694216768e-002"/><Con from="6" weight="3.26704688273569e+000"/><Con from="7" weight="3.65450832164025e+000"/><Con from="8" weight="4.81899100656364e+000"/><Con from="9" weight="-2.89500323274115e+000"/><Con from="10" weight="-4.44982096250022e+000"/></Neuron><Neuron id="16" bias="3.06767215839470e+000"><Con from="0" weight="2.82925839307715e+000"/><Con from="1" weight="-4.03693717313023e+000"/><Con from="2" weight="1.09260105786943e+000"/><Con from="3" weight="-1.33131191493075e+000"/><Con from="4" weight="2.14871850208454e-001"/><Con from="5" weight="3.50853065445814e+000"/><Con from="6" weight="-1.54110671607214e+000"/><Con from="7" weight="1.65978276520670e+000"/><Con from="8" weight="-8.29440352618783e+000"/><Con from="9" weight="-2.00654686832984e-001"/><Con from="10" weight="5.47436969471425e+000"/></Neuron><Neuron id="17" bias="-2.32817097486961e-001"><Con from="0" weight="-1.95639378290617e+000"/><Con from="1" weight="-2.45237244752250e+000"/><Con from="2" weight="-1.43339888868915e+000"/><Con from="3" weight="-3.08783043740641e+000"/><Con from="4" weight="2.59550251791635e+000"/><Con from="5" weight="3.50753354245543e+000"/><Con from="6" weight="2.18474344003022e-001"/><Con from="7" weight="-2.80694264695703e+000"/><Con from="8" weight="-2.87647501058248e+000"/><Con from="9" weight="1.23717703356827e-001"/><Con from="10" weight="6.30703815638683e+000"/></Neuron><Neuron id="18" bias="3.20376592441557e+000"><Con from="0" weight="2.55550481333348e+000"/><Con from="1" weight="6.60323125521979e+000"/><Con from="2" weight="2.19177420113328e-001"/><Con from="3" weight="6.70844093987088e+000"/><Con from="4" weight="-3.42508127780847e+000"/><Con from="5" weight="-2.07156530804041e+000"/><Con from="6" weight="1.82323539873816e+000"/><Con from="7" weight="2.02194526114566e+000"/><Con from="8" weight="4.40165393149271e+000"/><Con from="9" weight="-2.54681579701580e+000"/><Con from="10" weight="-5.54617699918899e+000"/></Neuron><Neuron id="19" bias="1.85376987558580e+000"><Con from="0" weight="3.15047195974641e+000"/><Con from="1" weight="-3.59835594055431e+000"/><Con from="2" weight="1.35510378729310e-001"/><Con from="3" weight="-6.29794856609761e-001"/><Con from="4" weight="-1.04907355759579e+000"/><Con from="5" weight="2.23038892796848e+000"/><Con from="6" weight="-2.18401526588731e+000"/><Con from="7" weight="4.89525383171509e-002"/><Con from="8" weight="-6.45809602251656e+000"/><Con from="9" weight="-1.04054510521414e+000"/><Con from="10" weight="1.34925442383599e+000"/></Neuron></NeuralLayer><NeuralLayer numberOfNeurons="2" normalizationMethod="softmax"><Neuron id="20" bias="7.75025862873919e-001"><Con from="11" weight="-1.71132060219792e+000"/><Con from="12" weight="-2.73611843078710e+000"/><Con from="13" weight="9.62810819112789e-001"/><Con from="14" weight="6.08090347428657e-001"/><Con from="15" weight="2.31868700475384e+000"/><Con from="16" weight="-1.80439916795663e+000"/><Con from="17" weight="-2.25407307357405e+000"/><Con from="18" weight="2.08033113784450e+000"/><Con from="19" weight="-2.38063696292800e+000"/></Neuron><Neuron id="21" bias="-7.85653885320034e-001"><Con from="11" weight="1.76626213028016e+000"/><Con from="12" weight="2.71700753189420e+000"/><Con from="13" weight="-8.77358948909854e-001"/><Con from="14" weight="-5.81540638599167e-001"/><Con from="15" weight="-2.27837946163259e+000"/><Con from="16" weight="1.77854043678658e+000"/><Con from="17" weight="2.29567587397397e+000"/><Con from="18" weight="-2.11380278732989e+000"/><Con from="19" weight="2.37445042343437e+000"/></Neuron></NeuralLayer><NeuralOutputs numberOfOutputs="2"><NeuralOutput outputNeuron="20"><DerivedField optype="categorical"><NormDiscrete field="ILCA" value="0"/></DerivedField></NeuralOutput><NeuralOutput outputNeuron="21"><DerivedField optype="categorical"><NormDiscrete field="ILCA" value="1"/></DerivedField></NeuralOutput></NeuralOutputs></NeuralNetwork></PMML>
