<?xml version="1.0" encoding="UTF-8"?>
<PMML version="3.0"><Header copyright="Copyright 1984-2017 TIBCO Software Inc. All rights reserved."><Application name="STATISTICA Automated Neural Networks (SANN)" version="2.0"/></Header><DataDictionary numberOfFields="22"><DataField name="LuminalA" optype="categorical"><Value value="0"/><Value value="1"/></DataField><DataField name="wavelet-LLLglrlmShortRunEmphasis" optype="continuous"/><DataField name="wavelet-LLLglcmImc2" optype="continuous"/><DataField name="originalglcmIdmn" optype="continuous"/><DataField name="wavelet-HHLglcmIdmn" optype="continuous"/><DataField name="wavelet-HHLglcmIdn" optype="continuous"/><DataField name="wavelet-HHHglcmIdn" optype="continuous"/><DataField name="wavelet-HLHglrlmShortRunEmphasis" optype="continuous"/><DataField name="wavelet-LHLgldmDependenceEntropy" optype="continuous"/><DataField name="wavelet-LHHgldmDependenceEntropy" optype="continuous"/><DataField name="wavelet-LLLglszmZoneEntropy" optype="continuous"/><DataField name="wavelet-LLHglrlmLongRunEmphasis" optype="continuous"/><DataField name="wavelet-LHLglszmZoneEntropy" optype="continuous"/><DataField name="originalglszmSmallAreaEmphasis" optype="continuous"/><DataField name="wavelet-LHHglszmZoneEntropy" optype="continuous"/><DataField name="wavelet-LLLglcmDifferenceEntropy" optype="continuous"/><DataField name="wavelet-HLHglszmZoneEntropy" optype="continuous"/><DataField name="originalglrlmLongRunEmphasis" optype="continuous"/><DataField name="originalglcmDifferenceEntropy" optype="continuous"/><DataField name="wavelet-LHLglszmSmallAreaEmphasis" optype="continuous"/><DataField name="wavelet-LHHglcmJointEntropy" optype="continuous"/><DataField name="wavelet-HLLglszmSmallAreaEmphasis" optype="continuous"/></DataDictionary><NeuralNetwork modelName="Over2cc in Ove_RBF 21-18-2" functionName="classification"><MiningSchema><MiningField name="LuminalA" usageType="predicted"/><MiningField name="wavelet-LLLglrlmShortRunEmphasis" lowValue="0.951459" highValue="0.994226"/><MiningField name="wavelet-LLLglcmImc2" lowValue="0.907571" highValue="0.999976"/><MiningField name="originalglcmIdmn" lowValue="0.943359" highValue="0.994506"/><MiningField name="wavelet-HHLglcmIdmn" lowValue="0.916094" highValue="0.997911"/><MiningField name="wavelet-HHLglcmIdn" lowValue="0.860157" highValue="0.976060"/><MiningField name="wavelet-HHHglcmIdn" lowValue="0.866181" highValue="0.978344"/><MiningField name="wavelet-HLHglrlmShortRunEmphasis" lowValue="0.857151" highValue="0.991579"/><MiningField name="wavelet-LHLgldmDependenceEntropy" lowValue="5.367215" highValue="6.777851"/><MiningField name="wavelet-LHHgldmDependenceEntropy" lowValue="5.225244" highValue="6.668111"/><MiningField name="wavelet-LLLglszmZoneEntropy" lowValue="5.978767" highValue="8.161937"/><MiningField name="wavelet-LLHglrlmLongRunEmphasis" lowValue="1.015709" highValue="1.912738"/><MiningField name="wavelet-LHLglszmZoneEntropy" lowValue="4.568795" highValue="6.338101"/><MiningField name="originalglszmSmallAreaEmphasis" lowValue="0.596739" highValue="0.865563"/><MiningField name="wavelet-LHHglszmZoneEntropy" lowValue="4.231798" highValue="6.426798"/><MiningField name="wavelet-LLLglcmDifferenceEntropy" lowValue="3.909528" highValue="6.079405"/><MiningField name="wavelet-HLHglszmZoneEntropy" lowValue="4.486640" highValue="6.712946"/><MiningField name="originalglrlmLongRunEmphasis" lowValue="1.049255" highValue="2.128159"/><MiningField name="originalglcmDifferenceEntropy" lowValue="3.003488" highValue="4.875751"/><MiningField name="wavelet-LHLglszmSmallAreaEmphasis" lowValue="0.433984" highValue="0.821654"/><MiningField name="wavelet-LHHglcmJointEntropy" lowValue="5.030366" highValue="8.544449"/><MiningField name="wavelet-HLLglszmSmallAreaEmphasis" lowValue="0.464379" highValue="0.887391"/></MiningSchema><NeuralInputs numberOfInputs="21"><NeuralInput id="0"><DerivedField><NormContinuous field="wavelet-LLLglrlmShortRunEmphasis" shift="-2.22476140096222e+001" scale="2.33826341662425e+001"><LinearNorm orig="9.51458841268667e-001" norm="0.000000"/><LinearNorm orig="9.94225622500000e-001" norm="1.000000"/></NormContinuous></DerivedField></NeuralInput><NeuralInput id="1"><DerivedField><NormContinuous field="wavelet-LLLglcmImc2" shift="-9.82165223969855e+000" scale="1.08219119237725e+001"><LinearNorm orig="9.07570890327000e-001" norm="0.000000"/><LinearNorm orig="9.99976003863667e-001" norm="1.000000"/></NormContinuous></DerivedField></NeuralInput><NeuralInput id="2"><DerivedField><NormContinuous field="originalglcmIdmn" shift="-1.84443810202244e+001" scale="1.95518053404459e+001"><LinearNorm orig="9.43359485176000e-001" norm="0.000000"/><LinearNorm orig="9.94505657234667e-001" norm="1.000000"/></NormContinuous></DerivedField></NeuralInput><NeuralInput id="3"><DerivedField><NormContinuous field="wavelet-HHLglcmIdmn" shift="-1.11969287444794e+001" scale="1.22224610084141e+001"><LinearNorm orig="9.16094454036000e-001" norm="0.000000"/><LinearNorm orig="9.97911037399333e-001" norm="1.000000"/></NormContinuous></DerivedField></NeuralInput><NeuralInput id="4"><DerivedField><NormContinuous field="wavelet-HHLglcmIdn" shift="-7.42137522082823e+000" scale="8.62792672480411e+000"><LinearNorm orig="8.60157423392667e-001" norm="0.000000"/><LinearNorm orig="9.76060123067333e-001" norm="1.000000"/></NormContinuous></DerivedField></NeuralInput><NeuralInput id="5"><DerivedField><NormContinuous field="wavelet-HHHglcmIdn" shift="-7.72253168314774e+000" scale="8.91560964032528e+000"><LinearNorm orig="8.66181001041000e-001" norm="0.000000"/><LinearNorm orig="9.78343830095000e-001" norm="1.000000"/></NormContinuous></DerivedField></NeuralInput><NeuralInput id="6"><DerivedField><NormContinuous field="wavelet-HLHglrlmShortRunEmphasis" shift="-6.37625898174556e+000" scale="7.43890085335395e+000"><LinearNorm orig="8.57150687641000e-001" norm="0.000000"/><LinearNorm orig="9.91579149548667e-001" norm="1.000000"/></NormContinuous></DerivedField></NeuralInput><NeuralInput id="7"><DerivedField><NormContinuous field="wavelet-LHLgldmDependenceEntropy" shift="-3.80482038071166e+000" scale="7.08900290535531e-001"><LinearNorm orig="5.36721515213000e+000" norm="0.000000"/><LinearNorm orig="6.77785077092000e+000" norm="1.000000"/></NormContinuous></DerivedField></NeuralInput><NeuralInput id="8"><DerivedField><NormContinuous field="wavelet-LHHgldmDependenceEntropy" shift="-3.62143306654776e+000" scale="6.93064811870149e-001"><LinearNorm orig="5.22524445697333e+000" norm="0.000000"/><LinearNorm orig="6.66811095787333e+000" norm="1.000000"/></NormContinuous></DerivedField></NeuralInput><NeuralInput id="9"><DerivedField><NormContinuous field="wavelet-LLLglszmZoneEntropy" shift="-2.73857082613642e+000" scale="4.58049445720998e-001"><LinearNorm orig="5.97876681594000e+000" norm="0.000000"/><LinearNorm orig="8.16193723420333e+000" norm="1.000000"/></NormContinuous></DerivedField></NeuralInput><NeuralInput id="10"><DerivedField><NormContinuous field="wavelet-LLHglrlmLongRunEmphasis" shift="-1.13230421084964e+000" scale="1.11479171499314e+000"><LinearNorm orig="1.01570920883333e+000" norm="0.000000"/><LinearNorm orig="1.91273776273333e+000" norm="1.000000"/></NormContinuous></DerivedField></NeuralInput><NeuralInput id="11"><DerivedField><NormContinuous field="wavelet-LHLglszmZoneEntropy" shift="-2.58225285352121e+000" scale="5.65193382451870e-001"><LinearNorm orig="4.56879527201667e+000" norm="0.000000"/><LinearNorm orig="6.33810119641000e+000" norm="1.000000"/></NormContinuous></DerivedField></NeuralInput><NeuralInput id="12"><DerivedField><NormContinuous field="originalglszmSmallAreaEmphasis" shift="-2.21981352440515e+000" scale="3.71990464250158e+000"><LinearNorm orig="5.96739362359667e-001" norm="0.000000"/><LinearNorm orig="8.65563457626667e-001" norm="1.000000"/></NormContinuous></DerivedField></NeuralInput><NeuralInput id="13"><DerivedField><NormContinuous field="wavelet-LHHglszmZoneEntropy" shift="-1.92792552450493e+000" scale="4.55580750611881e-001"><LinearNorm orig="4.23179759442333e+000" norm="0.000000"/><LinearNorm orig="6.42679814845667e+000" norm="1.000000"/></NormContinuous></DerivedField></NeuralInput><NeuralInput id="14"><DerivedField><NormContinuous field="wavelet-LLLglcmDifferenceEntropy" shift="-1.80172871700644e+000" scale="4.60855782216298e-001"><LinearNorm orig="3.90952828744333e+000" norm="0.000000"/><LinearNorm orig="6.07940450162667e+000" norm="1.000000"/></NormContinuous></DerivedField></NeuralInput><NeuralInput id="15"><DerivedField><NormContinuous field="wavelet-HLHglszmZoneEntropy" shift="-2.01528451214848e+000" scale="4.49174571240871e-001"><LinearNorm orig="4.48663980817333e+000" norm="0.000000"/><LinearNorm orig="6.71294571244000e+000" norm="1.000000"/></NormContinuous></DerivedField></NeuralInput><NeuralInput id="16"><DerivedField><NormContinuous field="originalglrlmLongRunEmphasis" shift="-9.72519738453119e-001" scale="9.26866621675084e-001"><LinearNorm orig="1.04925532510333e+000" norm="0.000000"/><LinearNorm orig="2.12815921118000e+000" norm="1.000000"/></NormContinuous></DerivedField></NeuralInput><NeuralInput id="17"><DerivedField><NormContinuous field="originalglcmDifferenceEntropy" shift="-1.60420143250462e+000" scale="5.34112845325303e-001"><LinearNorm orig="3.00348783322667e+000" norm="0.000000"/><LinearNorm orig="4.87575136096667e+000" norm="1.000000"/></NormContinuous></DerivedField></NeuralInput><NeuralInput id="18"><DerivedField><NormContinuous field="wavelet-LHLglszmSmallAreaEmphasis" shift="-1.11946846882573e+000" scale="2.57951331344086e+000"><LinearNorm orig="4.33984373328333e-001" norm="0.000000"/><LinearNorm orig="8.21654401930000e-001" norm="1.000000"/></NormContinuous></DerivedField></NeuralInput><NeuralInput id="19"><DerivedField><NormContinuous field="wavelet-LHHglcmJointEntropy" shift="-1.43148758122435e+000" scale="2.84569279428828e-001"><LinearNorm orig="5.03036583603667e+000" norm="0.000000"/><LinearNorm orig="8.54444860002000e+000" norm="1.000000"/></NormContinuous></DerivedField></NeuralInput><NeuralInput id="20"><DerivedField><NormContinuous field="wavelet-HLLglszmSmallAreaEmphasis" shift="-1.09779265560020e+000" scale="2.36399934781883e+000"><LinearNorm orig="4.64379424052333e-001" norm="0.000000"/><LinearNorm orig="8.87391385084667e-001" norm="1.000000"/></NormContinuous></DerivedField></NeuralInput></NeuralInputs><NeuralLayer numberOfNeurons="18" activationFunction="radialBasis"><Neuron id="21" width="5.71194036014932e-001"><Con from="0" weight="7.12980457091927e-001"/><Con from="1" weight="9.89237889045262e-001"/><Con from="2" weight="6.11300059363266e-001"/><Con from="3" weight="8.31542327230569e-001"/><Con from="4" weight="5.89376622713798e-001"/><Con from="5" weight="3.23954376437609e-001"/><Con from="6" weight="1.60169312409368e-001"/><Con from="7" weight="5.00482669166484e-001"/><Con from="8" weight="4.34687263690333e-001"/><Con from="9" weight="3.80164061773160e-001"/><Con from="10" weight="9.45566242396219e-002"/><Con from="11" weight="6.60334097623019e-001"/><Con from="12" weight="2.87346491962629e-001"/><Con from="13" weight="5.97571061648768e-001"/><Con from="14" weight="3.23575522992489e-001"/><Con from="15" weight="2.25879300393048e-001"/><Con from="16" weight="1.16145684217536e-001"/><Con from="17" weight="3.89940110926193e-001"/><Con from="18" weight="3.85871080494004e-001"/><Con from="19" weight="5.19546454728480e-001"/><Con from="20" weight="1.62170343386003e-001"/></Neuron><Neuron id="22" width="5.32057677830372e-001"><Con from="0" weight="8.74158180826797e-001"/><Con from="1" weight="9.99538429605957e-001"/><Con from="2" weight="6.42716735861043e-001"/><Con from="3" weight="6.98749739497035e-001"/><Con from="4" weight="3.78975330105569e-001"/><Con from="5" weight="4.18440510367930e-001"/><Con from="6" weight="4.54822594429409e-001"/><Con from="7" weight="1.03041418247102e-001"/><Con from="8" weight="1.41104949480547e-001"/><Con from="9" weight="4.79256932316035e-001"/><Con from="10" weight="5.04812777472801e-002"/><Con from="11" weight="2.78950506453105e-001"/><Con from="12" weight="5.00358682070782e-001"/><Con from="13" weight="3.60704687470424e-001"/><Con from="14" weight="4.16410347028361e-001"/><Con from="15" weight="2.61225677673242e-001"/><Con from="16" weight="1.02156310942698e-001"/><Con from="17" weight="3.93631091081646e-001"/><Con from="18" weight="4.57020822055123e-001"/><Con from="19" weight="2.58373683254065e-001"/><Con from="20" weight="1.16554824232416e-001"/></Neuron><Neuron id="23" width="3.48703351172641e-001"><Con from="0" weight="8.59438023782602e-001"/><Con from="1" weight="9.73416700826208e-001"/><Con from="2" weight="9.26257514860083e-001"/><Con from="3" weight="9.52952604006459e-001"/><Con from="4" weight="8.18860819552977e-001"/><Con from="5" weight="7.56450650733424e-001"/><Con from="6" weight="8.52316420434565e-001"/><Con from="7" weight="6.38517618244041e-001"/><Con from="8" weight="8.26123233729400e-001"/><Con from="9" weight="6.61753523012911e-001"/><Con from="10" weight="2.91505384783792e-002"/><Con from="11" weight="7.49290747167557e-001"/><Con from="12" weight="5.94653476390304e-001"/><Con from="13" weight="8.97591736929806e-001"/><Con from="14" weight="6.60529922024192e-001"/><Con from="15" weight="9.48145304316856e-001"/><Con from="16" weight="7.67499895575644e-002"/><Con from="17" weight="5.88601960651113e-001"/><Con from="18" weight="7.44476134217440e-001"/><Con from="19" weight="8.12638208237017e-001"/><Con from="20" weight="6.30328327499198e-001"/></Neuron><Neuron id="24" width="3.48703351172641e-001"><Con from="0" weight="9.31652573239283e-001"/><Con from="1" weight="9.93092843946563e-001"/><Con from="2" weight="8.18084235786127e-001"/><Con from="3" weight="9.49766175058322e-001"/><Con from="4" weight="8.72090775806376e-001"/><Con from="5" weight="8.71487692004806e-001"/><Con from="6" weight="8.83188531851842e-001"/><Con from="7" weight="6.48130788944801e-001"/><Con from="8" weight="7.93237140813849e-001"/><Con from="9" weight="4.68757015055841e-001"/><Con from="10" weight="1.76351280992000e-002"/><Con from="11" weight="7.20010984622010e-001"/><Con from="12" weight="5.04764019193399e-001"/><Con from="13" weight="9.25978306177898e-001"/><Con from="14" weight="7.33179982449873e-001"/><Con from="15" weight="8.99652941792417e-001"/><Con from="16" weight="9.17662972093186e-002"/><Con from="17" weight="6.66608867458170e-001"/><Con from="18" weight="8.44421892444071e-001"/><Con from="19" weight="8.74817889617747e-001"/><Con from="20" weight="7.36003921835209e-001"/></Neuron><Neuron id="25" width="6.36591389746221e-001"><Con from="0" weight="7.51601072371166e-001"/><Con from="1" weight="8.08251419903266e-001"/><Con from="2" weight="7.58816582444322e-001"/><Con from="3" weight="9.61700428582416e-001"/><Con from="4" weight="8.52865253007902e-001"/><Con from="5" weight="9.35793065779993e-001"/><Con from="6" weight="7.04474838929917e-001"/><Con from="7" weight="5.92784295543737e-001"/><Con from="8" weight="7.70376779637382e-001"/><Con from="9" weight="4.91226341467392e-001"/><Con from="10" weight="5.22158900030083e-002"/><Con from="11" weight="6.38722252528201e-001"/><Con from="12" weight="3.29081629245828e-001"/><Con from="13" weight="8.38982676827167e-001"/><Con from="14" weight="4.78356752081972e-001"/><Con from="15" weight="8.40269081434340e-001"/><Con from="16" weight="1.49991819683897e-001"/><Con from="17" weight="3.91951297804647e-001"/><Con from="18" weight="5.74115005713675e-001"/><Con from="19" weight="5.50118263776661e-001"/><Con from="20" weight="5.80668087041535e-001"/></Neuron><Neuron id="26" width="9.05706651874468e-001"><Con from="0" weight="9.16265022152839e-001"/><Con from="1" weight="9.98254880155855e-001"/><Con from="2" weight="7.73153714787789e-001"/><Con from="3" weight="9.05473931350540e-001"/><Con from="4" weight="7.00775146736463e-001"/><Con from="5" weight="6.73404291650870e-001"/><Con from="6" weight="4.96981366762603e-001"/><Con from="7" weight="9.67097884099124e-001"/><Con from="8" weight="9.10254189594650e-001"/><Con from="9" weight="1.00000000000000e+000"/><Con from="10" weight="5.79600035442456e-002"/><Con from="11" weight="9.35603772980978e-001"/><Con from="12" weight="7.50227026556861e-001"/><Con from="13" weight="8.44539967219457e-001"/><Con from="14" weight="1.00000000000000e+000"/><Con from="15" weight="6.92142690350949e-001"/><Con from="16" weight="5.78303573949986e-002"/><Con from="17" weight="1.00000000000000e+000"/><Con from="18" weight="6.11302903356939e-001"/><Con from="19" weight="6.64206088902010e-001"/><Con from="20" weight="3.48112004467436e-001"/></Neuron><Neuron id="27" width="6.15555340222052e-001"><Con from="0" weight="7.66632834371741e-001"/><Con from="1" weight="9.45510611246256e-001"/><Con from="2" weight="5.56336463812549e-001"/><Con from="3" weight="8.52093715342189e-001"/><Con from="4" weight="6.20096144019119e-001"/><Con from="5" weight="6.07830874640092e-001"/><Con from="6" weight="1.93059820299259e-001"/><Con from="7" weight="6.14005607183623e-001"/><Con from="8" weight="5.80152851192074e-001"/><Con from="9" weight="6.93801984410163e-001"/><Con from="10" weight="5.26779029882116e-002"/><Con from="11" weight="7.72428578443045e-001"/><Con from="12" weight="3.53372418858695e-001"/><Con from="13" weight="6.79660478705591e-001"/><Con from="14" weight="6.39604450303790e-001"/><Con from="15" weight="6.81262325836092e-001"/><Con from="16" weight="1.34575395671235e-001"/><Con from="17" weight="6.89568187927632e-001"/><Con from="18" weight="3.24576148012264e-001"/><Con from="19" weight="2.96197372990578e-001"/><Con from="20" weight="2.01736285761458e-001"/></Neuron><Neuron id="28" width="7.54163259995658e-001"><Con from="0" weight="9.32581401522739e-001"/><Con from="1" weight="9.97919631295545e-001"/><Con from="2" weight="5.32012843413881e-001"/><Con from="3" weight="7.50158377062865e-001"/><Con from="4" weight="4.35860840214538e-001"/><Con from="5" weight="4.45448896817195e-001"/><Con from="6" weight="9.57214759498249e-001"/><Con from="7" weight="2.31530795335240e-001"/><Con from="8" weight="4.33967400353922e-001"/><Con from="9" weight="2.32155406586709e-001"/><Con from="10" weight="1.09986350272115e-002"/><Con from="11" weight="3.25408198176590e-001"/><Con from="12" weight="7.85454029265062e-001"/><Con from="13" weight="5.99277621280283e-001"/><Con from="14" weight="4.03876810783804e-001"/><Con from="15" weight="5.71227468948793e-001"/><Con from="16" weight="2.88341020685902e-002"/><Con from="17" weight="5.89773772304490e-001"/><Con from="18" weight="8.38791105505137e-001"/><Con from="19" weight="4.57962315621669e-001"/><Con from="20" weight="7.07395444489084e-001"/></Neuron><Neuron id="29" width="5.32057677830372e-001"><Con from="0" weight="8.60259687466151e-001"/><Con from="1" weight="9.92271968801273e-001"/><Con from="2" weight="6.01919601275746e-001"/><Con from="3" weight="7.94631742682496e-001"/><Con from="4" weight="5.46005210229216e-001"/><Con from="5" weight="3.90334693830894e-001"/><Con from="6" weight="4.55157183501507e-001"/><Con from="7" weight="3.43581187116959e-001"/><Con from="8" weight="2.08729989167727e-001"/><Con from="9" weight="1.87612434847155e-001"/><Con from="10" weight="3.79787393670097e-002"/><Con from="11" weight="3.56370170549335e-001"/><Con from="12" weight="6.07323991847449e-001"/><Con from="13" weight="2.74445497791062e-001"/><Con from="14" weight="5.05207774159867e-001"/><Con from="15" weight="3.84249907354242e-001"/><Con from="16" weight="9.40461696444289e-002"/><Con from="17" weight="3.71678168452062e-001"/><Con from="18" weight="3.78209759131660e-001"/><Con from="19" weight="1.84169218430623e-001"/><Con from="20" weight="3.04932345343635e-001"/></Neuron><Neuron id="30" width="6.78603897181822e-001"><Con from="0" weight="9.22946001091169e-001"/><Con from="1" weight="9.93319649850816e-001"/><Con from="2" weight="4.80739639852811e-001"/><Con from="3" weight="7.97150165727432e-001"/><Con from="4" weight="4.53488641390883e-001"/><Con from="5" weight="4.14428372956078e-001"/><Con from="6" weight="9.43091873473532e-001"/><Con from="7" weight="6.08015442290972e-001"/><Con from="8" weight="7.08437014484065e-001"/><Con from="9" weight="3.95859368561865e-001"/><Con from="10" weight="1.65226642662546e-002"/><Con from="11" weight="7.89507140834883e-001"/><Con from="12" weight="6.38179453830602e-001"/><Con from="13" weight="7.96398272212062e-001"/><Con from="14" weight="7.24749107462433e-001"/><Con from="15" weight="7.48989163331499e-001"/><Con from="16" weight="4.29874033191106e-002"/><Con from="17" weight="8.55433826383732e-001"/><Con from="18" weight="6.66923450287300e-001"/><Con from="19" weight="8.81243377657308e-001"/><Con from="20" weight="7.38616683998331e-001"/></Neuron><Neuron id="31" width="6.78603897181822e-001"><Con from="0" weight="9.06366828076067e-001"/><Con from="1" weight="9.96819536891213e-001"/><Con from="2" weight="5.08665084290016e-001"/><Con from="3" weight="8.27078309908904e-001"/><Con from="4" weight="5.21717150535741e-001"/><Con from="5" weight="4.18227751483952e-001"/><Con from="6" weight="7.60583813338779e-001"/><Con from="7" weight="5.27333024672055e-001"/><Con from="8" weight="6.89164750275292e-001"/><Con from="9" weight="1.66714873292482e-001"/><Con from="10" weight="2.67157323689888e-002"/><Con from="11" weight="7.23497015088325e-001"/><Con from="12" weight="5.44517014075495e-001"/><Con from="13" weight="8.23539966773610e-001"/><Con from="14" weight="4.62100573050761e-001"/><Con from="15" weight="4.63484221565929e-001"/><Con from="16" weight="5.61115625416312e-002"/><Con from="17" weight="5.10068831244831e-001"/><Con from="18" weight="8.88630309757505e-001"/><Con from="19" weight="7.60679086712791e-001"/><Con from="20" weight="6.22140117582989e-001"/></Neuron><Neuron id="32" width="5.71194036014932e-001"><Con from="0" weight="6.23836827061776e-001"/><Con from="1" weight="8.23239862223438e-001"/><Con from="2" weight="6.50033427523468e-001"/><Con from="3" weight="8.43250058605102e-001"/><Con from="4" weight="5.95827097247742e-001"/><Con from="5" weight="5.13496237994060e-001"/><Con from="6" weight="1.44339773209590e-001"/><Con from="7" weight="3.72516632774436e-001"/><Con from="8" weight="4.39820613896593e-001"/><Con from="9" weight="4.12085525381166e-001"/><Con from="10" weight="7.46611394090950e-002"/><Con from="11" weight="4.11918166292561e-001"/><Con from="12" weight="2.74711031935780e-001"/><Con from="13" weight="5.90486412698943e-001"/><Con from="14" weight="2.95483148257827e-001"/><Con from="15" weight="5.25412357240862e-001"/><Con from="16" weight="1.83194178824151e-001"/><Con from="17" weight="2.86094651896168e-001"/><Con from="18" weight="4.09330493094124e-001"/><Con from="19" weight="2.68874093115834e-001"/><Con from="20" weight="2.25357917945603e-001"/></Neuron><Neuron id="33" width="6.29453994817594e-001"><Con from="0" weight="7.12429916080374e-001"/><Con from="1" weight="9.49129181415541e-001"/><Con from="2" weight="9.00287158763643e-001"/><Con from="3" weight="9.88730635203394e-001"/><Con from="4" weight="9.24475822844762e-001"/><Con from="5" weight="8.12939232774712e-001"/><Con from="6" weight="3.56392090264635e-001"/><Con from="7" weight="6.35613312559359e-001"/><Con from="8" weight="5.83278765601933e-001"/><Con from="9" weight="7.00151279602164e-001"/><Con from="10" weight="8.63179703886721e-002"/><Con from="11" weight="7.89518407232094e-001"/><Con from="12" weight="5.23244626994070e-001"/><Con from="13" weight="6.95146307367855e-001"/><Con from="14" weight="4.71487426409889e-001"/><Con from="15" weight="6.09656447971563e-001"/><Con from="16" weight="1.45285387975262e-001"/><Con from="17" weight="4.32091481587456e-001"/><Con from="18" weight="5.30700843234550e-001"/><Con from="19" weight="5.70758035552492e-001"/><Con from="20" weight="2.86652362684369e-001"/></Neuron><Neuron id="34" width="7.16336043755614e-001"><Con from="0" weight="9.64089375005969e-001"/><Con from="1" weight="9.99462036571742e-001"/><Con from="2" weight="4.95051588728028e-001"/><Con from="3" weight="8.15017659845442e-001"/><Con from="4" weight="5.71553334558028e-001"/><Con from="5" weight="5.47483868954206e-001"/><Con from="6" weight="6.13126476638150e-001"/><Con from="7" weight="2.85615433775587e-001"/><Con from="8" weight="3.64198953783242e-001"/><Con from="9" weight="2.10728909338174e-001"/><Con from="10" weight="1.81796735259236e-002"/><Con from="11" weight="5.17622780598193e-001"/><Con from="12" weight="7.95249248192088e-001"/><Con from="13" weight="5.68290537087973e-001"/><Con from="14" weight="4.56272178657876e-001"/><Con from="15" weight="2.27468219407525e-001"/><Con from="16" weight="2.83750770188232e-002"/><Con from="17" weight="5.51219439821997e-001"/><Con from="18" weight="6.60378644565576e-001"/><Con from="19" weight="5.27444698907910e-001"/><Con from="20" weight="2.49567194576162e-001"/></Neuron><Neuron id="35" width="6.15555340222052e-001"><Con from="0" weight="6.47636619853309e-001"/><Con from="1" weight="7.55196848151801e-001"/><Con from="2" weight="7.29463865641236e-001"/><Con from="3" weight="9.15791120201096e-001"/><Con from="4" weight="7.39315488024502e-001"/><Con from="5" weight="7.04274403884456e-001"/><Con from="6" weight="1.33264396302509e-001"/><Con from="7" weight="6.06664198770242e-001"/><Con from="8" weight="7.38360270860454e-001"/><Con from="9" weight="4.51964524921625e-001"/><Con from="10" weight="8.53856637082466e-002"/><Con from="11" weight="7.01534303951570e-001"/><Con from="12" weight="2.69915152953828e-001"/><Con from="13" weight="6.13973799408374e-001"/><Con from="14" weight="4.04089240755764e-001"/><Con from="15" weight="6.28242556194171e-001"/><Con from="16" weight="2.03510560607124e-001"/><Con from="17" weight="4.37258338092076e-001"/><Con from="18" weight="3.99909924767396e-001"/><Con from="19" weight="4.00307161431824e-001"/><Con from="20" weight="3.54245462405603e-001"/></Neuron><Neuron id="36" width="6.84519499742996e-001"><Con from="0" weight="4.29376952102242e-001"/><Con from="1" weight="4.73527761083309e-001"/><Con from="2" weight="8.50658210441015e-001"/><Con from="3" weight="7.17304192387413e-001"/><Con from="4" weight="4.48780696253581e-001"/><Con from="5" weight="5.18564105315118e-001"/><Con from="6" weight="4.69763830024146e-002"/><Con from="7" weight="4.56732568081127e-001"/><Con from="8" weight="4.66081477570651e-001"/><Con from="9" weight="4.12156679682894e-001"/><Con from="10" weight="1.12581895545685e-001"/><Con from="11" weight="3.33112071830514e-001"/><Con from="12" weight="1.50218712155341e-001"/><Con from="13" weight="4.52445101541533e-001"/><Con from="14" weight="2.20682379377215e-001"/><Con from="15" weight="6.40054620775953e-001"/><Con from="16" weight="3.93790861709631e-001"/><Con from="17" weight="0.00000000000000e+000"/><Con from="18" weight="3.73646643155476e-001"/><Con from="19" weight="1.11929296501300e-001"/><Con from="20" weight="2.44977222357421e-001"/></Neuron><Neuron id="37" width="6.53766009626406e-001"><Con from="0" weight="7.61583422668330e-001"/><Con from="1" weight="7.55697959910963e-001"/><Con from="2" weight="8.36269186191927e-001"/><Con from="3" weight="9.73814540036631e-001"/><Con from="4" weight="9.16724206041572e-001"/><Con from="5" weight="9.62555798228738e-001"/><Con from="6" weight="5.76761973020671e-001"/><Con from="7" weight="8.47790356304646e-001"/><Con from="8" weight="6.89442725636433e-001"/><Con from="9" weight="6.67767988414614e-001"/><Con from="10" weight="5.69288125942529e-002"/><Con from="11" weight="8.75947393886339e-001"/><Con from="12" weight="5.24565187820215e-001"/><Con from="13" weight="7.45128819313802e-001"/><Con from="14" weight="6.87581057038097e-001"/><Con from="15" weight="8.45239861404630e-001"/><Con from="16" weight="1.37982956348429e-001"/><Con from="17" weight="6.63008617687347e-001"/><Con from="18" weight="5.54644867409306e-001"/><Con from="19" weight="2.79148234500144e-001"/><Con from="20" weight="5.77107084158802e-001"/></Neuron><Neuron id="38" width="3.66295131496600e-001"><Con from="0" weight="8.50216450512136e-001"/><Con from="1" weight="9.55766737374569e-001"/><Con from="2" weight="7.56927869914886e-001"/><Con from="3" weight="9.34537837296196e-001"/><Con from="4" weight="7.78803355786399e-001"/><Con from="5" weight="7.83139116052821e-001"/><Con from="6" weight="8.15744507136594e-001"/><Con from="7" weight="7.44348688532334e-001"/><Con from="8" weight="1.00000000000000e+000"/><Con from="9" weight="5.62820148607897e-001"/><Con from="10" weight="3.17041249463994e-002"/><Con from="11" weight="8.24790180963404e-001"/><Con from="12" weight="4.80770891321954e-001"/><Con from="13" weight="9.70225525494025e-001"/><Con from="14" weight="6.41600994417697e-001"/><Con from="15" weight="8.17777168651510e-001"/><Con from="16" weight="7.65541608718711e-002"/><Con from="17" weight="6.58029518716923e-001"/><Con from="18" weight="7.15544246983023e-001"/><Con from="19" weight="7.78918837482731e-001"/><Con from="20" weight="5.88039202408400e-001"/></Neuron></NeuralLayer><NeuralLayer numberOfNeurons="2" activationFunction="identity"><Neuron id="39" bias="5.35064779602166e-001"><Con from="21" weight="6.75260393291047e-005"/><Con from="22" weight="1.41051538727419e-004"/><Con from="23" weight="7.17260374333100e-001"/><Con from="24" weight="-7.08822472375283e-001"/><Con from="25" weight="-2.68213250766092e-006"/><Con from="26" weight="5.82193990796607e-010"/><Con from="27" weight="1.38951865927631e-005"/><Con from="28" weight="-1.74294385013968e-007"/><Con from="29" weight="2.59657153687681e-004"/><Con from="30" weight="-7.88683178964461e-007"/><Con from="31" weight="-1.72798111041738e-006"/><Con from="32" weight="2.25890639813828e-005"/><Con from="33" weight="1.30297331213607e-005"/><Con from="34" weight="2.48858553053616e-007"/><Con from="35" weight="-1.14151421778107e-005"/><Con from="36" weight="1.02073169974386e-006"/><Con from="37" weight="-7.94063148364185e-007"/><Con from="38" weight="4.32255541527807e-001"/></Neuron><Neuron id="40" bias="4.47591753281681e-001"><Con from="21" weight="-1.52433199945006e-005"/><Con from="22" weight="-3.86459318990641e-004"/><Con from="23" weight="-3.85365160740897e-001"/><Con from="24" weight="-2.96878193808515e-001"/><Con from="25" weight="-5.26414183347333e-006"/><Con from="26" weight="4.70851810431542e-009"/><Con from="27" weight="2.26069527260834e-006"/><Con from="28" weight="-3.77131062967571e-008"/><Con from="29" weight="-1.81990648363866e-004"/><Con from="30" weight="-6.72838013278548e-008"/><Con from="31" weight="-1.79410126194517e-007"/><Con from="32" weight="7.11925543773141e-006"/><Con from="33" weight="2.95878194912359e-006"/><Con from="34" weight="-8.03900283909167e-007"/><Con from="35" weight="-1.72823839264282e-006"/><Con from="36" weight="1.31682289969027e-006"/><Con from="37" weight="1.12543683570456e-006"/><Con from="38" weight="2.03595838616457e-001"/></Neuron></NeuralLayer><NeuralOutputs numberOfOutputs="2"><NeuralOutput outputNeuron="39"><DerivedField optype="categorical"><NormDiscrete field="LuminalA" value="0"/></DerivedField></NeuralOutput><NeuralOutput outputNeuron="40"><DerivedField optype="categorical"><NormDiscrete field="LuminalA" value="1"/></DerivedField></NeuralOutput></NeuralOutputs></NeuralNetwork></PMML>
