<?xml version="1.0" encoding="UTF-8"?>
<PMML version="3.0"><Header copyright="Copyright 1984-2018 TIBCO Software Inc. All rights reserved."><Application name="STATISTICA Automated Neural Networks (SANN)" version="2.0"/></Header><DataDictionary numberOfFields="23"><DataField name="ERBinary" optype="categorical"><Value value="0"/><Value value="1"/></DataField><DataField name="828" optype="continuous"/><DataField name="137" optype="continuous"/><DataField name="788" optype="continuous"/><DataField name="509" optype="continuous"/><DataField name="323" optype="continuous"/><DataField name="791" optype="continuous"/><DataField name="270" optype="continuous"/><DataField name="177" optype="continuous"/><DataField name="699" optype="continuous"/><DataField name="708" optype="continuous"/><DataField name="243" optype="continuous"/><DataField name="336" optype="continuous"/><DataField name="796" optype="continuous"/><DataField name="615" optype="continuous"/><DataField name="327" optype="continuous"/><DataField name="363" optype="continuous"/><DataField name="693" optype="continuous"/><DataField name="233" optype="continuous"/><DataField name="513" optype="continuous"/><DataField name="637" optype="continuous"/><DataField name="131" optype="continuous"/><DataField name="424" optype="continuous"/></DataDictionary><NeuralNetwork modelName="BreastOve_MLP 22-17-2" functionName="classification"><MiningSchema><MiningField name="ERBinary" usageType="predicted"/><MiningField name="828" lowValue="0.958665" highValue="0.994198"/><MiningField name="137" lowValue="0.956062" highValue="0.995105"/><MiningField name="788" lowValue="0.947681" highValue="0.997023"/><MiningField name="509" lowValue="0.949301" highValue="0.996879"/><MiningField name="323" lowValue="0.953299" highValue="0.995248"/><MiningField name="791" lowValue="0.935052" highValue="0.999976"/><MiningField name="270" lowValue="0.878545" highValue="0.989241"/><MiningField name="177" lowValue="0.685235" highValue="0.964295"/><MiningField name="699" lowValue="0.375063" highValue="0.509834"/><MiningField name="708" lowValue="3.949078" highValue="5.933515"/><MiningField name="243" lowValue="5.351761" highValue="7.286164"/><MiningField name="336" lowValue="4.397319" highValue="6.212944"/><MiningField name="796" lowValue="0.737359" highValue="1.000000"/><MiningField name="615" lowValue="4.701807" highValue="6.743869"/><MiningField name="327" lowValue="0.263691" highValue="0.514084"/><MiningField name="363" lowValue="0.626349" highValue="0.949625"/><MiningField name="693" lowValue="0.463123" highValue="0.773003"/><MiningField name="233" lowValue="0.547888" highValue="0.998557"/><MiningField name="513" lowValue="0.244998" highValue="0.523256"/><MiningField name="637" lowValue="2.855905" highValue="5.353653"/><MiningField name="131" lowValue="0.297278" highValue="0.807359"/><MiningField name="424" lowValue="0.500046" highValue="0.972194"/></MiningSchema><NeuralInputs numberOfInputs="22"><NeuralInput id="0"><DerivedField><NormContinuous field="828" shift="-2.69792806088248e+001" scale="2.81425521579991e+001"><LinearNorm orig="9.58665030000000e-001" norm="0.000000"/><LinearNorm orig="9.94198410000000e-001" norm="1.000000"/></NormContinuous></DerivedField></NeuralInput><NeuralInput id="1"><DerivedField><NormContinuous field="137" shift="-2.44877715122313e+001" scale="2.56131532762809e+001"><LinearNorm orig="9.56062350000000e-001" norm="0.000000"/><LinearNorm orig="9.95104790000000e-001" norm="1.000000"/></NormContinuous></DerivedField></NeuralInput><NeuralInput id="2"><DerivedField><NormContinuous field="788" shift="-1.92065905211174e+001" scale="2.02669275966038e+001"><LinearNorm orig="9.47681410000000e-001" norm="0.000000"/><LinearNorm orig="9.97022880000000e-001" norm="1.000000"/></NormContinuous></DerivedField></NeuralInput><NeuralInput id="3"><DerivedField><NormContinuous field="509" shift="-1.99527796811091e+001" scale="2.10183826774897e+001"><LinearNorm orig="9.49301380000000e-001" norm="0.000000"/><LinearNorm orig="9.96878780000000e-001" norm="1.000000"/></NormContinuous></DerivedField></NeuralInput><NeuralInput id="4"><DerivedField><NormContinuous field="323" shift="-2.27255639796779e+001" scale="2.38388569554157e+001"><LinearNorm orig="9.53299230000000e-001" norm="0.000000"/><LinearNorm orig="9.95247550000000e-001" norm="1.000000"/></NormContinuous></DerivedField></NeuralInput><NeuralInput id="5"><DerivedField><NormContinuous field="791" shift="-1.44020847830889e+001" scale="1.54024490510089e+001"><LinearNorm orig="9.35051610000000e-001" norm="0.000000"/><LinearNorm orig="9.99976350000000e-001" norm="1.000000"/></NormContinuous></DerivedField></NeuralInput><NeuralInput id="6"><DerivedField><NormContinuous field="270" shift="-7.93659837628346e+000" scale="9.03379660750222e+000"><LinearNorm orig="8.78545170000000e-001" norm="0.000000"/><LinearNorm orig="9.89240600000000e-001" norm="1.000000"/></NormContinuous></DerivedField></NeuralInput><NeuralInput id="7"><DerivedField><NormContinuous field="177" shift="-2.45551324004890e+000" scale="3.58346170786280e+000"><LinearNorm orig="6.85234960000000e-001" norm="0.000000"/><LinearNorm orig="9.64294730000000e-001" norm="1.000000"/></NormContinuous></DerivedField></NeuralInput><NeuralInput id="8"><DerivedField><NormContinuous field="699" shift="-2.78296229681289e+000" scale="7.41998840997810e+000"><LinearNorm orig="3.75062890000000e-001" norm="0.000000"/><LinearNorm orig="5.09833990000000e-001" norm="1.000000"/></NormContinuous></DerivedField></NeuralInput><NeuralInput id="9"><DerivedField><NormContinuous field="708" shift="-1.99002410814621e+000" scale="5.03921235377422e-001"><LinearNorm orig="3.94907769000000e+000" norm="0.000000"/><LinearNorm orig="5.93351480000000e+000" norm="1.000000"/></NormContinuous></DerivedField></NeuralInput><NeuralInput id="10"><DerivedField><NormContinuous field="243" shift="-2.76662176409244e+000" scale="5.16955405818963e-001"><LinearNorm orig="5.35176097000000e+000" norm="0.000000"/><LinearNorm orig="7.28616380000000e+000" norm="1.000000"/></NormContinuous></DerivedField></NeuralInput><NeuralInput id="11"><DerivedField><NormContinuous field="336" shift="-2.42193184871601e+000" scale="5.50774593415717e-001"><LinearNorm orig="4.39731948000000e+000" norm="0.000000"/><LinearNorm orig="6.21294426000000e+000" norm="1.000000"/></NormContinuous></DerivedField></NeuralInput><NeuralInput id="12"><DerivedField><NormContinuous field="796" shift="-2.80747299578334e+000" scale="3.80747299578334e+000"><LinearNorm orig="7.37358610000000e-001" norm="0.000000"/><LinearNorm orig="1.00000000000000e+000" norm="1.000000"/></NormContinuous></DerivedField></NeuralInput><NeuralInput id="13"><DerivedField><NormContinuous field="615" shift="-2.30248028276008e+000" scale="4.89701113031376e-001"><LinearNorm orig="4.70180733000000e+000" norm="0.000000"/><LinearNorm orig="6.74386926000000e+000" norm="1.000000"/></NormContinuous></DerivedField></NeuralInput><NeuralInput id="14"><DerivedField><NormContinuous field="327" shift="-1.05310687314869e+000" scale="3.99371564880367e+000"><LinearNorm orig="2.63691000000000e-001" norm="0.000000"/><LinearNorm orig="5.14084390000000e-001" norm="1.000000"/></NormContinuous></DerivedField></NeuralInput><NeuralInput id="15"><DerivedField><NormContinuous field="363" shift="-1.93750522386218e+000" scale="3.09333067389384e+000"><LinearNorm orig="6.26349210000000e-001" norm="0.000000"/><LinearNorm orig="9.49625350000000e-001" norm="1.000000"/></NormContinuous></DerivedField></NeuralInput><NeuralInput id="16"><DerivedField><NormContinuous field="693" shift="-1.49452207694960e+000" scale="3.22705334338539e+000"><LinearNorm orig="4.63122830000000e-001" norm="0.000000"/><LinearNorm orig="7.73003050000000e-001" norm="1.000000"/></NormContinuous></DerivedField></NeuralInput><NeuralInput id="17"><DerivedField><NormContinuous field="233" shift="-1.21572020573306e+000" scale="2.21892135481480e+000"><LinearNorm orig="5.47887920000000e-001" norm="0.000000"/><LinearNorm orig="9.98557340000000e-001" norm="1.000000"/></NormContinuous></DerivedField></NeuralInput><NeuralInput id="18"><DerivedField><NormContinuous field="513" shift="-8.80467285984784e-001" scale="3.59377776193321e+000"><LinearNorm orig="2.44997700000000e-001" norm="0.000000"/><LinearNorm orig="5.23256420000000e-001" norm="1.000000"/></NormContinuous></DerivedField></NeuralInput><NeuralInput id="19"><DerivedField><NormContinuous field="637" shift="-1.14339217798318e+000" scale="4.00360662500650e-001"><LinearNorm orig="2.85590540000000e+000" norm="0.000000"/><LinearNorm orig="5.35365329000000e+000" norm="1.000000"/></NormContinuous></DerivedField></NeuralInput><NeuralInput id="20"><DerivedField><NormContinuous field="131" shift="-5.82806475338443e-001" scale="1.96047478935287e+000"><LinearNorm orig="2.97278230000000e-001" norm="0.000000"/><LinearNorm orig="8.07358750000000e-001" norm="1.000000"/></NormContinuous></DerivedField></NeuralInput><NeuralInput id="21"><DerivedField><NormContinuous field="424" shift="-1.05908752677470e+000" scale="2.11797901341191e+000"><LinearNorm orig="5.00046280000000e-001" norm="0.000000"/><LinearNorm orig="9.72194490000000e-001" norm="1.000000"/></NormContinuous></DerivedField></NeuralInput></NeuralInputs><NeuralLayer numberOfNeurons="17" activationFunction="logistic"><Neuron id="22" bias="-1.95820950214230e+000"><Con from="0" weight="1.31181396956473e+000"/><Con from="1" weight="1.00077071356862e-001"/><Con from="2" weight="-2.34546965213805e+000"/><Con from="3" weight="6.32605212988702e-001"/><Con from="4" weight="-1.50848997612870e+000"/><Con from="5" weight="1.19457371410452e+000"/><Con from="6" weight="9.21455934434017e-001"/><Con from="7" weight="4.99098543697099e+000"/><Con from="8" weight="-1.38863562710646e+000"/><Con from="9" weight="8.79312337941009e-001"/><Con from="10" weight="3.97054086286096e+000"/><Con from="11" weight="-2.44956357248750e+000"/><Con from="12" weight="1.01593382039630e+000"/><Con from="13" weight="7.18586689769616e-001"/><Con from="14" weight="2.16646488652953e-001"/><Con from="15" weight="5.38422481157081e-001"/><Con from="16" weight="1.16686343240636e+000"/><Con from="17" weight="-3.52298818682233e+000"/><Con from="18" weight="2.47984667418928e+000"/><Con from="19" weight="-4.61754068135339e+000"/><Con from="20" weight="1.00350824710909e+000"/><Con from="21" weight="2.48823080844193e+000"/></Neuron><Neuron id="23" bias="-1.85127126547875e+000"><Con from="0" weight="1.10201011101330e+000"/><Con from="1" weight="-3.06661082717266e-001"/><Con from="2" weight="-2.09048539999369e+000"/><Con from="3" weight="5.96355855567535e-001"/><Con from="4" weight="-1.37660088511424e+000"/><Con from="5" weight="1.04816760553171e+000"/><Con from="6" weight="8.04169883849654e-001"/><Con from="7" weight="4.58430558506166e+000"/><Con from="8" weight="-1.35060568847801e+000"/><Con from="9" weight="5.11342338081683e-001"/><Con from="10" weight="3.55314409870033e+000"/><Con from="11" weight="-2.11433644527014e+000"/><Con from="12" weight="5.21310620041435e-001"/><Con from="13" weight="6.20690989553062e-001"/><Con from="14" weight="2.68993178016385e-001"/><Con from="15" weight="3.72516532481822e-001"/><Con from="16" weight="1.33691714723046e+000"/><Con from="17" weight="-2.99865246562956e+000"/><Con from="18" weight="2.59323054727427e+000"/><Con from="19" weight="-4.37840612208413e+000"/><Con from="20" weight="6.20600271390471e-001"/><Con from="21" weight="1.56126089688562e+000"/></Neuron><Neuron id="24" bias="-7.93902705120349e-001"><Con from="0" weight="4.44978453767869e-001"/><Con from="1" weight="3.41526294331242e-002"/><Con from="2" weight="-1.60810004154387e+000"/><Con from="3" weight="-6.56814940829336e-001"/><Con from="4" weight="-2.23005497285126e+000"/><Con from="5" weight="9.76080992319005e-001"/><Con from="6" weight="4.56338396036564e-001"/><Con from="7" weight="2.00251193455625e+000"/><Con from="8" weight="-4.65571797670548e-001"/><Con from="9" weight="-2.14883753836922e-001"/><Con from="10" weight="7.87251018103322e-001"/><Con from="11" weight="-2.50354181668211e+000"/><Con from="12" weight="1.70808378870602e+000"/><Con from="13" weight="-9.12277868990138e-001"/><Con from="14" weight="9.70992637566376e-002"/><Con from="15" weight="5.82355707363795e-001"/><Con from="16" weight="2.68060106788835e-001"/><Con from="17" weight="-1.21395728724088e+000"/><Con from="18" weight="9.11928187400317e-001"/><Con from="19" weight="-2.81577510718732e+000"/><Con from="20" weight="1.03416444855257e+000"/><Con from="21" weight="2.27290535491483e+000"/></Neuron><Neuron id="25" bias="-5.34569418995526e+000"><Con from="0" weight="2.10385194450184e+000"/><Con from="1" weight="-4.81897261113711e-001"/><Con from="2" weight="-3.35417403477687e+000"/><Con from="3" weight="1.30624198531000e+000"/><Con from="4" weight="-1.39177050333364e+000"/><Con from="5" weight="5.58411232246328e-001"/><Con from="6" weight="1.29988838349731e+000"/><Con from="7" weight="1.01533882484205e+001"/><Con from="8" weight="-5.47601724898587e+000"/><Con from="9" weight="3.18224373853780e+000"/><Con from="10" weight="9.85292334961323e+000"/><Con from="11" weight="-2.04468797007472e+000"/><Con from="12" weight="5.75097644417207e-002"/><Con from="13" weight="3.86254212161475e+000"/><Con from="14" weight="-2.42788845476751e+000"/><Con from="15" weight="2.64960023606015e+000"/><Con from="16" weight="-2.88283229116763e+000"/><Con from="17" weight="-6.99896833335820e+000"/><Con from="18" weight="1.35470679774775e+000"/><Con from="19" weight="-5.99873086877965e+000"/><Con from="20" weight="-6.96734624799688e-001"/><Con from="21" weight="4.15024897261243e+000"/></Neuron><Neuron id="26" bias="2.03751283495312e+000"><Con from="0" weight="-1.27975602307830e+000"/><Con from="1" weight="-3.17358312319344e-001"/><Con from="2" weight="-2.41671230027214e-001"/><Con from="3" weight="-2.68371576657054e+000"/><Con from="4" weight="-2.61017743972710e+000"/><Con from="5" weight="1.25236405737903e+000"/><Con from="6" weight="-9.84921855160058e-001"/><Con from="7" weight="-4.31770844712548e+000"/><Con from="8" weight="2.74970163667036e+000"/><Con from="9" weight="-2.77686229370093e+000"/><Con from="10" weight="-6.58130775870687e+000"/><Con from="11" weight="-2.67611672107375e+000"/><Con from="12" weight="2.12269612109240e+000"/><Con from="13" weight="-4.47869328713302e+000"/><Con from="14" weight="1.38839591099674e+000"/><Con from="15" weight="-8.90619264815797e-001"/><Con from="16" weight="1.53812235287171e+000"/><Con from="17" weight="3.37926292890654e+000"/><Con from="18" weight="-5.11878670547242e-001"/><Con from="19" weight="-1.27559039570469e-001"/><Con from="20" weight="1.09343388239447e+000"/><Con from="21" weight="1.30464157551094e+000"/></Neuron><Neuron id="27" bias="-1.17054953850723e+000"><Con from="0" weight="5.87122631487121e-001"/><Con from="1" weight="-1.18996881636093e+000"/><Con from="2" weight="-1.28747455864312e+000"/><Con from="3" weight="-8.88006550020598e-002"/><Con from="4" weight="-1.73913605740283e+000"/><Con from="5" weight="5.85300722555699e-001"/><Con from="6" weight="5.43275976107117e-001"/><Con from="7" weight="2.14230419800247e+000"/><Con from="8" weight="-5.56535479471096e-001"/><Con from="9" weight="-6.50842910527013e-001"/><Con from="10" weight="8.11874353729499e-001"/><Con from="11" weight="-1.63818555164627e+000"/><Con from="12" weight="5.40902979092127e-001"/><Con from="13" weight="-6.18183065700891e-001"/><Con from="14" weight="1.75569498603064e-001"/><Con from="15" weight="2.98982983449814e-001"/><Con from="16" weight="8.36976291843162e-001"/><Con from="17" weight="-8.40987225612397e-001"/><Con from="18" weight="1.52447022948300e+000"/><Con from="19" weight="-2.66379255796490e+000"/><Con from="20" weight="1.37210218842670e-001"/><Con from="21" weight="3.53141547184829e-001"/></Neuron><Neuron id="28" bias="-5.76699139616156e-001"><Con from="0" weight="2.85969916948386e-002"/><Con from="1" weight="-1.66843203897276e+000"/><Con from="2" weight="-5.37686419217545e-001"/><Con from="3" weight="-2.06591772312448e-001"/><Con from="4" weight="-1.32283379451240e+000"/><Con from="5" weight="2.54531807753548e-002"/><Con from="6" weight="1.14394216653843e-001"/><Con from="7" weight="1.93525568974260e-001"/><Con from="8" weight="3.91758967877511e-001"/><Con from="9" weight="-1.57280823586538e+000"/><Con from="10" weight="-8.95134974372326e-001"/><Con from="11" weight="-9.87607351455155e-001"/><Con from="12" weight="-1.95639505666695e-001"/><Con from="13" weight="-1.19417461041324e+000"/><Con from="14" weight="7.06502391013110e-001"/><Con from="15" weight="-4.24812185402397e-001"/><Con from="16" weight="1.60008389432238e+000"/><Con from="17" weight="3.90993950925372e-001"/><Con from="18" weight="1.65660238730185e+000"/><Con from="19" weight="-1.67593355760708e+000"/><Con from="20" weight="-2.31839019195209e-001"/><Con from="21" weight="-1.58385110081596e+000"/></Neuron><Neuron id="29" bias="-5.89579425516207e+000"><Con from="0" weight="2.31084370369231e+000"/><Con from="1" weight="-8.39727706809524e-001"/><Con from="2" weight="-2.83660713097274e+000"/><Con from="3" weight="2.17337786709508e+000"/><Con from="4" weight="-1.28312817176526e+000"/><Con from="5" weight="1.73829095133879e-001"/><Con from="6" weight="1.73507608370142e+000"/><Con from="7" weight="1.12541341272517e+001"/><Con from="8" weight="-5.85317449659389e+000"/><Con from="9" weight="3.25853235894370e+000"/><Con from="10" weight="1.12396061331058e+001"/><Con from="11" weight="-1.48625949653534e+000"/><Con from="12" weight="-3.20490857389838e-001"/><Con from="13" weight="4.59645350068368e+000"/><Con from="14" weight="-2.36090131768101e+000"/><Con from="15" weight="2.95031669130904e+000"/><Con from="16" weight="-2.95913565769574e+000"/><Con from="17" weight="-7.68913747498395e+000"/><Con from="18" weight="1.95412880370831e+000"/><Con from="19" weight="-6.13794564472319e+000"/><Con from="20" weight="-1.19925991302033e+000"/><Con from="21" weight="3.03081388559641e+000"/></Neuron><Neuron id="30" bias="-1.73657179053095e+000"><Con from="0" weight="8.43730155895552e-001"/><Con from="1" weight="-8.28845954957031e-001"/><Con from="2" weight="-1.54538568478373e+000"/><Con from="3" weight="6.57174231757390e-001"/><Con from="4" weight="-1.61690761219446e+000"/><Con from="5" weight="7.96178047828895e-001"/><Con from="6" weight="7.79149697174107e-001"/><Con from="7" weight="3.84063819745969e+000"/><Con from="8" weight="-1.17613133208329e+000"/><Con from="9" weight="3.20116802458000e-002"/><Con from="10" weight="2.83708484039433e+000"/><Con from="11" weight="-1.71835970508628e+000"/><Con from="12" weight="2.37169839965316e-001"/><Con from="13" weight="2.38528770934623e-001"/><Con from="14" weight="1.72376214656704e-001"/><Con from="15" weight="4.65367985523385e-001"/><Con from="16" weight="1.15223725558350e+000"/><Con from="17" weight="-2.27069056514225e+000"/><Con from="18" weight="2.37352757231643e+000"/><Con from="19" weight="-3.86457890513883e+000"/><Con from="20" weight="3.01657809715421e-001"/><Con from="21" weight="4.09719539160861e-001"/></Neuron><Neuron id="31" bias="-4.26166535619539e+000"><Con from="0" weight="1.74655620811493e+000"/><Con from="1" weight="-6.53004381016705e-001"/><Con from="2" weight="-2.83717424156383e+000"/><Con from="3" weight="1.57024776621320e+000"/><Con from="4" weight="-1.76989076537365e+000"/><Con from="5" weight="4.12954704088521e-001"/><Con from="6" weight="1.28912134933556e+000"/><Con from="7" weight="8.59915576596756e+000"/><Con from="8" weight="-3.94422578326523e+000"/><Con from="9" weight="1.95258834820328e+000"/><Con from="10" weight="7.99559890014441e+000"/><Con from="11" weight="-2.25304202201152e+000"/><Con from="12" weight="-1.87883649700210e-002"/><Con from="13" weight="2.49085336122685e+000"/><Con from="14" weight="-1.20869374138742e+000"/><Con from="15" weight="1.76855466048348e+000"/><Con from="16" weight="-7.47587643335098e-001"/><Con from="17" weight="-6.19822099176439e+000"/><Con from="18" weight="2.44328401664579e+000"/><Con from="19" weight="-6.16624344877814e+000"/><Con from="20" weight="-5.20342721402692e-002"/><Con from="21" weight="2.35015904965624e+000"/></Neuron><Neuron id="32" bias="-3.10374699240232e+000"><Con from="0" weight="1.64147770424100e+000"/><Con from="1" weight="-3.42355686861677e-001"/><Con from="2" weight="-3.12569065674167e+000"/><Con from="3" weight="1.23790030143038e+000"/><Con from="4" weight="-1.43997458524471e+000"/><Con from="5" weight="1.54322357962620e+000"/><Con from="6" weight="1.30121839935775e+000"/><Con from="7" weight="7.29852556775183e+000"/><Con from="8" weight="-3.07869052777399e+000"/><Con from="9" weight="1.46395381256814e+000"/><Con from="10" weight="6.39370194194673e+000"/><Con from="11" weight="-2.29404440526984e+000"/><Con from="12" weight="-3.15395760790204e-001"/><Con from="13" weight="1.74770606424440e+000"/><Con from="14" weight="-5.13326478874711e-001"/><Con from="15" weight="7.89082235395210e-001"/><Con from="16" weight="1.22146498171957e+000"/><Con from="17" weight="-4.74033586697522e+000"/><Con from="18" weight="3.35330070685249e+000"/><Con from="19" weight="-6.16998437300954e+000"/><Con from="20" weight="6.76609921726343e-001"/><Con from="21" weight="1.96813661715509e+000"/></Neuron><Neuron id="33" bias="-1.40972430143316e+000"><Con from="0" weight="1.08100954024977e+000"/><Con from="1" weight="-9.43390033797675e-001"/><Con from="2" weight="-1.77442802410314e+000"/><Con from="3" weight="2.86583807496698e-001"/><Con from="4" weight="-1.60261469752455e+000"/><Con from="5" weight="1.32586322277439e+000"/><Con from="6" weight="7.66308476793786e-001"/><Con from="7" weight="3.92731868287009e+000"/><Con from="8" weight="-9.86421025079357e-001"/><Con from="9" weight="4.43219027996836e-002"/><Con from="10" weight="2.25527365386082e+000"/><Con from="11" weight="-1.87479587248587e+000"/><Con from="12" weight="8.03260415166277e-001"/><Con from="13" weight="-6.87438766379367e-004"/><Con from="14" weight="2.93699965633139e-001"/><Con from="15" weight="5.54739387541565e-001"/><Con from="16" weight="1.19937026000417e+000"/><Con from="17" weight="-1.61468203120436e+000"/><Con from="18" weight="2.20641044194978e+000"/><Con from="19" weight="-3.67035817087225e+000"/><Con from="20" weight="3.18770845353914e-001"/><Con from="21" weight="1.37163753948773e+000"/></Neuron><Neuron id="34" bias="-3.84091704451347e-001"><Con from="0" weight="1.92310771356432e-001"/><Con from="1" weight="-1.69727600233450e+000"/><Con from="2" weight="-4.91884331175746e-001"/><Con from="3" weight="-2.68084380626931e-001"/><Con from="4" weight="-1.19533689899448e+000"/><Con from="5" weight="2.27199033378663e-001"/><Con from="6" weight="2.59878261692493e-001"/><Con from="7" weight="1.55748156413859e-001"/><Con from="8" weight="4.55351112663619e-001"/><Con from="9" weight="-1.57159676493052e+000"/><Con from="10" weight="-1.11750821699691e+000"/><Con from="11" weight="-8.92941019818821e-001"/><Con from="12" weight="-2.20009972366376e-002"/><Con from="13" weight="-1.15356227394218e+000"/><Con from="14" weight="7.70163941080667e-001"/><Con from="15" weight="-3.53998656297132e-001"/><Con from="16" weight="1.68501018868662e+000"/><Con from="17" weight="8.12881037945719e-001"/><Con from="18" weight="1.56350391323507e+000"/><Con from="19" weight="-1.38071654610833e+000"/><Con from="20" weight="-2.54417863294893e-001"/><Con from="21" weight="-1.51262360747134e+000"/></Neuron><Neuron id="35" bias="-9.55393697185048e-001"><Con from="0" weight="4.57331398778904e-001"/><Con from="1" weight="-7.95093755706561e-001"/><Con from="2" weight="-1.43604890913917e+000"/><Con from="3" weight="-3.67380159500522e-001"/><Con from="4" weight="-2.08201050267787e+000"/><Con from="5" weight="7.51007832024550e-001"/><Con from="6" weight="4.50945330161711e-001"/><Con from="7" weight="2.02191591624558e+000"/><Con from="8" weight="-4.84916757431199e-001"/><Con from="9" weight="-5.55255379170891e-001"/><Con from="10" weight="6.15569912613643e-001"/><Con from="11" weight="-2.13210680512436e+000"/><Con from="12" weight="1.09049551711122e+000"/><Con from="13" weight="-9.06955004929168e-001"/><Con from="14" weight="1.27827612759000e-001"/><Con from="15" weight="3.76543348694628e-001"/><Con from="16" weight="5.56324681833840e-001"/><Con from="17" weight="-9.66838652771949e-001"/><Con from="18" weight="1.21272636585029e+000"/><Con from="19" weight="-2.74255727645057e+000"/><Con from="20" weight="4.93316320638755e-001"/><Con from="21" weight="1.23337666426914e+000"/></Neuron><Neuron id="36" bias="8.60077309282908e-003"><Con from="0" weight="-3.10248700359359e-001"/><Con from="1" weight="-5.04550677674759e-001"/><Con from="2" weight="-1.44366375837579e+000"/><Con from="3" weight="-1.81824909261277e+000"/><Con from="4" weight="-3.14885328704982e+000"/><Con from="5" weight="9.65371274946309e-001"/><Con from="6" weight="8.35124466463608e-002"/><Con from="7" weight="-2.23114668019446e-001"/><Con from="8" weight="4.77668417547024e-001"/><Con from="9" weight="-1.43721073895776e+000"/><Con from="10" weight="-2.40601678619703e+000"/><Con from="11" weight="-3.22316262445018e+000"/><Con from="12" weight="2.06973502817960e+000"/><Con from="13" weight="-2.89553953728827e+000"/><Con from="14" weight="4.88479753850729e-001"/><Con from="15" weight="7.64320299411169e-002"/><Con from="16" weight="5.72078041195504e-001"/><Con from="17" weight="2.13124969701171e-001"/><Con from="18" weight="3.34315770743444e-001"/><Con from="19" weight="-2.35247558228900e+000"/><Con from="20" weight="1.06429849568879e+000"/><Con from="21" weight="1.83260195104626e+000"/></Neuron><Neuron id="37" bias="-1.15286132990570e+000"><Con from="0" weight="5.21347670143243e-001"/><Con from="1" weight="-7.38723290849662e-001"/><Con from="2" weight="-1.69452271292742e+000"/><Con from="3" weight="-3.59896895892596e-001"/><Con from="4" weight="-2.22790988585364e+000"/><Con from="5" weight="9.12895770808224e-001"/><Con from="6" weight="4.46910853354123e-001"/><Con from="7" weight="2.53676564701779e+000"/><Con from="8" weight="-7.76302405177154e-001"/><Con from="9" weight="-3.61746421494039e-001"/><Con from="10" weight="1.05364530063220e+000"/><Con from="11" weight="-2.34882939139716e+000"/><Con from="12" weight="1.29050267565207e+000"/><Con from="13" weight="-8.21032220768310e-001"/><Con from="14" weight="9.51287696439938e-003"/><Con from="15" weight="4.71536277833402e-001"/><Con from="16" weight="4.82464803641260e-001"/><Con from="17" weight="-1.31190126060959e+000"/><Con from="18" weight="1.28957517320112e+000"/><Con from="19" weight="-3.15446401591151e+000"/><Con from="20" weight="6.18022617101565e-001"/><Con from="21" weight="1.72469415840456e+000"/></Neuron><Neuron id="38" bias="-1.94098629102904e+000"><Con from="0" weight="1.74062174384043e+000"/><Con from="1" weight="-2.41138229880516e-001"/><Con from="2" weight="-2.64364404470344e+000"/><Con from="3" weight="9.28591957633476e-001"/><Con from="4" weight="-1.36498989641154e+000"/><Con from="5" weight="1.81119216377914e+000"/><Con from="6" weight="1.23588655422570e+000"/><Con from="7" weight="5.99867617479430e+000"/><Con from="8" weight="-1.77990083893738e+000"/><Con from="9" weight="1.10368305839339e+000"/><Con from="10" weight="4.53468520810327e+000"/><Con from="11" weight="-2.27286139433398e+000"/><Con from="12" weight="9.80479069281501e-001"/><Con from="13" weight="1.00030141294701e+000"/><Con from="14" weight="1.91425603102320e-001"/><Con from="15" weight="7.08092624963852e-001"/><Con from="16" weight="1.59781738431945e+000"/><Con from="17" weight="-3.26440589156818e+000"/><Con from="18" weight="2.95030492546384e+000"/><Con from="19" weight="-4.98320233345517e+000"/><Con from="20" weight="1.01026214367655e+000"/><Con from="21" weight="2.74642814965569e+000"/></Neuron></NeuralLayer><NeuralLayer numberOfNeurons="2" normalizationMethod="softmax"><Neuron id="39" bias="6.35451686777596e+000"><Con from="22" weight="-1.39826162876108e+000"/><Con from="23" weight="-1.49703964568528e+000"/><Con from="24" weight="-8.14401829833317e-001"/><Con from="25" weight="-8.11223001652577e-001"/><Con from="26" weight="-1.83005502488177e+000"/><Con from="27" weight="-1.12867729416555e-001"/><Con from="28" weight="1.99568013863218e-001"/><Con from="29" weight="-1.18007898541469e+000"/><Con from="30" weight="-9.77792965288130e-001"/><Con from="31" weight="9.02666492993345e-002"/><Con from="32" weight="-8.40089164798726e-001"/><Con from="33" weight="-7.05449042903290e-001"/><Con from="34" weight="4.81167007020270e-001"/><Con from="35" weight="-3.66774653643095e-001"/><Con from="36" weight="-1.88347226166222e+000"/><Con from="37" weight="-4.27411454894066e-001"/><Con from="38" weight="-1.23295481883114e+000"/></Neuron><Neuron id="40" bias="-6.36145052691201e+000"><Con from="22" weight="1.38656972793469e+000"/><Con from="23" weight="1.47007627448705e+000"/><Con from="24" weight="7.57337595562721e-001"/><Con from="25" weight="8.24770142092387e-001"/><Con from="26" weight="1.81566933627386e+000"/><Con from="27" weight="1.11686094914204e-001"/><Con from="28" weight="-2.27254079667287e-001"/><Con from="29" weight="1.15126657324639e+000"/><Con from="30" weight="9.86720292522088e-001"/><Con from="31" weight="-1.61347175400823e-001"/><Con from="32" weight="8.32617855007980e-001"/><Con from="33" weight="7.19223888875914e-001"/><Con from="34" weight="-4.94503891801215e-001"/><Con from="35" weight="3.82289978198184e-001"/><Con from="36" weight="1.91241322470531e+000"/><Con from="37" weight="4.73127800306961e-001"/><Con from="38" weight="1.27274464484116e+000"/></Neuron></NeuralLayer><NeuralOutputs numberOfOutputs="2"><NeuralOutput outputNeuron="39"><DerivedField optype="categorical"><NormDiscrete field="ERBinary" value="0"/></DerivedField></NeuralOutput><NeuralOutput outputNeuron="40"><DerivedField optype="categorical"><NormDiscrete field="ERBinary" value="1"/></DerivedField></NeuralOutput></NeuralOutputs></NeuralNetwork></PMML>
