<?xml version="1.0" encoding="UTF-8"?>
<PMML version="3.0"><Header copyright="Copyright 1984-2018 TIBCO Software Inc. All rights reserved."><Application name="STATISTICA Automated Neural Networks (SANN)" version="2.0"/></Header><DataDictionary numberOfFields="22"><DataField name="LuminalA" optype="categorical"><Value value="0"/><Value value="1"/></DataField><DataField name="44" optype="continuous"/><DataField name="137" optype="continuous"/><DataField name="323" optype="continuous"/><DataField name="791" optype="continuous"/><DataField name="456" optype="continuous"/><DataField name="695" optype="continuous"/><DataField name="177" optype="continuous"/><DataField name="699" optype="continuous"/><DataField name="47" optype="continuous"/><DataField name="708" optype="continuous"/><DataField name="57" optype="continuous"/><DataField name="796" optype="continuous"/><DataField name="693" optype="continuous"/><DataField name="451" optype="continuous"/><DataField name="469" optype="continuous"/><DataField name="190" optype="continuous"/><DataField name="233" optype="continuous"/><DataField name="321" optype="continuous"/><DataField name="131" optype="continuous"/><DataField name="655" optype="continuous"/><DataField name="96" optype="continuous"/></DataDictionary><NeuralNetwork modelName="BreastOve_RBF 21-9-2" functionName="classification"><MiningSchema><MiningField name="LuminalA" usageType="predicted"/><MiningField name="44" lowValue="0.968717" highValue="0.996985"/><MiningField name="137" lowValue="0.967752" highValue="0.995105"/><MiningField name="323" lowValue="0.958320" highValue="0.995248"/><MiningField name="791" lowValue="0.935052" highValue="0.999976"/><MiningField name="456" lowValue="0.893096" highValue="0.985359"/><MiningField name="695" lowValue="0.901697" highValue="0.996029"/><MiningField name="177" lowValue="0.714180" highValue="0.964295"/><MiningField name="699" lowValue="0.375063" highValue="0.509834"/><MiningField name="47" lowValue="0.812827" highValue="0.998625"/><MiningField name="708" lowValue="4.577124" highValue="5.933515"/><MiningField name="57" lowValue="5.618390" highValue="7.934506"/><MiningField name="796" lowValue="0.773518" highValue="0.989279"/><MiningField name="693" lowValue="0.463123" highValue="0.793791"/><MiningField name="451" lowValue="3.976110" highValue="6.196453"/><MiningField name="469" lowValue="0.510890" highValue="0.856427"/><MiningField name="190" lowValue="0.358889" highValue="0.696488"/><MiningField name="233" lowValue="0.547888" highValue="0.995284"/><MiningField name="321" lowValue="0.419801" highValue="0.791608"/><MiningField name="131" lowValue="0.399719" highValue="0.674622"/><MiningField name="655" lowValue="0.324685" highValue="0.775048"/><MiningField name="96" lowValue="0.257985" highValue="0.649573"/></MiningSchema><NeuralInputs numberOfInputs="21"><NeuralInput id="0"><DerivedField><NormContinuous field="44" shift="-3.42697077757122e+001" scale="3.53763793863730e+001"><LinearNorm orig="9.68717216689306e-001" norm="0.000000"/><LinearNorm orig="9.96984665686226e-001" norm="1.000000"/></NormContinuous></DerivedField></NeuralInput><NeuralInput id="1"><DerivedField><NormContinuous field="137" shift="-3.53799961939756e+001" scale="3.65589599714144e+001"><LinearNorm orig="9.67751714535627e-001" norm="0.000000"/><LinearNorm orig="9.95104790246257e-001" norm="1.000000"/></NormContinuous></DerivedField></NeuralInput><NeuralInput id="2"><DerivedField><NormContinuous field="323" shift="-2.59511242978377e+001" scale="2.70798196957317e+001"><LinearNorm orig="9.58319685633950e-001" norm="0.000000"/><LinearNorm orig="9.95247553368521e-001" norm="1.000000"/></NormContinuous></DerivedField></NeuralInput><NeuralInput id="3"><DerivedField><NormContinuous field="791" shift="-1.44020842458250e+001" scale="1.54024485246819e+001"><LinearNorm orig="9.35051607070537e-001" norm="0.000000"/><LinearNorm orig="9.99976349289122e-001" norm="1.000000"/></NormContinuous></DerivedField></NeuralInput><NeuralInput id="4"><DerivedField><NormContinuous field="456" shift="-9.67987183333937e+000" scale="1.08385594832366e+001"><LinearNorm orig="8.93095789003204e-001" norm="0.000000"/><LinearNorm orig="9.85358972274619e-001" norm="1.000000"/></NormContinuous></DerivedField></NeuralInput><NeuralInput id="5"><DerivedField><NormContinuous field="695" shift="-9.55872572324474e+000" scale="1.06008180074160e+001"><LinearNorm orig="9.01696993246911e-001" norm="0.000000"/><LinearNorm orig="9.96029336213315e-001" norm="1.000000"/></NormContinuous></DerivedField></NeuralInput><NeuralInput id="6"><DerivedField><NormContinuous field="177" shift="-2.85541230954823e+000" scale="3.99816798581748e+000"><LinearNorm orig="7.14180174439168e-001" norm="0.000000"/><LinearNorm orig="9.64294727791417e-001" norm="1.000000"/></NormContinuous></DerivedField></NeuralInput><NeuralInput id="7"><DerivedField><NormContinuous field="699" shift="-2.78296228912754e+000" scale="7.41998841612252e+000"><LinearNorm orig="3.75062888653650e-001" norm="0.000000"/><LinearNorm orig="5.09833988542048e-001" norm="1.000000"/></NormContinuous></DerivedField></NeuralInput><NeuralInput id="8"><DerivedField><NormContinuous field="47" shift="-4.37477386237041e+000" scale="5.38217340929835e+000"><LinearNorm orig="8.12826627773172e-001" norm="0.000000"/><LinearNorm orig="9.98625174931163e-001" norm="1.000000"/></NormContinuous></DerivedField></NeuralInput><NeuralInput id="9"><DerivedField><NormContinuous field="708" shift="-3.37448917107566e+000" scale="7.37250907973796e-001"><LinearNorm orig="4.57712446953758e+000" norm="0.000000"/><LinearNorm orig="5.93351479633734e+000" norm="1.000000"/></NormContinuous></DerivedField></NeuralInput><NeuralInput id="10"><DerivedField><NormContinuous field="57" shift="-2.42578065237551e+000" scale="4.31757282442329e-001"><LinearNorm orig="5.61838966248249e+000" norm="0.000000"/><LinearNorm orig="7.93450577833185e+000" norm="1.000000"/></NormContinuous></DerivedField></NeuralInput><NeuralInput id="11"><DerivedField><NormContinuous field="796" shift="-3.58505806008939e+000" scale="4.63474680269826e+000"><LinearNorm orig="7.73517564757202e-001" norm="0.000000"/><LinearNorm orig="9.89279081528262e-001" norm="1.000000"/></NormContinuous></DerivedField></NeuralInput><NeuralInput id="12"><DerivedField><NormContinuous field="693" shift="-1.40056677583595e+000" scale="3.02417991662075e+000"><LinearNorm orig="4.63122834768694e-001" norm="0.000000"/><LinearNorm orig="7.93790991945470e-001" norm="1.000000"/></NormContinuous></DerivedField></NeuralInput><NeuralInput id="13"><DerivedField><NormContinuous field="451" shift="-1.79076438404387e+000" scale="4.50380945302408e-001"><LinearNorm orig="3.97611045210063e+000" norm="0.000000"/><LinearNorm orig="6.19645305413622e+000" norm="1.000000"/></NormContinuous></DerivedField></NeuralInput><NeuralInput id="14"><DerivedField><NormContinuous field="469" shift="-1.47854215227703e+000" scale="2.89404987700615e+000"><LinearNorm orig="5.10890349203849e-001" norm="0.000000"/><LinearNorm orig="8.56426895738591e-001" norm="1.000000"/></NormContinuous></DerivedField></NeuralInput><NeuralInput id="15"><DerivedField><NormContinuous field="190" shift="-1.06306202400678e+000" scale="2.96209180561113e+000"><LinearNorm orig="3.58888952055100e-001" norm="0.000000"/><LinearNorm orig="6.96488211506035e-001" norm="1.000000"/></NormContinuous></DerivedField></NeuralInput><NeuralInput id="16"><DerivedField><NormContinuous field="233" shift="-1.22461568228419e+000" scale="2.23515731686186e+000"><LinearNorm orig="5.47887915112632e-001" norm="0.000000"/><LinearNorm orig="9.95283716945494e-001" norm="1.000000"/></NormContinuous></DerivedField></NeuralInput><NeuralInput id="17"><DerivedField><NormContinuous field="321" shift="-1.12908159027316e+000" scale="2.68956569791840e+000"><LinearNorm orig="4.19800710258543e-001" norm="0.000000"/><LinearNorm orig="7.91607950652022e-001" norm="1.000000"/></NormContinuous></DerivedField></NeuralInput><NeuralInput id="18"><DerivedField><NormContinuous field="131" shift="-1.45403675640379e+000" scale="3.63764459410134e+000"><LinearNorm orig="3.99719301539682e-001" norm="0.000000"/><LinearNorm orig="6.74622463223361e-001" norm="1.000000"/></NormContinuous></DerivedField></NeuralInput><NeuralInput id="19"><DerivedField><NormContinuous field="655" shift="-7.20942168268923e-001" scale="2.22043287696592e+000"><LinearNorm orig="3.24685414158543e-001" norm="0.000000"/><LinearNorm orig="7.75048048568117e-001" norm="1.000000"/></NormContinuous></DerivedField></NeuralInput><NeuralInput id="20"><DerivedField><NormContinuous field="96" shift="-6.58817495679879e-001" scale="2.55370485366613e+000"><LinearNorm orig="2.57984980031688e-001" norm="0.000000"/><LinearNorm orig="6.49572911019245e-001" norm="1.000000"/></NormContinuous></DerivedField></NeuralInput></NeuralInputs><NeuralLayer numberOfNeurons="9" activationFunction="radialBasis"><Neuron id="21" width="8.14717867083169e-001"><Con from="0" weight="7.31310553906674e-001"/><Con from="1" weight="8.25889170585889e-001"/><Con from="2" weight="6.92919829508540e-001"/><Con from="3" weight="9.78865113058898e-001"/><Con from="4" weight="9.43648635545072e-001"/><Con from="5" weight="8.82660388410974e-001"/><Con from="6" weight="9.23124512492431e-001"/><Con from="7" weight="3.91957877787077e-001"/><Con from="8" weight="8.05459692772954e-001"/><Con from="9" weight="8.78283561223623e-001"/><Con from="10" weight="6.61732544213383e-001"/><Con from="11" weight="8.41839945096835e-001"/><Con from="12" weight="2.36152950578141e-001"/><Con from="13" weight="9.46680028016576e-001"/><Con from="14" weight="8.82504326546128e-001"/><Con from="15" weight="9.31349188847133e-001"/><Con from="16" weight="8.89356771152060e-001"/><Con from="17" weight="2.11063687250476e-001"/><Con from="18" weight="5.24248926853347e-001"/><Con from="19" weight="1.00000000000000e+000"/><Con from="20" weight="8.07467721348147e-001"/></Neuron><Neuron id="22" width="8.93575285460478e-001"><Con from="0" weight="8.66054576174207e-001"/><Con from="1" weight="8.61427545881121e-001"/><Con from="2" weight="8.68875798634445e-001"/><Con from="3" weight="5.20917334952856e-001"/><Con from="4" weight="8.32467225910152e-001"/><Con from="5" weight="9.74438005779966e-001"/><Con from="6" weight="7.90811279183902e-001"/><Con from="7" weight="7.65553926798888e-001"/><Con from="8" weight="1.00992525191505e-001"/><Con from="9" weight="5.97742820751982e-001"/><Con from="10" weight="6.90305000980314e-001"/><Con from="11" weight="2.01442951332846e-001"/><Con from="12" weight="7.14893561780372e-001"/><Con from="13" weight="6.89484323878090e-001"/><Con from="14" weight="6.85878671543421e-001"/><Con from="15" weight="7.32214120962135e-001"/><Con from="16" weight="3.65818154288088e-001"/><Con from="17" weight="5.54879859767884e-001"/><Con from="18" weight="3.93432983177948e-001"/><Con from="19" weight="8.30286314204691e-001"/><Con from="20" weight="5.06054032810936e-001"/></Neuron><Neuron id="23" width="1.50388280292843e+000"><Con from="0" weight="4.57288378188494e-001"/><Con from="1" weight="7.85155814514567e-001"/><Con from="2" weight="4.42153268074087e-001"/><Con from="3" weight="8.29527391041573e-001"/><Con from="4" weight="0.00000000000000e+000"/><Con from="5" weight="7.95509299610746e-002"/><Con from="6" weight="3.12267506284125e-001"/><Con from="7" weight="5.85667229857863e-001"/><Con from="8" weight="4.70021509872852e-001"/><Con from="9" weight="2.93216046558784e-001"/><Con from="10" weight="3.24198144994922e-001"/><Con from="11" weight="1.57801703468106e-001"/><Con from="12" weight="9.37133515310185e-001"/><Con from="13" weight="0.00000000000000e+000"/><Con from="14" weight="2.46250325318317e-001"/><Con from="15" weight="2.70505652914450e-001"/><Con from="16" weight="9.38158060621783e-002"/><Con from="17" weight="1.00000000000000e+000"/><Con from="18" weight="6.44987919185596e-001"/><Con from="19" weight="1.70261445144621e-001"/><Con from="20" weight="0.00000000000000e+000"/></Neuron><Neuron id="24" width="8.56224362240450e-001"><Con from="0" weight="5.24673928937673e-001"/><Con from="1" weight="8.00006165723914e-001"/><Con from="2" weight="8.30295964214429e-001"/><Con from="3" weight="9.47491967637086e-001"/><Con from="4" weight="8.69388651138344e-001"/><Con from="5" weight="8.69653342655459e-001"/><Con from="6" weight="8.92468536519754e-001"/><Con from="7" weight="7.71827088739975e-001"/><Con from="8" weight="6.20238619017873e-001"/><Con from="9" weight="5.73851303251540e-001"/><Con from="10" weight="6.28939120194903e-001"/><Con from="11" weight="1.08431520983256e-001"/><Con from="12" weight="7.12052576209945e-001"/><Con from="13" weight="7.19169147164064e-001"/><Con from="14" weight="6.93600513565292e-001"/><Con from="15" weight="8.11027143014313e-001"/><Con from="16" weight="7.36690912449557e-001"/><Con from="17" weight="5.86607761951579e-001"/><Con from="18" weight="5.91671684848935e-001"/><Con from="19" weight="8.54025388007745e-001"/><Con from="20" weight="5.67800235888368e-001"/></Neuron><Neuron id="25" width="1.14682209048125e+000"><Con from="0" weight="0.00000000000000e+000"/><Con from="1" weight="5.40764878938802e-002"/><Con from="2" weight="5.14093341359327e-001"/><Con from="3" weight="9.99875028377900e-001"/><Con from="4" weight="8.85636271108789e-001"/><Con from="5" weight="6.83177761473688e-001"/><Con from="6" weight="9.33186516736354e-001"/><Con from="7" weight="8.18577329500290e-001"/><Con from="8" weight="9.97644817212397e-001"/><Con from="9" weight="1.90188649752672e-001"/><Con from="10" weight="2.99201330076288e-001"/><Con from="11" weight="9.75566722014381e-001"/><Con from="12" weight="8.43276154504964e-001"/><Con from="13" weight="5.65108431654667e-001"/><Con from="14" weight="8.14152768184352e-001"/><Con from="15" weight="7.17835288057503e-001"/><Con from="16" weight="9.81937986652113e-001"/><Con from="17" weight="6.79213727336726e-001"/><Con from="18" weight="5.60812884464156e-001"/><Con from="19" weight="5.85834107645539e-001"/><Con from="20" weight="1.00000000000000e+000"/></Neuron><Neuron id="26" width="8.14717867083169e-001"><Con from="0" weight="7.05240208040323e-001"/><Con from="1" weight="7.02388022747435e-001"/><Con from="2" weight="8.42168950895065e-001"/><Con from="3" weight="9.74762530786830e-001"/><Con from="4" weight="8.34448313159516e-001"/><Con from="5" weight="9.69567256109334e-001"/><Con from="6" weight="1.01671627305725e+000"/><Con from="7" weight="4.97398621335594e-001"/><Con from="8" weight="7.32088606861335e-001"/><Con from="9" weight="9.46641299507384e-001"/><Con from="10" weight="6.26751229962327e-001"/><Con from="11" weight="6.00842700587886e-001"/><Con from="12" weight="3.40630901455873e-001"/><Con from="13" weight="6.06717199771583e-001"/><Con from="14" weight="6.49009351563591e-001"/><Con from="15" weight="1.11423586821278e+000"/><Con from="16" weight="7.75393129332835e-001"/><Con from="17" weight="9.78573105419658e-002"/><Con from="18" weight="5.06514521486390e-002"/><Con from="19" weight="8.81230308297336e-001"/><Con from="20" weight="6.12109789864743e-001"/></Neuron><Neuron id="27" width="8.56224362240450e-001"><Con from="0" weight="5.89840822420477e-001"/><Con from="1" weight="4.98667839886707e-001"/><Con from="2" weight="7.35737179595546e-001"/><Con from="3" weight="9.93468499561720e-001"/><Con from="4" weight="9.16770378001834e-001"/><Con from="5" weight="8.39082817079143e-001"/><Con from="6" weight="9.30170685029356e-001"/><Con from="7" weight="7.78386233594241e-001"/><Con from="8" weight="8.83252064586213e-001"/><Con from="9" weight="5.17633885557110e-001"/><Con from="10" weight="5.59037598640861e-001"/><Con from="11" weight="6.40224820483559e-001"/><Con from="12" weight="6.71019707031526e-001"/><Con from="13" weight="7.49191842787424e-001"/><Con from="14" weight="8.45898010118684e-001"/><Con from="15" weight="7.92511498643014e-001"/><Con from="16" weight="8.13686678230308e-001"/><Con from="17" weight="4.47000043840233e-001"/><Con from="18" weight="1.93619771963556e-001"/><Con from="19" weight="8.39871992259222e-001"/><Con from="20" weight="7.96176798714598e-001"/></Neuron><Neuron id="28" width="1.22404400139729e+000"><Con from="0" weight="7.32979338135181e-001"/><Con from="1" weight="8.84864041597361e-001"/><Con from="2" weight="8.75172974106789e-001"/><Con from="3" weight="8.65050376659795e-001"/><Con from="4" weight="3.13285430799484e-001"/><Con from="5" weight="8.79982832742227e-001"/><Con from="6" weight="7.69500815051099e-001"/><Con from="7" weight="7.39747283727890e-001"/><Con from="8" weight="6.58721232215363e-001"/><Con from="9" weight="2.19936345597103e-001"/><Con from="10" weight="8.11906781984240e-001"/><Con from="11" weight="3.82144929086770e-001"/><Con from="12" weight="8.95461495004390e-001"/><Con from="13" weight="3.83436016696380e-001"/><Con from="14" weight="3.19022411658020e-001"/><Con from="15" weight="7.11252666294520e-001"/><Con from="16" weight="2.12257523309199e-001"/><Con from="17" weight="8.25938293646673e-001"/><Con from="18" weight="8.82668410027847e-001"/><Con from="19" weight="5.17282538384457e-001"/><Con from="20" weight="3.41444335460997e-001"/></Neuron><Neuron id="29" width="1.18475767238444e+000"><Con from="0" weight="8.04358827831479e-001"/><Con from="1" weight="5.05897014846354e-001"/><Con from="2" weight="5.26302006219993e-001"/><Con from="3" weight="9.61956871240551e-001"/><Con from="4" weight="4.97914863959609e-001"/><Con from="5" weight="6.84320680773830e-001"/><Con from="6" weight="8.45021911568861e-001"/><Con from="7" weight="6.88128469014166e-001"/><Con from="8" weight="8.12787877613643e-001"/><Con from="9" weight="-9.39613323738584e-002"/><Con from="10" weight="5.05777413146815e-001"/><Con from="11" weight="8.22282839735088e-001"/><Con from="12" weight="9.13084951760288e-001"/><Con from="13" weight="1.40227180207010e-001"/><Con from="14" weight="5.22153087141044e-001"/><Con from="15" weight="6.52512516934777e-001"/><Con from="16" weight="6.08855022905991e-001"/><Con from="17" weight="6.46118992509475e-001"/><Con from="18" weight="1.16836750850929e-001"/><Con from="19" weight="7.52497419656732e-001"/><Con from="20" weight="6.11887982098601e-001"/></Neuron></NeuralLayer><NeuralLayer numberOfNeurons="2" normalizationMethod="softmax"><Neuron id="30" bias="2.88800348882391e-001"><Con from="21" weight="-1.02699006140602e-002"/><Con from="22" weight="2.44134640070427e-005"/><Con from="23" weight="8.84085744324432e-014"/><Con from="24" weight="-3.14266771790696e-003"/><Con from="25" weight="-1.08422163092281e-008"/><Con from="26" weight="-1.62672036202660e-002"/><Con from="27" weight="-5.67712123770771e-003"/><Con from="28" weight="4.15021578636698e-010"/><Con from="29" weight="-6.69092723001941e-010"/></Neuron><Neuron id="31" bias="-3.17715599221573e-002"><Con from="21" weight="1.02699337343115e-002"/><Con from="22" weight="-2.44059450934371e-005"/><Con from="23" weight="5.51716016880507e-014"/><Con from="24" weight="3.14269776645553e-003"/><Con from="25" weight="1.08980808988350e-008"/><Con from="26" weight="1.62671907898358e-002"/><Con from="27" weight="5.67715697604913e-003"/><Con from="28" weight="-4.06014438191762e-010"/><Con from="29" weight="6.77001872425222e-010"/></Neuron></NeuralLayer><NeuralOutputs numberOfOutputs="2"><NeuralOutput outputNeuron="30"><DerivedField optype="categorical"><NormDiscrete field="LuminalA" value="0"/></DerivedField></NeuralOutput><NeuralOutput outputNeuron="31"><DerivedField optype="categorical"><NormDiscrete field="LuminalA" value="1"/></DerivedField></NeuralOutput></NeuralOutputs></NeuralNetwork></PMML>
