<?xml version="1.0" encoding="UTF-8"?>
<PMML version="3.0"><Header copyright="Copyright 1984-2018 TIBCO Software Inc. All rights reserved."><Application name="STATISTICA Automated Neural Networks (SANN)" version="2.0"/></Header><DataDictionary numberOfFields="22"><DataField name="ERBinary" optype="categorical"><Value value="0"/><Value value="1"/></DataField><DataField name="44" optype="continuous"/><DataField name="137" optype="continuous"/><DataField name="323" optype="continuous"/><DataField name="602" optype="continuous"/><DataField name="791" optype="continuous"/><DataField name="456" optype="continuous"/><DataField name="695" optype="continuous"/><DataField name="177" optype="continuous"/><DataField name="699" optype="continuous"/><DataField name="708" optype="continuous"/><DataField name="57" optype="continuous"/><DataField name="615" optype="continuous"/><DataField name="796" optype="continuous"/><DataField name="693" optype="continuous"/><DataField name="513" optype="continuous"/><DataField name="233" optype="continuous"/><DataField name="321" optype="continuous"/><DataField name="131" optype="continuous"/><DataField name="424" optype="continuous"/><DataField name="96" optype="continuous"/><DataField name="782" optype="continuous"/></DataDictionary><NeuralNetwork modelName="BreastOve_RBF 21-9-2" functionName="classification"><MiningSchema><MiningField name="ERBinary" usageType="predicted"/><MiningField name="44" lowValue="0.968717" highValue="0.996985"/><MiningField name="137" lowValue="0.967752" highValue="0.995105"/><MiningField name="323" lowValue="0.958320" highValue="0.995248"/><MiningField name="602" lowValue="0.958106" highValue="0.998053"/><MiningField name="791" lowValue="0.935052" highValue="0.999976"/><MiningField name="456" lowValue="0.893096" highValue="0.985359"/><MiningField name="695" lowValue="0.901697" highValue="0.996029"/><MiningField name="177" lowValue="0.714180" highValue="0.964295"/><MiningField name="699" lowValue="0.375063" highValue="0.509834"/><MiningField name="708" lowValue="4.449676" highValue="5.933515"/><MiningField name="57" lowValue="5.618390" highValue="7.934506"/><MiningField name="615" lowValue="5.139541" highValue="6.743869"/><MiningField name="796" lowValue="0.773518" highValue="0.989279"/><MiningField name="693" lowValue="0.463123" highValue="0.793791"/><MiningField name="513" lowValue="0.256775" highValue="0.512025"/><MiningField name="233" lowValue="0.547888" highValue="0.997587"/><MiningField name="321" lowValue="0.340034" highValue="0.791608"/><MiningField name="131" lowValue="0.399719" highValue="0.674622"/><MiningField name="424" lowValue="0.500046" highValue="0.900685"/><MiningField name="96" lowValue="0.257985" highValue="0.649573"/><MiningField name="782" lowValue="0.394238" highValue="0.894682"/></MiningSchema><NeuralInputs numberOfInputs="21"><NeuralInput id="0"><DerivedField><NormContinuous field="44" shift="-3.42697077757124e+001" scale="3.53763793863732e+001"><LinearNorm orig="9.68717216689306e-001" norm="0.000000"/><LinearNorm orig="9.96984665686226e-001" norm="1.000000"/></NormContinuous></DerivedField></NeuralInput><NeuralInput id="1"><DerivedField><NormContinuous field="137" shift="-3.53799961939758e+001" scale="3.65589599714146e+001"><LinearNorm orig="9.67751714535627e-001" norm="0.000000"/><LinearNorm orig="9.95104790246257e-001" norm="1.000000"/></NormContinuous></DerivedField></NeuralInput><NeuralInput id="2"><DerivedField><NormContinuous field="323" shift="-2.59511242978377e+001" scale="2.70798196957317e+001"><LinearNorm orig="9.58319685633950e-001" norm="0.000000"/><LinearNorm orig="9.95247553368521e-001" norm="1.000000"/></NormContinuous></DerivedField></NeuralInput><NeuralInput id="3"><DerivedField><NormContinuous field="602" shift="-2.39845228884647e+001" scale="2.50332658751503e+001"><LinearNorm orig="9.58106026120761e-001" norm="0.000000"/><LinearNorm orig="9.98052871449986e-001" norm="1.000000"/></NormContinuous></DerivedField></NeuralInput><NeuralInput id="4"><DerivedField><NormContinuous field="791" shift="-1.44020842458250e+001" scale="1.54024485246819e+001"><LinearNorm orig="9.35051607070537e-001" norm="0.000000"/><LinearNorm orig="9.99976349289122e-001" norm="1.000000"/></NormContinuous></DerivedField></NeuralInput><NeuralInput id="5"><DerivedField><NormContinuous field="456" shift="-9.67987183333937e+000" scale="1.08385594832366e+001"><LinearNorm orig="8.93095789003204e-001" norm="0.000000"/><LinearNorm orig="9.85358972274619e-001" norm="1.000000"/></NormContinuous></DerivedField></NeuralInput><NeuralInput id="6"><DerivedField><NormContinuous field="695" shift="-9.55872572324478e+000" scale="1.06008180074161e+001"><LinearNorm orig="9.01696993246911e-001" norm="0.000000"/><LinearNorm orig="9.96029336213315e-001" norm="1.000000"/></NormContinuous></DerivedField></NeuralInput><NeuralInput id="7"><DerivedField><NormContinuous field="177" shift="-2.85541230954823e+000" scale="3.99816798581748e+000"><LinearNorm orig="7.14180174439168e-001" norm="0.000000"/><LinearNorm orig="9.64294727791417e-001" norm="1.000000"/></NormContinuous></DerivedField></NeuralInput><NeuralInput id="8"><DerivedField><NormContinuous field="699" shift="-2.78296228912754e+000" scale="7.41998841612252e+000"><LinearNorm orig="3.75062888653650e-001" norm="0.000000"/><LinearNorm orig="5.09833988542048e-001" norm="1.000000"/></NormContinuous></DerivedField></NeuralInput><NeuralInput id="9"><DerivedField><NormContinuous field="708" shift="-2.99876032325856e+000" scale="6.73927757916257e-001"><LinearNorm orig="4.44967622721246e+000" norm="0.000000"/><LinearNorm orig="5.93351479633734e+000" norm="1.000000"/></NormContinuous></DerivedField></NeuralInput><NeuralInput id="10"><DerivedField><NormContinuous field="57" shift="-2.42578065237551e+000" scale="4.31757282442329e-001"><LinearNorm orig="5.61838966248249e+000" norm="0.000000"/><LinearNorm orig="7.93450577833185e+000" norm="1.000000"/></NormContinuous></DerivedField></NeuralInput><NeuralInput id="11"><DerivedField><NormContinuous field="615" shift="-3.20354670408359e+000" scale="6.23313789813874e-001"><LinearNorm orig="5.13954088042908e+000" norm="0.000000"/><LinearNorm orig="6.74386925618764e+000" norm="1.000000"/></NormContinuous></DerivedField></NeuralInput><NeuralInput id="12"><DerivedField><NormContinuous field="796" shift="-3.58505806008939e+000" scale="4.63474680269826e+000"><LinearNorm orig="7.73517564757202e-001" norm="0.000000"/><LinearNorm orig="9.89279081528262e-001" norm="1.000000"/></NormContinuous></DerivedField></NeuralInput><NeuralInput id="13"><DerivedField><NormContinuous field="693" shift="-1.40056677583595e+000" scale="3.02417991662075e+000"><LinearNorm orig="4.63122834768694e-001" norm="0.000000"/><LinearNorm orig="7.93790991945470e-001" norm="1.000000"/></NormContinuous></DerivedField></NeuralInput><NeuralInput id="14"><DerivedField><NormContinuous field="513" shift="-1.00597088869194e+000" scale="3.91771766879679e+000"><LinearNorm orig="2.56774727975968e-001" norm="0.000000"/><LinearNorm orig="5.12025382704010e-001" norm="1.000000"/></NormContinuous></DerivedField></NeuralInput><NeuralInput id="15"><DerivedField><NormContinuous field="233" shift="-1.21834235213445e+000" scale="2.22370729218218e+000"><LinearNorm orig="5.47887915112632e-001" norm="0.000000"/><LinearNorm orig="9.97587389281587e-001" norm="1.000000"/></NormContinuous></DerivedField></NeuralInput><NeuralInput id="16"><DerivedField><NormContinuous field="321" shift="-7.52998721465088e-001" scale="2.21447841702600e+000"><LinearNorm orig="3.40034346542130e-001" norm="0.000000"/><LinearNorm orig="7.91607950652022e-001" norm="1.000000"/></NormContinuous></DerivedField></NeuralInput><NeuralInput id="17"><DerivedField><NormContinuous field="131" shift="-1.45403675640379e+000" scale="3.63764459410134e+000"><LinearNorm orig="3.99719301539682e-001" norm="0.000000"/><LinearNorm orig="6.74622463223361e-001" norm="1.000000"/></NormContinuous></DerivedField></NeuralInput><NeuralInput id="18"><DerivedField><NormContinuous field="424" shift="-1.24812175055333e+000" scale="2.49601246228632e+000"><LinearNorm orig="5.00046281583890e-001" norm="0.000000"/><LinearNorm orig="9.00685306873055e-001" norm="1.000000"/></NormContinuous></DerivedField></NeuralInput><NeuralInput id="19"><DerivedField><NormContinuous field="96" shift="-6.58817495679879e-001" scale="2.55370485366613e+000"><LinearNorm orig="2.57984980031688e-001" norm="0.000000"/><LinearNorm orig="6.49572911019245e-001" norm="1.000000"/></NormContinuous></DerivedField></NeuralInput><NeuralInput id="20"><DerivedField><NormContinuous field="782" shift="-7.87774917934475e-001" scale="1.99822399000273e+000"><LinearNorm orig="3.94237543876849e-001" norm="0.000000"/><LinearNorm orig="8.94681941003036e-001" norm="1.000000"/></NormContinuous></DerivedField></NeuralInput></NeuralInputs><NeuralLayer numberOfNeurons="9" activationFunction="radialBasis"><Neuron id="21" width="6.58703257402956e-001"><Con from="0" weight="3.68601293873922e-001"/><Con from="1" weight="4.88734191878009e-001"/><Con from="2" weight="6.52905158886274e-001"/><Con from="3" weight="5.84858166891465e-001"/><Con from="4" weight="9.56491173960590e-001"/><Con from="5" weight="7.48460762995538e-001"/><Con from="6" weight="6.49227620619765e-001"/><Con from="7" weight="8.10096775748025e-001"/><Con from="8" weight="7.83345931024954e-001"/><Con from="9" weight="3.44659815951334e-001"/><Con from="10" weight="3.54308918526444e-001"/><Con from="11" weight="5.14004984377368e-001"/><Con from="12" weight="3.61789737368042e-001"/><Con from="13" weight="8.79877503461556e-001"/><Con from="14" weight="9.14737002566593e-001"/><Con from="15" weight="7.68710590757427e-001"/><Con from="16" weight="8.67101037001974e-001"/><Con from="17" weight="6.63538005435901e-001"/><Con from="18" weight="5.56108651526650e-001"/><Con from="19" weight="4.79674480588741e-001"/><Con from="20" weight="3.33833984566013e-001"/></Neuron><Neuron id="22" width="6.58703257402956e-001"><Con from="0" weight="2.80019069702270e-001"/><Con from="1" weight="3.61616778717909e-001"/><Con from="2" weight="2.41735639539968e-001"/><Con from="3" weight="2.60438808742546e-001"/><Con from="4" weight="9.89341678341072e-001"/><Con from="5" weight="8.69128325374049e-001"/><Con from="6" weight="6.53728240035610e-001"/><Con from="7" weight="8.36719753543503e-001"/><Con from="8" weight="8.24351263693415e-001"/><Con from="9" weight="2.80094868750884e-001"/><Con from="10" weight="3.62246539132997e-001"/><Con from="11" weight="3.74927274290986e-001"/><Con from="12" weight="4.50813145767505e-001"/><Con from="13" weight="8.18704150180724e-001"/><Con from="14" weight="8.09241498937112e-001"/><Con from="15" weight="8.29082108854947e-001"/><Con from="16" weight="7.03389941812139e-001"/><Con from="17" weight="6.50866035552814e-001"/><Con from="18" weight="4.57644711486737e-001"/><Con from="19" weight="5.70580114618726e-001"/><Con from="20" weight="4.84131188939198e-001"/></Neuron><Neuron id="23" width="5.67522844803688e-001"><Con from="0" weight="6.79049645064943e-001"/><Con from="1" weight="5.98589481388046e-001"/><Con from="2" weight="6.60091616456675e-001"/><Con from="3" weight="7.51501630582375e-001"/><Con from="4" weight="9.89384006902753e-001"/><Con from="5" weight="9.80774502043952e-001"/><Con from="6" weight="8.99005177795180e-001"/><Con from="7" weight="9.19027922729520e-001"/><Con from="8" weight="5.96218417905010e-001"/><Con from="9" weight="7.85986589036530e-001"/><Con from="10" weight="5.17734276396711e-001"/><Con from="11" weight="7.77247393448514e-001"/><Con from="12" weight="4.32046233258669e-001"/><Con from="13" weight="4.14840801039785e-001"/><Con from="14" weight="3.95334707267277e-001"/><Con from="15" weight="9.04380989605026e-001"/><Con from="16" weight="4.01675434641476e-001"/><Con from="17" weight="1.02202114150214e-001"/><Con from="18" weight="4.95214735146433e-001"/><Con from="19" weight="7.79192519418219e-001"/><Con from="20" weight="3.46166257110326e-001"/></Neuron><Neuron id="24" width="8.39751739239183e-001"><Con from="0" weight="7.47963992659784e-001"/><Con from="1" weight="8.33288152539794e-001"/><Con from="2" weight="7.86412485509572e-001"/><Con from="3" weight="7.12014186669037e-001"/><Con from="4" weight="9.94345456302678e-001"/><Con from="5" weight="7.82384220723868e-001"/><Con from="6" weight="8.82904418350464e-001"/><Con from="7" weight="8.17055356893773e-001"/><Con from="8" weight="8.38033349861437e-001"/><Con from="9" weight="4.80205789164908e-001"/><Con from="10" weight="1.00000000000000e+000"/><Con from="11" weight="8.32368162996304e-001"/><Con from="12" weight="6.99598656285473e-001"/><Con from="13" weight="8.10706334938416e-001"/><Con from="14" weight="8.55533427949994e-001"/><Con from="15" weight="6.66293055853662e-001"/><Con from="16" weight="6.06340647294932e-001"/><Con from="17" weight="7.31068750328078e-001"/><Con from="18" weight="4.18013536270933e-001"/><Con from="19" weight="7.97473661385316e-001"/><Con from="20" weight="9.07023404988961e-001"/></Neuron><Neuron id="25" width="6.80766998804060e-001"><Con from="0" weight="4.37479455994691e-001"/><Con from="1" weight="2.27119271081484e-001"/><Con from="2" weight="3.67975736078659e-001"/><Con from="3" weight="1.67360441860030e-001"/><Con from="4" weight="9.95106155661782e-001"/><Con from="5" weight="7.87798939342098e-001"/><Con from="6" weight="6.64632902271396e-001"/><Con from="7" weight="9.42219885214629e-001"/><Con from="8" weight="9.51216520872618e-001"/><Con from="9" weight="1.26933542449390e-001"/><Con from="10" weight="2.68914493960622e-001"/><Con from="11" weight="2.34892003308599e-001"/><Con from="12" weight="8.35453634186490e-001"/><Con from="13" weight="8.09763431952908e-001"/><Con from="14" weight="7.83999248522196e-001"/><Con from="15" weight="9.58054361124880e-001"/><Con from="16" weight="5.75821559556004e-001"/><Con from="17" weight="3.89578581072308e-001"/><Con from="18" weight="6.27424537310545e-001"/><Con from="19" weight="6.47767154664650e-001"/><Con from="20" weight="3.24249109177377e-001"/></Neuron><Neuron id="26" width="4.55620864960739e-001"><Con from="0" weight="5.89840822420477e-001"/><Con from="1" weight="4.98667839886707e-001"/><Con from="2" weight="7.35737179595546e-001"/><Con from="3" weight="7.49428104836920e-001"/><Con from="4" weight="9.93468499561720e-001"/><Con from="5" weight="9.16770378001832e-001"/><Con from="6" weight="8.39082817079145e-001"/><Con from="7" weight="9.30170685029356e-001"/><Con from="8" weight="7.78386233594241e-001"/><Con from="9" weight="5.59064749211773e-001"/><Con from="10" weight="5.59037598640861e-001"/><Con from="11" weight="6.45697436285044e-001"/><Con from="12" weight="6.40224820483559e-001"/><Con from="13" weight="6.71019707031526e-001"/><Con from="14" weight="5.68001291614693e-001"/><Con from="15" weight="8.09518411201866e-001"/><Con from="16" weight="5.44682448738873e-001"/><Con from="17" weight="1.93619771963556e-001"/><Con from="18" weight="4.75072196672124e-001"/><Con from="19" weight="7.96176798714598e-001"/><Con from="20" weight="4.44217430370645e-001"/></Neuron><Neuron id="27" width="4.55620864960739e-001"><Con from="0" weight="6.23845906986375e-001"/><Con from="1" weight="6.38066471832374e-001"/><Con from="2" weight="7.45091106165813e-001"/><Con from="3" weight="6.71796434338937e-001"/><Con from="4" weight="9.97441997131553e-001"/><Con from="5" weight="9.19189617753151e-001"/><Con from="6" weight="8.50952095793208e-001"/><Con from="7" weight="9.45546209733385e-001"/><Con from="8" weight="8.79724349084126e-001"/><Con from="9" weight="5.02567023020587e-001"/><Con from="10" weight="5.98824039323900e-001"/><Con from="11" weight="5.98022152008903e-001"/><Con from="12" weight="8.75783534874818e-001"/><Con from="13" weight="7.18232281676099e-001"/><Con from="14" weight="5.92348352152217e-001"/><Con from="15" weight="8.53494394769162e-001"/><Con from="16" weight="5.17851082590711e-001"/><Con from="17" weight="4.94984611997726e-001"/><Con from="18" weight="4.99996907653199e-001"/><Con from="19" weight="7.04740865353075e-001"/><Con from="20" weight="4.93264203998513e-001"/></Neuron><Neuron id="28" width="8.59215688475373e-001"><Con from="0" weight="6.74733195931047e-001"/><Con from="1" weight="6.99846849949822e-001"/><Con from="2" weight="5.56125072805333e-001"/><Con from="3" weight="5.31626873636874e-001"/><Con from="4" weight="8.99586697328930e-001"/><Con from="5" weight="4.16583465359940e-001"/><Con from="6" weight="8.37008026330919e-001"/><Con from="7" weight="7.38791169258103e-001"/><Con from="8" weight="7.93602343453650e-001"/><Con from="9" weight="2.89502605640649e-001"/><Con from="10" weight="4.50457566908202e-001"/><Con from="11" weight="5.31936501040215e-001"/><Con from="12" weight="6.78340541623101e-001"/><Con from="13" weight="8.85661437109103e-001"/><Con from="14" weight="8.47380721427898e-001"/><Con from="15" weight="7.51515125466512e-001"/><Con from="16" weight="6.27968370936543e-001"/><Con from="17" weight="2.87111677853545e-001"/><Con from="18" weight="5.85072248519910e-001"/><Con from="19" weight="4.12597067131870e-001"/><Con from="20" weight="6.68552080952260e-001"/></Neuron><Neuron id="29" width="7.15276597895236e-001"><Con from="0" weight="4.61934198633365e-001"/><Con from="1" weight="3.29938951825504e-001"/><Con from="2" weight="1.76244438704817e-001"/><Con from="3" weight="4.79510850326271e-001"/><Con from="4" weight="9.98798851902457e-001"/><Con from="5" weight="7.35972343297723e-001"/><Con from="6" weight="8.17843206889888e-001"/><Con from="7" weight="9.30296184861222e-001"/><Con from="8" weight="8.04257111122953e-001"/><Con from="9" weight="3.36731354616322e-001"/><Con from="10" weight="2.96576100846203e-001"/><Con from="11" weight="4.63532893339370e-001"/><Con from="12" weight="9.91072934931407e-001"/><Con from="13" weight="7.98664692677708e-001"/><Con from="14" weight="9.16583399502708e-001"/><Con from="15" weight="9.92900466287236e-001"/><Con from="16" weight="3.26596529191352e-001"/><Con from="17" weight="4.57800021598247e-001"/><Con from="18" weight="8.62216521231523e-001"/><Con from="19" weight="7.66911539720398e-001"/><Con from="20" weight="5.29333017026868e-001"/></Neuron></NeuralLayer><NeuralLayer numberOfNeurons="2" normalizationMethod="softmax"><Neuron id="30" bias="-7.34636360287191e-001"><Con from="21" weight="3.60061624073066e-006"/><Con from="22" weight="6.34265858730661e-006"/><Con from="23" weight="1.11114531013409e-004"/><Con from="24" weight="2.59539873991272e-008"/><Con from="25" weight="1.06900510752367e-006"/><Con from="26" weight="1.20849637228790e-002"/><Con from="27" weight="1.15612351502288e-002"/><Con from="28" weight="1.50733022964213e-008"/><Con from="29" weight="9.09016960248734e-007"/></Neuron><Neuron id="31" bias="7.07645742071681e-001"><Con from="21" weight="4.84553181537581e-006"/><Con from="22" weight="-2.88429885294738e-006"/><Con from="23" weight="1.75651944910976e-005"/><Con from="24" weight="2.29880423069733e-008"/><Con from="25" weight="2.09068392922470e-006"/><Con from="26" weight="3.56192133518204e-003"/><Con from="27" weight="7.23825615238982e-003"/><Con from="28" weight="1.88902489393103e-008"/><Con from="29" weight="-3.55692155552821e-007"/></Neuron></NeuralLayer><NeuralOutputs numberOfOutputs="2"><NeuralOutput outputNeuron="30"><DerivedField optype="categorical"><NormDiscrete field="ERBinary" value="0"/></DerivedField></NeuralOutput><NeuralOutput outputNeuron="31"><DerivedField optype="categorical"><NormDiscrete field="ERBinary" value="1"/></DerivedField></NeuralOutput></NeuralOutputs></NeuralNetwork></PMML>
